FANN_FLO_2.1
num_layers=3
learning_rate=0.700000
connection_rate=1.000000
network_type=0
learning_momentum=0.000000
training_algorithm=2
train_error_function=0
train_stop_function=1
cascade_output_change_fraction=0.010000
quickprop_decay=-0.000100
quickprop_mu=1.750000
rprop_increase_factor=1.200000
rprop_decrease_factor=0.500000
rprop_delta_min=0.000000
rprop_delta_max=50.000000
rprop_delta_zero=0.100000
cascade_output_stagnation_epochs=12
cascade_candidate_change_fraction=0.010000
cascade_candidate_stagnation_epochs=12
cascade_max_out_epochs=150
cascade_min_out_epochs=50
cascade_max_cand_epochs=150
cascade_min_cand_epochs=50
cascade_num_candidate_groups=2
bit_fail_limit=9.99999977648258210000e-003
cascade_candidate_limit=1.00000000000000000000e+003
cascade_weight_multiplier=4.00000000000000020000e-001
cascade_activation_functions_count=10
cascade_activation_functions=3 5 7 8 10 11 14 15 16 17 
cascade_activation_steepnesses_count=4
cascade_activation_steepnesses=2.50000000000000000000e-001 5.00000000000000000000e-001 7.50000000000000000000e-001 1.00000000000000000000e+000 
layer_sizes=8 196 4 
scale_included=1
scale_mean_in=0.492662 0.496157 0.490566 0.433263 0.536688 0.475192 1.000000 
scale_deviation_in=0.499946 0.499985 0.499911 0.495526 0.498652 0.499384 0.000000 
scale_new_min_in=-1.000000 -1.000000 -1.000000 -1.000000 -1.000000 -1.000000 -1.000000 
scale_factor_in=1.000000 1.000000 1.000000 1.000000 1.000000 1.000000 1.000000 
scale_mean_out=0.431167 0.498952 0.069881 
scale_deviation_out=0.495239 0.499999 0.254947 
scale_new_min_out=-1.000000 -1.000000 -1.000000 
scale_factor_out=1.000000 1.000000 1.000000 
neurons (num_inputs, activation_function, activation_steepness)=(0, 0, 0.00000000000000000000e+000) (0, 0, 0.00000000000000000000e+000) (0, 0, 0.00000000000000000000e+000) (0, 0, 0.00000000000000000000e+000) (0, 0, 0.00000000000000000000e+000) (0, 0, 0.00000000000000000000e+000) (0, 0, 0.00000000000000000000e+000) (0, 0, 0.00000000000000000000e+000) (8, 5, 1.00000000000000000000e+000) (8, 5, 1.00000000000000000000e+000) (8, 5, 1.00000000000000000000e+000) (8, 5, 1.00000000000000000000e+000) (8, 5, 1.00000000000000000000e+000) (8, 5, 1.00000000000000000000e+000) (8, 5, 1.00000000000000000000e+000) (8, 5, 1.00000000000000000000e+000) (8, 5, 1.00000000000000000000e+000) (8, 5, 1.00000000000000000000e+000) (8, 5, 1.00000000000000000000e+000) (8, 5, 1.00000000000000000000e+000) (8, 5, 1.00000000000000000000e+000) (8, 5, 1.00000000000000000000e+000) (8, 5, 1.00000000000000000000e+000) (8, 5, 1.00000000000000000000e+000) (8, 5, 1.00000000000000000000e+000) (8, 5, 1.00000000000000000000e+000) (8, 5, 1.00000000000000000000e+000) (8, 5, 1.00000000000000000000e+000) (8, 5, 1.00000000000000000000e+000) (8, 5, 1.00000000000000000000e+000) (8, 5, 1.00000000000000000000e+000) (8, 5, 1.00000000000000000000e+000) (8, 5, 1.00000000000000000000e+000) (8, 5, 1.00000000000000000000e+000) (8, 5, 1.00000000000000000000e+000) (8, 5, 1.00000000000000000000e+000) (8, 5, 1.00000000000000000000e+000) (8, 5, 1.00000000000000000000e+000) (8, 5, 1.00000000000000000000e+000) (8, 5, 1.00000000000000000000e+000) (8, 5, 1.00000000000000000000e+000) (8, 5, 1.00000000000000000000e+000) (8, 5, 1.00000000000000000000e+000) (8, 5, 1.00000000000000000000e+000) (8, 5, 1.00000000000000000000e+000) (8, 5, 1.00000000000000000000e+000) (8, 5, 1.00000000000000000000e+000) (8, 5, 1.00000000000000000000e+000) (8, 5, 1.00000000000000000000e+000) (8, 5, 1.00000000000000000000e+000) (8, 5, 1.00000000000000000000e+000) (8, 5, 1.00000000000000000000e+000) (8, 5, 1.00000000000000000000e+000) (8, 5, 1.00000000000000000000e+000) (8, 5, 1.00000000000000000000e+000) (8, 5, 1.00000000000000000000e+000) (8, 5, 1.00000000000000000000e+000) (8, 5, 1.00000000000000000000e+000) (8, 5, 1.00000000000000000000e+000) (8, 5, 1.00000000000000000000e+000) (8, 5, 1.00000000000000000000e+000) (8, 5, 1.00000000000000000000e+000) (8, 5, 1.00000000000000000000e+000) (8, 5, 1.00000000000000000000e+000) (8, 5, 1.00000000000000000000e+000) (8, 5, 1.00000000000000000000e+000) (8, 5, 1.00000000000000000000e+000) (8, 5, 1.00000000000000000000e+000) (8, 5, 1.00000000000000000000e+000) (8, 5, 1.00000000000000000000e+000) (8, 5, 1.00000000000000000000e+000) (8, 5, 1.00000000000000000000e+000) (8, 5, 1.00000000000000000000e+000) (8, 5, 1.00000000000000000000e+000) (8, 5, 1.00000000000000000000e+000) (8, 5, 1.00000000000000000000e+000) (8, 5, 1.00000000000000000000e+000) (8, 5, 1.00000000000000000000e+000) (8, 5, 1.00000000000000000000e+000) (8, 5, 1.00000000000000000000e+000) (8, 5, 1.00000000000000000000e+000) (8, 5, 1.00000000000000000000e+000) (8, 5, 1.00000000000000000000e+000) (8, 5, 1.00000000000000000000e+000) (8, 5, 1.00000000000000000000e+000) (8, 5, 1.00000000000000000000e+000) (8, 5, 1.00000000000000000000e+000) (8, 5, 1.00000000000000000000e+000) (8, 5, 1.00000000000000000000e+000) (8, 5, 1.00000000000000000000e+000) (8, 5, 1.00000000000000000000e+000) (8, 5, 1.00000000000000000000e+000) (8, 5, 1.00000000000000000000e+000) (8, 5, 1.00000000000000000000e+000) (8, 5, 1.00000000000000000000e+000) (8, 5, 1.00000000000000000000e+000) (8, 5, 1.00000000000000000000e+000) (8, 5, 1.00000000000000000000e+000) (8, 5, 1.00000000000000000000e+000) (8, 5, 1.00000000000000000000e+000) (8, 5, 1.00000000000000000000e+000) (8, 5, 1.00000000000000000000e+000) (8, 5, 1.00000000000000000000e+000) (8, 5, 1.00000000000000000000e+000) (8, 5, 1.00000000000000000000e+000) (8, 5, 1.00000000000000000000e+000) (8, 5, 1.00000000000000000000e+000) (8, 5, 1.00000000000000000000e+000) (8, 5, 1.00000000000000000000e+000) (8, 5, 1.00000000000000000000e+000) (8, 5, 1.00000000000000000000e+000) (8, 5, 1.00000000000000000000e+000) (8, 5, 1.00000000000000000000e+000) (8, 5, 1.00000000000000000000e+000) (8, 5, 1.00000000000000000000e+000) (8, 5, 1.00000000000000000000e+000) (8, 5, 1.00000000000000000000e+000) (8, 5, 1.00000000000000000000e+000) (8, 5, 1.00000000000000000000e+000) (8, 5, 1.00000000000000000000e+000) (8, 5, 1.00000000000000000000e+000) (8, 5, 1.00000000000000000000e+000) (8, 5, 1.00000000000000000000e+000) (8, 5, 1.00000000000000000000e+000) (8, 5, 1.00000000000000000000e+000) (8, 5, 1.00000000000000000000e+000) (8, 5, 1.00000000000000000000e+000) (8, 5, 1.00000000000000000000e+000) (8, 5, 1.00000000000000000000e+000) (8, 5, 1.00000000000000000000e+000) (8, 5, 1.00000000000000000000e+000) (8, 5, 1.00000000000000000000e+000) (8, 5, 1.00000000000000000000e+000) (8, 5, 1.00000000000000000000e+000) (8, 5, 1.00000000000000000000e+000) (8, 5, 1.00000000000000000000e+000) (8, 5, 1.00000000000000000000e+000) (8, 5, 1.00000000000000000000e+000) (8, 5, 1.00000000000000000000e+000) (8, 5, 1.00000000000000000000e+000) (8, 5, 1.00000000000000000000e+000) (8, 5, 1.00000000000000000000e+000) (8, 5, 1.00000000000000000000e+000) (8, 5, 1.00000000000000000000e+000) (8, 5, 1.00000000000000000000e+000) (8, 5, 1.00000000000000000000e+000) (8, 5, 1.00000000000000000000e+000) (8, 5, 1.00000000000000000000e+000) (8, 5, 1.00000000000000000000e+000) (8, 5, 1.00000000000000000000e+000) (8, 5, 1.00000000000000000000e+000) (8, 5, 1.00000000000000000000e+000) (8, 5, 1.00000000000000000000e+000) (8, 5, 1.00000000000000000000e+000) (8, 5, 1.00000000000000000000e+000) (8, 5, 1.00000000000000000000e+000) (8, 5, 1.00000000000000000000e+000) (8, 5, 1.00000000000000000000e+000) (8, 5, 1.00000000000000000000e+000) (8, 5, 1.00000000000000000000e+000) (8, 5, 1.00000000000000000000e+000) (8, 5, 1.00000000000000000000e+000) (8, 5, 1.00000000000000000000e+000) (8, 5, 1.00000000000000000000e+000) (8, 5, 1.00000000000000000000e+000) (8, 5, 1.00000000000000000000e+000) (8, 5, 1.00000000000000000000e+000) (8, 5, 1.00000000000000000000e+000) (8, 5, 1.00000000000000000000e+000) (8, 5, 1.00000000000000000000e+000) (8, 5, 1.00000000000000000000e+000) (8, 5, 1.00000000000000000000e+000) (8, 5, 1.00000000000000000000e+000) (8, 5, 1.00000000000000000000e+000) (8, 5, 1.00000000000000000000e+000) (8, 5, 1.00000000000000000000e+000) (8, 5, 1.00000000000000000000e+000) (8, 5, 1.00000000000000000000e+000) (8, 5, 1.00000000000000000000e+000) (8, 5, 1.00000000000000000000e+000) (8, 5, 1.00000000000000000000e+000) (8, 5, 1.00000000000000000000e+000) (8, 5, 1.00000000000000000000e+000) (8, 5, 1.00000000000000000000e+000) (8, 5, 1.00000000000000000000e+000) (8, 5, 1.00000000000000000000e+000) (8, 5, 1.00000000000000000000e+000) (8, 5, 1.00000000000000000000e+000) (8, 5, 1.00000000000000000000e+000) (8, 5, 1.00000000000000000000e+000) (8, 5, 1.00000000000000000000e+000) (8, 5, 1.00000000000000000000e+000) (8, 5, 1.00000000000000000000e+000) (8, 5, 1.00000000000000000000e+000) (8, 5, 1.00000000000000000000e+000) (8, 5, 1.00000000000000000000e+000) (8, 5, 1.00000000000000000000e+000) (8, 5, 1.00000000000000000000e+000) (8, 5, 1.00000000000000000000e+000) (8, 5, 1.00000000000000000000e+000) (8, 5, 1.00000000000000000000e+000) (8, 5, 1.00000000000000000000e+000) (8, 5, 1.00000000000000000000e+000) (0, 5, 1.00000000000000000000e+000) (196, 5, 1.00000000000000000000e+000) (196, 5, 1.00000000000000000000e+000) (196, 5, 1.00000000000000000000e+000) (0, 5, 1.00000000000000000000e+000) 
connections (connected_to_neuron, weight)=(0, 2.04722696550247200000e+000) (1, 7.51863241064494650000e-001) (2, 1.43336178828951580000e+000) (3, 1.25721048255847690000e+000) (4, 9.65709730428594870000e-001) (5, 9.26877963743306780000e-001) (6, 1.02122056931361780000e+000) (7, -1.64828643258813100000e+000) (0, 2.07589315040548610000e+000) (1, 2.24530412050921950000e+000) (2, 2.35001397806463390000e+000) (3, 1.71862951980269400000e+000) (4, 2.62813538903553210000e+000) (5, 1.00859598496684490000e+000) (6, 1.82345666727118690000e+000) (7, 5.06682863334631420000e-001) (0, 9.64144713771111360000e-002) (1, 1.69371022488720050000e-001) (2, 7.87553147697731990000e-001) (3, -1.98409814675497430000e-002) (4, -6.55236924845230330000e-001) (5, 1.44267480625896060000e-001) (6, 1.61856340581183830000e+000) (7, -7.86527647887137360000e-001) (0, 1.13797621330971240000e+000) (1, 6.05058332497904640000e-001) (2, 5.78100112522308080000e-001) (3, 2.45608732744697290000e-002) (4, 1.29096099964658580000e+000) (5, 1.09092327550509660000e+000) (6, 1.78471803225741540000e+000) (7, 7.56866371979153960000e-001) (0, 5.48481133148687180000e-001) (1, 7.65803096031649090000e-001) (2, 1.11326180957896440000e+000) (3, 1.69691364222486580000e+000) (4, 4.37251221800419030000e-001) (5, 4.38128548082496960000e-001) (6, 6.68744884806829250000e-001) (7, -2.22607222444344370000e+000) (0, -3.39067276924734870000e-001) (1, 4.52845530398652220000e-001) (2, -9.90699723675145080000e-003) (3, 1.35222491367626810000e+000) (4, 6.18337108776540470000e-001) (5, 3.06466284971358800000e-001) (6, 1.44796399655448130000e+000) (7, -1.62201852584681610000e+000) (0, 2.34015475768238400000e+000) (1, 7.09890101928647430000e-001) (2, 1.83650122357265300000e+000) (3, 1.00114405899465190000e+000) (4, 1.63942711664888070000e+000) (5, 1.51991058916430370000e+000) (6, 2.24091121496054280000e+000) (7, 4.46550271279569140000e-001) (0, 1.74679123277411530000e+000) (1, 1.06064428129251030000e+000) (2, 2.06119032277570070000e+000) (3, 9.73719202387777210000e-001) (4, -3.40765615999494680000e-001) (5, 7.98272005166145830000e-001) (6, 5.16230615050354170000e-001) (7, -3.63383706215102240000e-001) (0, 1.37872818809683940000e+000) (1, 2.87246947345750980000e+000) (2, 6.59352936002710280000e-001) (3, 2.12862211887209750000e+000) (4, 1.63247968963874500000e+000) (5, 1.73962029547754970000e+000) (6, 1.78086294278443800000e+000) (7, -1.10483379429368830000e+000) (0, -9.21048438168836910000e-002) (1, -6.24148606299429480000e-001) (2, -1.02790468694437630000e-001) (3, -1.52924422366157640000e-001) (4, 1.01509393596366860000e+000) (5, 8.90370922550504210000e-001) (6, -1.27309228362592110000e+000) (7, -2.22872407703381410000e+000) (0, 1.77070637100726190000e+000) (1, 1.56000001688470750000e+000) (2, -4.15167382402190870000e-001) (3, 1.90409931763462150000e+000) (4, 1.24469518546260430000e+000) (5, 2.06064452199149220000e+000) (6, 5.93744338611507440000e-001) (7, -1.10727904133598170000e+000) (0, 7.78284941300786510000e-001) (1, 7.58698505360972940000e-001) (2, 3.96854793973676090000e+000) (3, 1.93124864408741150000e+000) (4, 3.56958736602970820000e+000) (5, 2.46681373269201210000e+000) (6, 5.04658861726478230000e-001) (7, -1.92605423634684290000e+000) (0, -5.88352227251840000000e-001) (1, 1.23886254279439760000e+000) (2, -8.37757244891200510000e-001) (3, 1.35261116108058510000e+000) (4, -9.09755194350725940000e-001) (5, -3.97221591825407120000e-001) (6, -7.09598247198333200000e-001) (7, -2.12812144645551400000e+000) (0, 9.84917170954879850000e-001) (1, -6.14976293478509130000e-001) (2, 2.24652065531949580000e-001) (3, 4.09299558042202300000e-001) (4, -8.76102337607466810000e-001) (5, 2.79790424934739320000e-001) (6, -2.80909514090802900000e-002) (7, -8.49694788466403670000e-001) (0, 9.72817056567375830000e-001) (1, 1.36152881997766630000e+000) (2, 1.18636648599636910000e-001) (3, 2.16387402893043260000e+000) (4, 2.31379085794093220000e-001) (5, 2.25806241644632430000e+000) (6, 2.62625145646071760000e-001) (7, -2.29088087193361240000e-001) (0, 1.19521224248762480000e+000) (1, 1.33049458281617380000e+000) (2, 2.85975358393291670000e+000) (3, 1.25756798374443930000e+000) (4, 1.50249829784641740000e+000) (5, 1.80787961732435560000e+000) (6, 2.16932802317671360000e+000) (7, 9.17761773990074110000e-002) (0, 5.99123688654878190000e-001) (1, 2.09650739372542770000e+000) (2, 1.37160180534108860000e+000) (3, 1.76903016940204180000e+000) (4, 6.23439985656433660000e-001) (5, -1.99930689061092150000e-001) (6, 1.75910091238942830000e+000) (7, 1.27486719501114520000e+000) (0, 2.15028695807234990000e-001) (1, 1.28598547940365070000e+000) (2, 1.37920182182018850000e+000) (3, 1.05451871465051420000e+000) (4, 1.06941085102063300000e+000) (5, 1.24100098318245180000e+000) (6, 6.94094695797880410000e-001) (7, 9.20618048955970210000e-001) (0, 1.68337555861280870000e+000) (1, 1.06776558443745870000e+000) (2, 6.69289871992727940000e-001) (3, 1.36804126582753290000e+000) (4, 7.49592126511827610000e-001) (5, 1.40056692669408590000e+000) (6, 1.19754174732765510000e+000) (7, 1.44648360253626130000e+000) (0, 1.19212908845127340000e+000) (1, 1.41570099698698510000e+000) (2, 2.74384738541969720000e+000) (3, 1.29082328491485980000e+000) (4, 1.21621301749129640000e+000) (5, 1.10952748588440710000e+000) (6, 2.69094853457340210000e+000) (7, 1.23295362348997540000e+000) (0, 6.83805080129632190000e-003) (1, -1.09393576599521910000e+000) (2, 1.51754257600260380000e+000) (3, 1.64877121680488780000e+000) (4, 2.47584994842964790000e+000) (5, 2.18465846582736710000e-001) (6, -6.60375013633607070000e-001) (7, -1.92204855024884690000e+000) (0, 1.28396610736595120000e+000) (1, 1.04879876129767080000e+000) (2, 1.89469573718981080000e+000) (3, 1.84472943743908170000e+000) (4, 1.67813608183275660000e+000) (5, 1.56503938350635390000e+000) (6, 8.10565653219161410000e-001) (7, 8.75938618940632850000e-001) (0, 5.63248769067932200000e-001) (1, 1.06683581899880990000e+000) (2, 4.65632923938209040000e-001) (3, 1.46555299495864120000e+000) (4, 1.22019252963241250000e+000) (5, 1.09243955569897850000e+000) (6, -3.71476116431463390000e-001) (7, -6.14837605610351390000e-001) (0, 1.66441154290831880000e+000) (1, 2.32275478406857210000e+000) (2, 1.40137471358562470000e+000) (3, 8.86115001861261020000e-001) (4, 3.63767460608010460000e-001) (5, 1.12293854912617120000e+000) (6, 7.48616325345833220000e-001) (7, -6.06159584017284650000e-001) (0, 9.51500638339888430000e-002) (1, 5.99213420443468040000e-001) (2, 5.81782625821520180000e-001) (3, 2.37692804127958680000e-001) (4, 1.08420261340315500000e+000) (5, 1.10898971626253400000e+000) (6, 6.67277762003432920000e-001) (7, 5.99670489308492650000e-001) (0, 1.37542078695141210000e+000) (1, -1.00990028260127350000e+000) (2, 3.09166752875275170000e-001) (3, 1.66803122626354170000e+000) (4, 1.22360806958061240000e+000) (5, 1.93003019708544230000e+000) (6, 6.36894803151213830000e-001) (7, -9.60899914905902620000e-002) (0, 5.20500756273131970000e-001) (1, 1.16921688298105990000e+000) (2, 1.61836237001540110000e+000) (3, 2.19177587254481180000e+000) (4, 2.50584817787626820000e+000) (5, 2.22760044939633060000e+000) (6, 1.34591707765914540000e+000) (7, 1.45144415196765490000e+000) (0, 1.05678678154515530000e+000) (1, 2.90818525409272740000e-002) (2, 7.82969652234453580000e-001) (3, 2.88105418645216050000e-001) (4, 1.41199612645383450000e+000) (5, 2.73580478098408080000e-001) (6, 1.10985545691321400000e+000) (7, 1.31972878563997800000e+000) (0, -4.34432596675775880000e-002) (1, 7.29594000087213420000e-001) (2, 5.58660746971330950000e-001) (3, 2.75990903664614150000e-001) (4, -3.61966457142674720000e-001) (5, 1.48236373932019070000e+000) (6, -4.55976009611518460000e-001) (7, -9.27647111145953770000e-001) (0, 9.38184384354088240000e-001) (1, 1.66498750476883010000e+000) (2, 2.16867843208743950000e+000) (3, 2.39904645980306390000e+000) (4, 1.82140239806355340000e+000) (5, 1.76413285147995410000e+000) (6, 7.66639307352592340000e-001) (7, 2.04332601398414270000e+000) (0, -5.58624640757381110000e-003) (1, 1.03604968540343710000e+000) (2, 2.11520752374856660000e+000) (3, 1.37788800192817230000e+000) (4, 1.99491481073196830000e+000) (5, -1.38604104098501300000e-001) (6, 8.81337001462248800000e-001) (7, -9.84211431623922440000e-001) (0, 1.07856512552906030000e+000) (1, 1.80936756152489010000e+000) (2, 2.10662624914890050000e+000) (3, 1.10772598807133330000e+000) (4, 8.80682441385152280000e-001) (5, 1.33785010605439260000e+000) (6, 1.33299984207761410000e+000) (7, 1.39665548499465570000e+000) (0, -2.19624102153819030000e-001) (1, 1.93214482555959080000e+000) (2, 4.53294179179412950000e-001) (3, 1.09746186893803020000e+000) (4, 1.41325833696524920000e+000) (5, 1.97239758276313040000e+000) (6, 9.76182527854889240000e-001) (7, 1.80619714788671740000e+000) (0, 1.02175233132481110000e+000) (1, 9.70693488726184660000e-001) (2, 1.55529966673643580000e-001) (3, -7.96922426140289360000e+000) (4, -1.00718005477614800000e+000) (5, 6.06471246211254700000e-001) (6, -1.88241150682603250000e+000) (7, -3.63059742354994740000e+000) (0, 1.19343497269635690000e+000) (1, 8.82330840301658870000e-001) (2, 1.97714356976384640000e+000) (3, 2.78373871241281680000e+000) (4, 2.59449489754932920000e+000) (5, 1.52856590520199980000e+000) (6, 1.59868092612132200000e+000) (7, -8.43145078727223330000e-001) (0, -3.70417896673028020000e-002) (1, 4.34979448590546270000e-001) (2, 8.21351048386027790000e-001) (3, 5.52135544852304650000e-002) (4, 3.57741508951122890000e-001) (5, -7.16220958896007370000e-002) (6, 1.36220028892546390000e+000) (7, -8.09569308154339250000e-001) (0, 1.05336677920414120000e+000) (1, 1.86329513664593300000e-001) (2, 8.80812704221381690000e-001) (3, 6.58927786600756790000e-001) (4, 1.64045293124218760000e+000) (5, 1.27273543082023850000e+000) (6, 1.21388526198993810000e+000) (7, 1.09867095972413240000e+000) (0, 3.09522414182649200000e-001) (1, 1.60736714032373910000e+000) (2, 3.25583134980174720000e-001) (3, 1.51549714625173500000e+000) (4, 1.77285917833149260000e+000) (5, 1.12582982631120190000e+000) (6, 7.46082751821843030000e-001) (7, -1.95909958092940650000e+000) (0, 1.00987901731480380000e+000) (1, 1.74200529633321890000e+000) (2, 1.29956161332434540000e-001) (3, 5.72559758524267770000e-001) (4, 8.92503529504849790000e-001) (5, 1.33336974256643040000e+000) (6, 8.58442562520609690000e-001) (7, 1.74872197171127080000e+000) (0, 9.23805431727192210000e-001) (1, 3.28006860193162190000e+000) (2, 1.75390796899650090000e+000) (3, 1.58556702521270170000e+000) (4, 2.98042650736150790000e+000) (5, -2.43136352046273070000e-001) (6, -2.10915216926805840000e-001) (7, -2.22452645689627150000e+000) (0, 1.20931092157032300000e+000) (1, 1.47600515976039250000e+000) (2, 1.20987244781587040000e+000) (3, 8.59940100424068210000e-001) (4, 1.35987977712386150000e+000) (5, 1.99778912869897570000e+000) (6, 2.29407053171604500000e+000) (7, -1.00474135478921010000e-001) (0, 9.86456948393301560000e-001) (1, 2.25390682523785470000e+000) (2, 9.50659357079006060000e-001) (3, -1.97105929314491670000e+000) (4, 1.18719178357612450000e+000) (5, 8.12773510645134480000e-001) (6, -7.31288068512702340000e-001) (7, -2.47428000804788790000e+000) (0, 1.76094907971729910000e+000) (1, 3.57812544629171500000e-001) (2, 1.16289452219791610000e+000) (3, 1.26009412559293940000e+000) (4, 1.56338447586087700000e+000) (5, 5.17377867002003170000e-001) (6, 2.54299986796134250000e-001) (7, -2.40578845349377480000e+000) (0, 1.41668132347770940000e+000) (1, 2.33903147593106730000e+000) (2, 1.46131148900793930000e+000) (3, 1.85134683938679160000e+000) (4, 3.88922836251344050000e-001) (5, 1.76035340115091540000e+000) (6, -1.00426466472805310000e-001) (7, -3.07125659090406900000e-001) (0, 7.67445275340414510000e-001) (1, 6.73252180114010330000e-001) (2, 3.07461459162998660000e-001) (3, -3.15080464557373540000e-001) (4, -5.39261950647109690000e-001) (5, -1.90426709944953610000e-001) (6, 3.29406675792304760000e-002) (7, -2.14471321877105130000e-001) (0, 1.66355829515580940000e+000) (1, 2.51239169063857220000e+000) (2, 3.18599923610381990000e+000) (3, 1.10161881726782780000e+000) (4, 2.30954636780179980000e+000) (5, 2.53191937553502560000e+000) (6, 1.19701153746207110000e+000) (7, -1.03043412758164690000e+000) (0, -3.13179513773681890000e-002) (1, 1.93961572121945340000e+000) (2, -9.25198277211047970000e-001) (3, 1.27996225647588590000e+000) (4, 1.99349699498521350000e+000) (5, 1.40970856091320670000e+000) (6, -1.04806027876269200000e+000) (7, 1.04648506917335900000e-001) (0, 7.75264845376539060000e-001) (1, 1.38062634781960790000e+000) (2, 1.80499030848902380000e+000) (3, 1.49121076774049870000e+000) (4, 1.39789653855814920000e+000) (5, 1.89523002880747950000e+000) (6, 1.28627895492881450000e+000) (7, 5.68528006756990890000e-001) (0, 1.45028276711060310000e+000) (1, 1.34896500101789770000e+000) (2, 2.26222570833333460000e+000) (3, 6.34029285949241240000e-001) (4, 1.36328271298889780000e+000) (5, 1.22036223807626550000e+000) (6, 1.41811577381001810000e+000) (7, 1.99298511583272080000e-001) (0, -7.97584024670870860000e-001) (1, 1.21490112694041320000e-001) (2, 1.30000812003145090000e-001) (3, -3.79668966594833680000e-001) (4, 1.24302802602869720000e+000) (5, -1.39956765397036690000e-001) (6, -6.36473519993625560000e-001) (7, -1.28619892568349400000e+000) (0, 1.48310783085164210000e+000) (1, 6.92111468719346700000e-001) (2, 9.69230643006400940000e-001) (3, 1.00550232272950550000e+000) (4, 2.33711268043396190000e+000) (5, 2.18730203579643410000e+000) (6, 3.93983379010169000000e-001) (7, -4.66117053556575120000e-001) (0, 5.19382687797504290000e-001) (1, 2.64844149379919450000e+000) (2, 2.48430768122776110000e+000) (3, 1.33575250704329610000e+000) (4, 1.20849878478529280000e+000) (5, 2.56934268497043080000e+000) (6, 2.54054157488022000000e+000) (7, 1.90545650317408200000e+000) (0, 6.00357312906047440000e-001) (1, 7.25727673815118160000e-001) (2, 2.88083681322911200000e+000) (3, 2.06536518709645160000e+000) (4, 1.04940848775149690000e+000) (5, 1.57365603286658030000e+000) (6, 1.88213721767381050000e+000) (7, 1.95931956220423430000e+000) (0, 4.40326817721195250000e-001) (1, 1.83029775994195590000e+000) (2, 2.46996675348065170000e-002) (3, 1.27314657525128340000e+000) (4, 6.98718167245863770000e-001) (5, 1.29198504896145260000e+000) (6, 1.30148439519924010000e+000) (7, 5.46915270633785980000e-001) (0, -9.93251152912240780000e-002) (1, 6.80747049699443110000e-001) (2, 1.48923084292221900000e+000) (3, 1.43451035941674430000e+000) (4, 1.91396174362704770000e+000) (5, 1.61206440617616550000e+000) (6, 7.89093091950337170000e-001) (7, -9.52009871033289990000e-002) (0, 6.70192138746890990000e-001) (1, 6.87275924044817410000e-001) (2, 7.18906629549985190000e-001) (3, -1.01948167512171770000e-001) (4, 1.63024819395191620000e+000) (5, 1.48328237013034610000e+000) (6, -4.35458762730628060000e-001) (7, -7.05962215320119820000e-001) (0, 4.68168618586823680000e-001) (1, 1.59823318278504890000e+000) (2, 1.97243825096282530000e+000) (3, 2.79397677205445340000e-001) (4, 1.28187157754651780000e-001) (5, 5.83528639826529800000e-001) (6, 1.15681230021718910000e+000) (7, 9.13925216747110470000e-001) (0, 2.33807669789985040000e+000) (1, 9.53627341870554090000e-001) (2, 1.22915528087613750000e-001) (3, 1.75670252463808230000e+000) (4, 4.30582579753585400000e-002) (5, 1.72359108956854000000e+000) (6, 6.42660414672718170000e-001) (7, 1.23136320531255410000e+000) (0, 1.58119268599661480000e+000) (1, 4.76515796835423720000e-001) (2, 7.47099634806508210000e+000) (3, 2.12632105737108690000e+000) (4, 1.42486017297189790000e+000) (5, 1.84343329027490270000e+000) (6, 4.35914224747282090000e-001) (7, -1.96261473893000640000e+000) (0, 3.06248481921995390000e-001) (1, 1.40177319324492870000e+000) (2, 1.33088619129995770000e+000) (3, 1.01620752337158370000e+000) (4, 3.18579713054527190000e+000) (5, 1.89272073584001040000e+000) (6, 7.88254394430346060000e-001) (7, -2.35579089457580350000e+000) (0, 1.59710253520670520000e+000) (1, 1.07195615450415050000e+000) (2, 1.32460577769267120000e+000) (3, 3.07827743916367360000e-001) (4, 1.85707764281825600000e+000) (5, 1.75701599863315530000e+000) (6, 2.63733679031657520000e+000) (7, -5.98376994054556800000e-001) (0, 4.25653232900503830000e-001) (1, 5.04908929588067550000e-001) (2, 1.01697209591183910000e+000) (3, 1.74633540560047050000e+000) (4, 1.31596812307286610000e+000) (5, 9.76903527806780030000e-001) (6, -2.92350892278871570000e-001) (7, -1.03525005978443120000e+000) (0, 1.14672987117798050000e+000) (1, 8.74820827095345920000e-001) (2, 3.99401113602461440000e-001) (3, 1.95954765185690990000e+000) (4, 7.42848651110398330000e-001) (5, 1.53879779104737450000e+000) (6, -6.81802965146058870000e-002) (7, -2.07048847654041970000e+000) (0, 1.78861281567198760000e+000) (1, 1.14198575963975690000e+000) (2, 1.50040369099453530000e+000) (3, 2.25215168952055310000e+000) (4, 2.44825674982407950000e+000) (5, 1.32213885104574240000e+000) (6, 6.04777937509742180000e-001) (7, 7.55544891488693970000e-001) (0, 1.96804087827706060000e+000) (1, -6.74400915655061550000e-001) (2, 1.54003137734519520000e+000) (3, 1.04972688539266960000e+000) (4, 9.33879514926332810000e-001) (5, 8.34661124966431860000e-001) (6, 9.72654043769150990000e-001) (7, -2.09304455479687630000e+000) (0, 1.25407568920867860000e+000) (1, -3.23363944023413010000e-001) (2, 1.80679588310378380000e+000) (3, -9.93885549107710040000e-002) (4, -3.00503387282669620000e-001) (5, 8.56724347620615780000e-001) (6, 1.57354931995786150000e-001) (7, -1.81848334639050150000e+000) (0, 3.74545649220634600000e-001) (1, 7.72413109855957350000e-001) (2, 7.89102041067486050000e-001) (3, 1.34273747240128460000e+000) (4, 1.46935365981357640000e+000) (5, 4.75658124416527000000e-001) (6, 1.25812616393062630000e+000) (7, 1.74401686374289460000e+000) (0, 5.20123843687839820000e-001) (1, 3.76198764499098410000e+000) (2, 1.92585786413797420000e+000) (3, 2.00846183788953340000e+000) (4, 1.25405723967509040000e+000) (5, 1.77433493389044990000e+000) (6, 1.49638177540976790000e+000) (7, -8.66284138555156850000e-001) (0, 1.44548252889926430000e+000) (1, 1.58037007787336360000e+000) (2, 1.62524052630669650000e+000) (3, 5.64549851460441900000e-001) (4, 4.30268783121431800000e-001) (5, 2.28842222215494040000e+000) (6, 2.35817918093452490000e+000) (7, -8.22186715534206300000e-001) (0, 1.78904705991296330000e+000) (1, 7.01316552644942970000e-001) (2, 2.76631568371668410000e-001) (3, 1.23685254878692460000e+000) (4, 9.97572802504572280000e-002) (5, 1.58207918971634800000e+000) (6, -2.91300585485279280000e-002) (7, -1.64952084845095870000e+000) (0, 2.10813611812670400000e+000) (1, 1.33004467465457780000e+000) (2, 1.18531076315200570000e+000) (3, 1.76141059704522580000e+000) (4, 2.42301229767572270000e+000) (5, 2.67446479209891220000e+000) (6, 2.35613514867896120000e+000) (7, 3.50674292303900570000e-001) (0, 1.81634593514347700000e+000) (1, 1.56902616000011650000e+000) (2, 2.00486653948444180000e+000) (3, 2.17158792831810920000e+000) (4, 1.19391968344379150000e+000) (5, 9.94815296027052990000e-001) (6, 9.76451376766921510000e-001) (7, 1.33870707465743770000e+000) (0, 1.32294090359638280000e+000) (1, 5.91148913055865730000e-002) (2, 9.69175597659825310000e-001) (3, 1.49109220857803560000e+000) (4, 1.41716878354857740000e-001) (5, 5.05744185491424640000e-001) (6, -7.35852826135088430000e-002) (7, 1.79407483453606600000e+000) (0, 5.07772528757019500000e-001) (1, 2.30254033900540640000e+000) (2, 1.56050875464532000000e+000) (3, 1.10424417292605500000e+000) (4, 8.73172716469144630000e-001) (5, 8.07497207001252710000e-001) (6, 6.93846761093413810000e-001) (7, 1.43619060459105090000e+000) (0, 5.44340117838409630000e-001) (1, -3.68362965167955580000e-001) (2, 2.18448381233580240000e+000) (3, 1.61298072946513990000e+000) (4, 6.46953930517201180000e-001) (5, 8.92276386589970550000e-001) (6, -5.28756732434080500000e-001) (7, -2.12914414770579260000e+000) (0, 1.35605070296537740000e+000) (1, 1.96581647700390550000e+000) (2, 8.81390831355098880000e-001) (3, 3.01451861066157050000e+000) (4, 1.74567384767773140000e+000) (5, 1.23372406689579800000e-001) (6, 2.60530312800219710000e-001) (7, -1.74982550835930750000e+000) (0, 1.87696339165954470000e+000) (1, 5.70361181563078470000e-001) (2, 1.05742010535362360000e+000) (3, 1.83336690797606790000e+000) (4, 9.67422870398336080000e-001) (5, 1.26242495780946130000e+000) (6, 3.97704168561260560000e-001) (7, -1.45023478189661860000e+000) (0, 2.58638954820363860000e-001) (1, 1.40141883589643230000e+000) (2, 7.97888907674200950000e-001) (3, 5.04879464384535680000e-001) (4, 1.00630487867445460000e+000) (5, 1.01412551704070550000e+000) (6, 4.74383465750833900000e-002) (7, -1.75931826378967400000e+000) (0, 4.17910545010403490000e-002) (1, 9.45722125683310490000e-001) (2, 1.51158197062820280000e+000) (3, 8.14776871358196430000e-001) (4, 9.93670875958712950000e-001) (5, 1.44146745196259050000e+000) (6, 1.39890750918115160000e+000) (7, -3.12458426385125050000e-001) (0, 5.46036321804901640000e-002) (1, 5.08674568643483480000e-001) (2, 2.14337861624796440000e+000) (3, 2.07548836279114730000e+000) (4, 2.33512989374829530000e-001) (5, 1.81756363308577900000e+000) (6, 1.67798347101589630000e+000) (7, 8.46858459141540230000e-001) (0, 1.27079266819085230000e+000) (1, 1.37375949183403430000e+000) (2, 1.15789578334813960000e+000) (3, 2.41222468342696050000e+000) (4, 2.11445263219538760000e+000) (5, 2.28630796745924460000e+000) (6, 6.29276245880585730000e-001) (7, 1.50032277297648990000e+000) (0, -2.23670709340918040000e-001) (1, 2.12920193030075620000e-001) (2, -1.23843187394291000000e-001) (3, 1.64600750212601080000e+000) (4, 1.74136339880334450000e-001) (5, 1.92155592805140750000e-001) (6, 1.14648412017155280000e-001) (7, -1.10287520763305950000e+000) (0, 1.12662385685889490000e+000) (1, 3.09057204283214650000e-001) (2, -1.15451982783491030000e+000) (3, 4.30779382190498270000e-001) (4, 1.40172337138871580000e+000) (5, -9.73504543646626860000e-001) (6, -1.11662967641693100000e+000) (7, -2.01233582177055580000e+000) (0, 1.28321184691782420000e+000) (1, 1.27165112035644270000e+000) (2, 1.93557747351085490000e+000) (3, -3.12083787957143920000e-001) (4, 4.30089918798363670000e-001) (5, 1.74523323137837850000e+000) (6, 6.00957162062806360000e-001) (7, 1.86052514935288090000e+000) (0, 1.10100541346020850000e+000) (1, 1.25722729336826070000e+000) (2, 9.86257223853687640000e-001) (3, -7.58518876406031990000e-001) (4, 1.55046839939788630000e+000) (5, 1.32550022392870730000e+000) (6, 2.12641942288193200000e+000) (7, -1.61025343982413970000e-001) (0, 1.60631544326860000000e+000) (1, 1.52950540456529070000e+000) (2, 1.26842158141049510000e+000) (3, 8.86682301104359970000e-001) (4, 1.19004016139047160000e+000) (5, 1.59014432235652130000e+000) (6, 1.61109272534520810000e+000) (7, -1.13706154437795370000e+000) (0, 7.13449653863720610000e-001) (1, 1.45450447510162760000e+000) (2, 1.65112825005400680000e+000) (3, 1.12431203993195310000e+000) (4, 1.36317441023999250000e+000) (5, 7.13074928554199410000e-001) (6, 1.46605562283943080000e+000) (7, 5.39670370098805360000e-001) (0, 8.98030432767652380000e-001) (1, 1.13168513454940170000e+000) (2, 1.03677073222127250000e+000) (3, 1.45846182899432320000e+000) (4, 1.66316026089779050000e+000) (5, 1.27811375875671590000e-003) (6, 1.58430414733278610000e+000) (7, -1.23192386068353160000e-002) (0, -1.54231833855978440000e-001) (1, 1.01414405436043630000e+000) (2, 4.23430652333695370000e-001) (3, 1.12287673309183100000e+000) (4, 5.81498067791427990000e-001) (5, 4.46736101144694750000e-001) (6, 9.00550565923069700000e-001) (7, -1.68120175313941660000e+000) (0, 7.30066252861237500000e-001) (1, -2.73116707601252670000e-001) (2, 1.09829902992103510000e+000) (3, 6.49162662512362880000e-001) (4, 9.45215154958512720000e-001) (5, -9.83526564173408780000e-001) (6, -5.39441186146829230000e-001) (7, -3.30002061372417140000e+000) (0, 7.66138532163546330000e-001) (1, 4.69926232517885900000e-001) (2, 1.09897803414194710000e+000) (3, 8.49504734961021300000e-001) (4, 1.57335087848257830000e+000) (5, 1.94631563810312380000e-001) (6, 3.34330744807475390000e-002) (7, -2.72348748884494670000e+000) (0, 1.40892543002867640000e+000) (1, -6.10906479563338210000e-001) (2, 7.95905334532351460000e-001) (3, 6.20247356870424320000e-001) (4, -2.87283612426437980000e-002) (5, 5.64382338320525200000e-001) (6, -1.53375820513718290000e-001) (7, -2.47904626919203070000e+000) (0, 1.45773428099048030000e+000) (1, 9.63833407369525830000e-001) (2, -2.49878831474700250000e+000) (3, -9.68129652873690900000e-001) (4, 2.22109469852950040000e+000) (5, -2.75191378206583180000e-001) (6, -2.11748005123388930000e-001) (7, -2.78831688891660920000e+000) (0, -8.50320440629453670000e-001) (1, -1.40071539966120430000e-001) (2, 2.09807567390238900000e-001) (3, 1.73782564508534660000e+000) (4, 1.49317106068171970000e-001) (5, 9.38791826478398760000e-001) (6, -9.05248637305150150000e-001) (7, 2.67438185092828680000e-001) (0, -2.88351999148067740000e-002) (1, 5.05716913220308280000e-002) (2, 1.57557577835049090000e+000) (3, 1.27267140053393040000e+000) (4, 6.58145870644251780000e-001) (5, 7.55490850654492840000e-001) (6, 2.02078943081147820000e+000) (7, 1.55450295584201710000e+000) (0, 1.89972736034410140000e+000) (1, 1.34611967056521810000e-001) (2, 1.74867835055810470000e+000) (3, 6.35563715423898000000e-001) (4, 3.69979493862786950000e-001) (5, 3.97599850267664700000e-001) (6, 1.30162337488823470000e+000) (7, 1.92523633600530260000e-001) (0, 2.20482472430725230000e+000) (1, 1.70104492063573610000e+000) (2, 2.12829499285983200000e+000) (3, 4.95634256186587070000e-001) (4, 1.81788806712059040000e+000) (5, 1.26920268738462410000e-001) (6, 9.38724129212559210000e-001) (7, -1.05385976495756430000e+000) (0, 1.80915404822552770000e+000) (1, 1.83770430566098010000e+000) (2, 1.83921678572728030000e+000) (3, 5.10050939469402280000e-001) (4, 1.12674933964813160000e+000) (5, 2.00343990165549220000e+000) (6, 2.24515874867062150000e+000) (7, 2.45224882016888570000e+000) (0, 4.09572252315814510000e-001) (1, 1.10696887270618530000e+000) (2, 2.32972703768012530000e+000) (3, 1.71788213809756950000e+000) (4, 9.48604306532611190000e-001) (5, 1.97151648056715540000e+000) (6, 1.97877204916618670000e+000) (7, 5.37477337606161790000e-001) (0, 1.00551283247551960000e+000) (1, 2.12048708925893290000e+000) (2, 2.28769176498468200000e+000) (3, 1.61845697698900180000e+000) (4, 2.05176074107814180000e+000) (5, 1.51873965264170740000e+000) (6, 5.80353299075907270000e-001) (7, -7.64416968419972640000e-001) (0, -2.17483792132352420000e-001) (1, 6.16892898178380900000e-002) (2, 7.92020641345599130000e-001) (3, 1.07193757879229800000e+000) (4, 1.23873844917976480000e-001) (5, 2.88171333535092330000e-001) (6, 6.78307657341625650000e-002) (7, -1.68471077338330620000e+000) (0, 1.57708339978022890000e+000) (1, 2.01539268674611940000e+000) (2, 1.96569114139546270000e+000) (3, 5.05805360223065880000e-001) (4, 8.87987269701055240000e-001) (5, 1.90827185496830500000e-001) (6, 1.78400483436293360000e+000) (7, 2.00868092011056820000e-001) (0, 7.90488383931712390000e-001) (1, 7.67284909170084410000e-001) (2, 2.31003507913699890000e-001) (3, -1.03233577850648550000e+000) (4, -6.20570740327703210000e-001) (5, 1.24134383559394990000e+000) (6, -8.11326085058563800000e-002) (7, -2.23784275861065710000e+000) (0, 1.30583009125082830000e+000) (1, 1.40049881001963720000e+000) (2, -3.48626310199809720000e-001) (3, 1.19709879759723540000e+000) (4, 1.06068320893693200000e+000) (5, 3.95494768647094260000e-001) (6, -1.08543258290704410000e+000) (7, -2.65949902126756580000e+000) (0, -1.40151547427588200000e-001) (1, 2.19489185997936030000e+000) (2, 1.59498170919856270000e-001) (3, 1.96872164318218990000e+000) (4, 1.96486970151707150000e+000) (5, 2.91441413527268270000e+000) (6, 1.53869688559712370000e+000) (7, -4.20416280959229390000e-001) (0, 6.26808773712995480000e-001) (1, 2.17419737939751560000e+000) (2, 1.02516595945307840000e+000) (3, 1.27789115125679410000e+000) (4, 8.09625466871371380000e-001) (5, 1.49719187406449850000e+000) (6, 8.07966663132033580000e-001) (7, 1.50612540146521460000e+000) (0, 1.26197336361513160000e+000) (1, 4.68448397610950030000e-001) (2, 1.01311006062438720000e+000) (3, 2.06592356626400920000e+000) (4, 1.37373805717852430000e+000) (5, 1.63258646790483010000e+000) (6, 2.64955589784666670000e+000) (7, 3.44318817627293380000e-001) (0, 1.43688053313157460000e+000) (1, 1.46195244225517220000e-001) (2, 3.69315776888185510000e-001) (3, 4.79937776269472260000e-001) (4, 1.83699525206018150000e+000) (5, 2.72278011516053740000e-001) (6, 1.33638804751175890000e+000) (7, 1.82041793354910040000e+000) (0, 1.22000927665566630000e+000) (1, 1.34257059732868990000e+000) (2, 1.48723389507640770000e+000) (3, 2.28159737294132990000e+000) (4, 1.90240413869128020000e+000) (5, 1.26296828685015080000e+000) (6, 2.04138782883761480000e+000) (7, 1.47900052342062770000e-001) (0, 1.00648881084886650000e+000) (1, 9.05830191723870470000e-001) (2, 1.08992688747236330000e+000) (3, 2.06266517120124560000e+000) (4, 1.75376544727769450000e+000) (5, 3.65722221013003890000e-001) (6, -4.54558062060878010000e-001) (7, 2.02801332321136340000e-001) (0, 1.92110435062435000000e-001) (1, 1.59891538379415570000e+000) (2, 4.61481708771890940000e-002) (3, 1.24535438605410810000e+000) (4, 1.48440876069595820000e+000) (5, 8.57138997920851460000e-001) (6, 1.72129126718270010000e+000) (7, 9.62950384648266660000e-001) (0, 2.00431846538890120000e+000) (1, 3.04680037795792070000e+000) (2, 2.20065496886662840000e+000) (3, 2.08828710742105180000e+000) (4, 2.27165291275850350000e+000) (5, 2.33339639857786050000e+000) (6, 1.72663662567200070000e+000) (7, -4.38751346457210090000e-001) (0, -3.04377006520492650000e-001) (1, -4.97282880128399830000e-001) (2, -8.85498959304533930000e-001) (3, -5.45920486492376460000e-001) (4, -3.62261518292669560000e-001) (5, -3.94799151000759350000e-001) (6, -3.88481798479697660000e-001) (7, -2.42516896289572380000e+000) (0, 8.13338916973006980000e-001) (1, 2.11800930519847870000e+000) (2, 1.03287182905532030000e+000) (3, 1.52476296681490120000e+000) (4, 1.63737995761097130000e+000) (5, 2.29016626471575890000e-001) (6, 1.47713064297717020000e+000) (7, 2.53200727984332910000e-001) (0, 4.28120001375099150000e-001) (1, -1.58461672164613850000e-001) (2, 1.84471002448901470000e+000) (3, 1.59714791129106800000e+000) (4, 1.30805576780573560000e+000) (5, 1.23684408924961060000e+000) (6, -5.37394610069203750000e-001) (7, -2.16110239703739810000e+000) (0, 9.21348944321245140000e-001) (1, 1.90764865817361380000e+000) (2, -2.20449048037930480000e-003) (3, 1.43013023280780450000e+000) (4, 1.90414887151384970000e+000) (5, 2.16851210285262090000e+000) (6, 1.86282910548704580000e+000) (7, 2.96865221317989590000e-001) (0, 6.31004981438907930000e-001) (1, 1.49343525534914990000e+000) (2, 1.92685189652630530000e+000) (3, 4.59428726938378330000e-001) (4, 5.24686937393500030000e-001) (5, 6.06488462374349500000e-001) (6, 2.16532445770893570000e+000) (7, 1.16075059831909130000e-001) (0, 1.22191475777394930000e+000) (1, 6.16138371922974940000e-001) (2, 1.27262863574814980000e+000) (3, 2.18402324257828930000e+000) (4, 2.00484913791036720000e+000) (5, 7.05891273077549180000e-001) (6, 9.98707674263671130000e-001) (7, -6.27436584218038830000e-001) (0, 2.21480786965036370000e+000) (1, 1.31528130392457100000e+000) (2, 2.62989030928689790000e+000) (3, 8.86707521108420550000e-001) (4, 1.40721870566671470000e+000) (5, 1.26918011673402020000e+000) (6, 2.62297984461415950000e+000) (7, 2.50802563179907920000e+000) (0, 1.06858062406608980000e+000) (1, 6.50153405079616280000e-001) (2, 2.47855994407682880000e-001) (3, -1.82906455164264650000e+000) (4, 1.00649922955804390000e+000) (5, -1.13990457306765490000e+000) (6, -9.71739436731526410000e-001) (7, -2.02326746097839340000e+000) (0, -3.99389830598107120000e-001) (1, 2.29337621733875000000e+000) (2, 7.53615579546112800000e-001) (3, -1.34554036710216350000e+000) (4, 1.79696555094544960000e+000) (5, 2.11296709475459550000e+000) (6, 1.46889066081668270000e+000) (7, -1.32080144393342990000e+000) (0, -7.34815630355424960000e-001) (1, 2.85100118429852000000e-001) (2, 4.69809344971964360000e-001) (3, -2.75719445628324290000e+000) (4, -5.91315506192385270000e-002) (5, -1.15936421613267030000e+000) (6, -1.17695062587626590000e+000) (7, -1.63404995435171350000e+000) (0, 4.11220431883024890000e-002) (1, 1.32574197012625650000e+000) (2, 6.20134996873236030000e-001) (3, 2.62650448942229660000e+000) (4, 4.86607931110933310000e-001) (5, 1.63341310033809230000e+000) (6, 9.26778761903072290000e-001) (7, 2.09154181334244930000e-001) (0, 9.06142731166889810000e-001) (1, 5.45503966578987480000e-001) (2, 1.58206326241614190000e+000) (3, 8.29049318308589410000e-001) (4, 1.38317353564661640000e+000) (5, 2.28506695058445390000e+000) (6, 2.12388568391686720000e+000) (7, 1.00453166681125980000e+000) (0, 1.12216084817145110000e+000) (1, 2.13119188727780840000e+000) (2, 7.89081186310830680000e-001) (3, 4.21279779000151620000e-001) (4, 1.55849749788244510000e+000) (5, 1.02095068926448910000e+000) (6, 1.64282751230995890000e+000) (7, 1.38246086085222550000e+000) (0, 1.17459055313023850000e+000) (1, 1.05383218756497430000e+000) (2, 1.26654790070967630000e+000) (3, 8.95472889288554170000e-001) (4, 9.62934892182295890000e-001) (5, 1.95191752892007960000e+000) (6, 5.01565088418137630000e-001) (7, 1.72219408486457580000e+000) (0, 1.58078787290765770000e+000) (1, 1.81103414687695840000e+000) (2, 6.40396283501679430000e-001) (3, 7.06504598355744860000e-001) (4, 1.98335269750824490000e+000) (5, 1.96391237544611390000e+000) (6, 2.05102291232427050000e+000) (7, 1.00879124047688800000e+000) (0, 3.30356988669507750000e-001) (1, 1.04516832477464420000e+000) (2, 1.21671355106089440000e+000) (3, 4.15672952208662790000e-001) (4, -2.64708624928946590000e-001) (5, 6.62506988691121570000e-001) (6, 5.07203091857390540000e-001) (7, -9.38508012251652810000e-001) (0, 1.10826124315000010000e+000) (1, 1.12920766704669970000e+000) (2, 1.39495859752928460000e+000) (3, -1.30158241374135580000e-002) (4, 1.40418714044977010000e+000) (5, 1.32337559023438760000e+000) (6, 7.10753378661422070000e-001) (7, 9.75619058164333250000e-001) (0, -1.39041116144999060000e-001) (1, 1.09312800108957870000e+000) (2, 1.07030857518306100000e+000) (3, 2.33179040164587550000e+000) (4, 7.18919653328722870000e-001) (5, 6.68634258205851430000e-001) (6, 3.17036315675179260000e-001) (7, -2.63949189216751860000e+000) (0, -1.46925696906600150000e-001) (1, 5.00995549526515040000e-001) (2, 1.43598937499191480000e+000) (3, 1.31049722853808110000e-001) (4, 1.81087051595191100000e+000) (5, 2.03700917837675140000e+000) (6, 5.91848663883858930000e-001) (7, 6.93923272213916140000e-001) (0, -2.57803097736485910000e-001) (1, 9.53308073444224300000e-001) (2, 4.75563415844472540000e-001) (3, 6.90292164656773680000e-001) (4, 3.23625664191411870000e-001) (5, 9.99568793557376930000e-001) (6, 1.46895552348974130000e+000) (7, 5.83455241877186560000e-001) (0, 6.26446524974784480000e-001) (1, 3.24688153587885300000e+000) (2, 6.10219588419246510000e-001) (3, 1.68072507237884960000e+000) (4, 6.73925601603756360000e-001) (5, 1.75766287557946590000e+000) (6, 5.56252331674648380000e-001) (7, 9.42681044930896110000e-001) (0, 8.32017509887873710000e-001) (1, 1.30254244671236970000e-001) (2, 1.65096388207827460000e+000) (3, 1.80207894044119440000e-001) (4, 1.67551569956739630000e+000) (5, 5.66366111781604900000e-001) (6, 1.79067136639130560000e+000) (7, -5.50384635328300950000e-001) (0, 2.08314219013394920000e-001) (1, 4.70845691435435810000e-001) (2, -1.48131198739584560000e+000) (3, 5.13829156969885960000e-001) (4, -2.51965068668592200000e-001) (5, 1.32766986275496010000e+000) (6, 1.57252769693254910000e-001) (7, -1.17173475736768040000e+000) (0, 4.53260527280517520000e-001) (1, 8.16549718527329050000e-001) (2, 6.14421149429794760000e-001) (3, -4.98143863313146720000e-002) (4, 4.07365155371498140000e-001) (5, -6.16415501196871050000e-001) (6, 3.81989804952954930000e-001) (7, -1.13081621025524730000e+000) (0, 1.25616492988034260000e+000) (1, 2.12663989245172050000e+000) (2, 4.89042324379391990000e-001) (3, 9.73496865695067100000e-001) (4, 2.11451569582755590000e+000) (5, 1.37957722523281890000e+000) (6, 1.22026840896101320000e+000) (7, 1.72699300008226310000e+000) (0, 2.18642972058956030000e-001) (1, 8.92648450728980140000e-001) (2, 1.61486404437581890000e+000) (3, 4.45886185969731170000e-001) (4, 1.64627414313936190000e+000) (5, 1.30994856018378920000e+000) (6, 4.26886461834913020000e-001) (7, 8.21644087062679330000e-001) (0, 1.53515686972439760000e+000) (1, 2.81767010847302660000e-001) (2, 2.00403536559023590000e+000) (3, 1.80220993220908810000e+000) (4, 1.87360467830212830000e+000) (5, 1.36984343591327980000e+000) (6, 4.52352145819277570000e-001) (7, 1.98511986274320030000e+000) (0, 1.16306062153602510000e+000) (1, 1.04949658296470980000e+000) (2, 1.76344742556959090000e+000) (3, 1.27353703966857660000e+000) (4, 1.42449739817298580000e+000) (5, 1.74678216089829960000e+000) (6, 3.52856205696269020000e-001) (7, -2.21011617795188850000e+000) (0, 1.71518651764337850000e+000) (1, 4.18524580305843890000e-001) (2, 1.28908010559734840000e+000) (3, 1.67371732367308070000e+000) (4, 1.21024728803287010000e+000) (5, 1.51456054007895750000e+000) (6, 1.84964126485908030000e+000) (7, -3.36569513052664530000e-001) (0, 1.51426041265535380000e+000) (1, 7.53103071670920050000e-001) (2, 1.40924499114942230000e+000) (3, 1.76346799657692530000e+000) (4, -1.40311301561221460000e-001) (5, 7.12121622176799860000e-001) (6, 4.44939243776595770000e-001) (7, -2.21167963976132100000e+000) (0, 1.06886254191400520000e+000) (1, 1.06528428638458910000e+000) (2, 1.42234850820236570000e+000) (3, 1.84329847506719680000e+000) (4, 9.07843822928051990000e-001) (5, 1.56716079776226300000e+000) (6, 4.86758490956127670000e-001) (7, -1.30412324372870980000e+000) (0, 7.20943011116651380000e-001) (1, 5.73735153412953110000e-001) (2, 1.60659808035512920000e+000) (3, 1.70653228064339020000e+000) (4, 1.61183672186606700000e+000) (5, 1.40572709191784860000e+000) (6, 1.42254261760518340000e+000) (7, 9.91099463048581320000e-001) (0, 2.11361904452678220000e-002) (1, 2.68283404895870550000e-001) (2, 1.43363775019463870000e+000) (3, 1.88166708296466760000e-001) (4, 1.53234674057588110000e+000) (5, 1.07914830694927750000e+000) (6, 1.62253878841124230000e+000) (7, 6.47803540910175510000e-003) (0, 7.60636500264900590000e-001) (1, 1.96252061051236430000e+000) (2, 1.07383891932308280000e+000) (3, 7.24352074695907120000e-001) (4, 6.35260572507587610000e-001) (5, 1.64953663515382920000e+000) (6, 3.54280023088851030000e+000) (7, 1.10708851592714860000e+000) (0, 1.46013633664731080000e+000) (1, 4.26273338268176370000e-001) (2, -5.19533639928243310000e-001) (3, 2.01913365183076990000e+000) (4, 1.25510453743655370000e+000) (5, 1.06496828234762080000e+000) (6, 7.73795758977870340000e-001) (7, -2.01833396251697740000e+000) (0, 1.26558040661289110000e+000) (1, 1.16115678600416300000e-001) (2, 1.18542433117276170000e+000) (3, 6.68629960399990450000e-001) (4, 1.09762900188836900000e+000) (5, 1.78919285853392210000e+000) (6, 7.91643596339411280000e-001) (7, 5.11214311511302280000e-003) (0, 7.47957776831035700000e-001) (1, 5.71722280831303610000e-001) (2, 1.05521592769952680000e+000) (3, 1.04775233655671140000e+000) (4, 1.40312066196896370000e-001) (5, -9.29612267690133750000e-002) (6, -9.77127146376114970000e-001) (7, -1.95170840714462820000e+000) (0, -1.26028864648453390000e-001) (1, -6.38603903244721720000e-001) (2, 1.70062327365276960000e+000) (3, 1.83770277578020890000e-001) (4, 1.79063228468227890000e+000) (5, -1.28780239445811300000e-001) (6, 9.80046281695920560000e-001) (7, -2.21215439029383500000e+000) (0, 2.21844359464771080000e+000) (1, 1.70607188667859950000e+000) (2, 1.51503274940273540000e+000) (3, 1.56671844102043870000e+000) (4, 9.12542436314491280000e-001) (5, 1.76873439214176510000e+000) (6, 1.59888236876785530000e+000) (7, -6.36216044589864920000e-001) (0, 1.08470634260563360000e+000) (1, 1.84466411354345760000e+000) (2, 9.05448562251539020000e-001) (3, 4.13913879558776620000e-001) (4, 1.13178207584418430000e+000) (5, 2.09320149668195830000e+000) (6, 2.02806045361423410000e+000) (7, 1.62481302331274850000e+000) (0, 9.84777313774687770000e-002) (1, 6.04132441553979830000e-001) (2, -1.02213863239851180000e+000) (3, 9.83924590687689000000e-001) (4, 1.37589307994789430000e+000) (5, -3.01021459160899170000e-001) (6, 9.99908374051625800000e-001) (7, 3.86130267877902280000e-001) (0, 1.14266658722732360000e+000) (1, 5.60701157690205450000e-001) (2, 1.87528811250771430000e+000) (3, 1.32434113073495930000e+000) (4, 1.64535291304405980000e+000) (5, 1.22337935574284230000e+000) (6, -1.49624262643729830000e-001) (7, 1.58915017432627390000e+000) (0, 1.76333103202707300000e+000) (1, 7.14795027927011880000e-001) (2, 1.08092563241000470000e+000) (3, 2.36676691745375890000e+000) (4, 1.74047956813708350000e+000) (5, 4.76676215949371150000e-001) (6, 2.48629581924103780000e+000) (7, 4.02981574636423810000e-001) (0, 7.81672228042484600000e-001) (1, 9.12454374846707330000e-001) (2, 4.23187348169531960000e-001) (3, -6.33852261770403120000e+000) (4, -1.16851670497811730000e+000) (5, 6.51825536169880150000e-001) (6, 3.07722652428893520000e-001) (7, -9.83555270320910830000e-001) (0, 3.52401468493977350000e-001) (1, -6.65690265276299150000e-002) (2, 1.77754536108288730000e+000) (3, 7.02090895101592390000e-001) (4, -1.74194313200644160000e-001) (5, 1.48342689624859010000e+000) (6, -8.38833018189229510000e-001) (7, -9.10429410888625170000e-001) (0, 1.23676439417522220000e+000) (1, -3.61540623232584850000e-001) (2, 5.26876477876180190000e-001) (3, 1.39668266632567660000e+000) (4, 3.52596803829688330000e-001) (5, 2.95302225385204320000e+000) (6, 5.84321642256449780000e-001) (7, -1.78045753146231390000e+000) (0, 9.01963794337264810000e-001) (1, 3.10913730474681740000e-001) (2, 1.80031597375719280000e+000) (3, 2.75066293880597830000e-001) (4, -8.26950071986757610000e-003) (5, -4.70282355795003310000e-002) (6, -1.56450653614578570000e+000) (7, -1.00521299875118420000e+000) (0, 2.40535656267388630000e-001) (1, 8.69745146346543870000e-001) (2, -1.75837409500039400000e-001) (3, 1.42621319269155760000e+000) (4, 6.24770450491281480000e-002) (5, 1.10591985125640550000e+000) (6, 1.74291419740164240000e+000) (7, -8.80951737618989710000e-001) (0, 1.05306639419942980000e+000) (1, 5.70984042266919570000e-001) (2, 4.23011549298102470000e-001) (3, -3.02161589161804270000e-002) (4, 2.24166098559517580000e-001) (5, 2.00446222946124800000e-001) (6, 1.48516849222996680000e+000) (7, -6.11839487846074000000e-001) (0, 1.50049222658335920000e-001) (1, 1.24775786291368560000e+000) (2, 8.56790371524023260000e-001) (3, 2.77118307051873190000e+000) (4, -3.19763185840891230000e+000) (5, 2.24259287721452650000e-001) (6, -1.50575776785519340000e+000) (7, -2.64830369027076530000e+000) (0, -1.72252955020050960000e+000) (1, -3.13371867465694480000e-002) (2, 8.74414059735347800000e-001) (3, -4.34694550323636570000e-001) (4, -4.12128643784931860000e-001) (5, -7.62093911520602800000e-001) (6, 2.12619616675297270000e-001) (7, -4.73188998860111450000e-001) (0, 7.81222361451324420000e-003) (1, 1.69570460928417540000e+000) (2, 1.55857528079137350000e+000) (3, -1.34694528206542980000e-001) (4, 3.22903845910911200000e-001) (5, -4.35976244483237020000e-001) (6, -2.20553899579107730000e-001) (7, -9.52847591953807420000e-001) (0, 1.71514233005435710000e+000) (1, 1.32038359217726460000e+000) (2, 1.83460846776171650000e+000) (3, 1.77679495057193760000e+000) (4, 1.05636031433624210000e+000) (5, 1.90062419974898830000e+000) (6, 1.70638536002489640000e+000) (7, -8.60206200058414310000e-001) (0, 3.80688560583968600000e-001) (1, 1.27164950075093320000e+000) (2, 1.19609640395975950000e+000) (3, 1.76375677066384220000e+000) (4, 1.59303581125397460000e+000) (5, 5.52537735308184170000e-001) (6, 1.04847317983260950000e+000) (7, 1.44369128832642550000e+000) (0, 7.28397840569834500000e-002) (1, 7.95147547571956600000e-001) (2, 3.33306423318348200000e-001) (3, 2.80666911180392780000e-001) (4, 2.04313810632952690000e+000) (5, 5.61999002530798710000e-001) (6, 5.69100620348989200000e-004) (7, 7.30804400020112490000e-001) (0, 1.19446228653882080000e+000) (1, 1.02380683803449820000e+000) (2, 4.95486897294902030000e+000) (3, 1.88696814321076810000e+000) (4, 1.57863702083044300000e+000) (5, 8.58475207205543040000e-001) (6, 1.09803256877552080000e+000) (7, -2.14263559521432830000e+000) (0, -6.58700418450482550000e-001) (1, 4.84362704775369300000e-001) (2, 1.12581458774392410000e+000) (3, -2.85567186903700750000e-001) (4, 2.81565656223397020000e-001) (5, 1.65638441512211410000e+000) (6, 8.57726744857884250000e-001) (7, -1.73337337925582390000e+000) (0, 1.46296814128120280000e+000) (1, 2.47215444306617240000e-001) (2, 1.34126171978920850000e+000) (3, 1.17789683784935750000e+000) (4, 5.00515815813471600000e-001) (5, 4.80293556604954870000e-002) (6, 1.53071525084142010000e+000) (7, -4.02588493897436560000e-001) (0, -1.90789610493498030000e+000) (1, -1.38916463025361800000e+000) (2, -7.99233208100958150000e+000) (3, 1.18354846360529750000e+000) (4, 1.58718916772162210000e+000) (5, -3.05561218240883560000e-001) (6, 6.12304373830037880000e-001) (7, -1.33257111822294520000e+000) (0, 8.03429097317651890000e-001) (1, -7.61853203540913820000e-002) (2, 1.09246896336756190000e+000) (3, -1.70327111602554000000e+000) (4, -8.24296781051833790000e-001) (5, -1.28128017643236960000e+000) (6, 5.12542405055592810000e-002) (7, -2.77438084417021090000e+000) (0, 1.08752637073284570000e+000) (1, 5.02055323737100420000e+000) (2, 2.18025861384479260000e+000) (3, 1.40653112927906070000e+001) (4, 1.13526775685436170000e+000) (5, 8.43032198411201030000e-001) (6, 6.00824627287075970000e-001) (7, -1.86189089550722150000e+000) (0, 1.82631728359429050000e+000) (1, 1.18262758848023640000e+000) (2, 8.87425169040636510000e-001) (3, 4.53483926458806200000e-001) (4, 1.23645144372580160000e+000) (5, 1.63993955081956690000e+000) (6, 1.13194181182000710000e+000) (7, 1.74593408518926200000e+000) (0, 1.00521744853038640000e+000) (1, 1.78610873318161390000e+000) (2, 1.68867239264773840000e-002) (3, 7.06023156524956620000e-001) (4, 1.51021072050613150000e+000) (5, 1.38120417013959580000e-001) (6, 5.16546264226943270000e-001) (7, 2.01496550338187270000e+000) (0, 2.35460688812940950000e+000) (1, 1.85021092960370080000e+000) (2, 1.28376745114529340000e+000) (3, 1.14511673193895810000e+000) (4, 1.88542567400067630000e+000) (5, 1.06186156111713180000e+000) (6, 1.38854601596853010000e+000) (7, 1.97657840412441030000e+000) (0, 7.38260362039326210000e-001) (1, 1.91543624039927040000e+000) (2, 1.30643581399799970000e+000) (3, 2.71875411760907730000e+000) (4, 2.74348293550419610000e+000) (5, 1.30101305193691360000e+000) (6, 2.06716953058945440000e+000) (7, 4.12918271416441830000e-001) (0, 6.78615379898980910000e-001) (1, 9.07726182799957340000e-002) (2, 1.51119738784996490000e+000) (3, 2.40278289412908560000e+000) (4, 1.37314778588356830000e+000) (5, 3.92842359326251500000e-001) (6, 1.84023533284182110000e-001) (7, -3.79015711287697620000e-001) (0, 1.18218864464619710000e+000) (1, 2.51273843175351840000e-001) (2, 2.79899529687380880000e+000) (3, 2.46944985646569840000e+000) (4, 5.60719799980716970000e-001) (5, 5.74698208943655970000e-001) (6, 4.77049244852707220000e-001) (7, -1.65332710018342710000e+000) (0, -3.03812835664552970000e-001) (1, 1.09649135161443610000e+000) (2, -3.30990542683974600000e-001) (3, -2.90524906663254590000e-001) (4, 1.04894545682454000000e-001) (5, 7.60649086700796230000e-001) (6, -1.12415203418841210000e+000) (7, -3.32987823129894920000e+000) (0, 6.18403728860593140000e-001) (1, 1.65388152822679140000e+000) (2, -1.90216943801935170000e+000) (3, 7.23600184953019140000e-001) (4, 2.79255945431497340000e-001) (5, 1.99216474138531520000e-001) (6, -1.16214914758997460000e+000) (7, -1.98962190861522250000e+000) (0, 1.51023871094306570000e+000) (1, 2.21642039643672990000e+000) (2, 2.02300102278482940000e+000) (3, 2.41406615036663520000e+000) (4, -5.28484506324569000000e-001) (5, 1.67813325030723080000e+000) (6, 2.25106108463980710000e+000) (7, -9.04122290472677110000e-001) (0, 3.27976696919202840000e+000) (1, 2.04168402138495030000e+000) (2, 8.19132073714544000000e-001) (3, 1.07081483293274890000e+000) (4, 1.33061464751843370000e+000) (5, 1.17581834947801140000e+000) (6, 9.93941704889517500000e-001) (7, 1.42454892723313830000e-002) (0, 3.16431636018022320000e-001) (1, 6.70550727679198100000e-001) (2, 1.25753662285442090000e+000) (3, 1.38998768027509630000e+000) (4, 3.25612171615455970000e-001) (5, 1.62580841040296710000e+000) (6, -1.29476894399629990000e+000) (7, -6.93666467756474670000e-001) (0, 8.54077233905477740000e-001) (1, 1.94623649649914680000e+000) (2, 1.00986851289166200000e+000) (3, 9.17705918768047190000e-001) (4, 2.28269806499662000000e+000) (5, 1.17209605268413060000e+000) (6, 1.66593561297347570000e+000) (7, -1.93694372608299750000e-001) (0, 1.14899313982311370000e+000) (1, 1.39925288970350330000e+000) (2, 3.32449913515952320000e-001) (3, 1.59271225630128450000e+000) (4, 1.35096699844446480000e+000) (5, 8.47575291853048390000e-002) (6, 5.78729996683430280000e-002) (7, -1.95437731480275880000e+000) (0, 4.77979762755492700000e-001) (1, 5.10642670423632320000e-001) (2, 2.10191743671072520000e+000) (3, 8.40891968406991760000e-001) (4, 1.72428372727179040000e+000) (5, -2.28104279916986790000e-001) (6, 4.98505449019799370000e-001) (7, -2.06516241813011180000e+000) (0, 1.21065067164757620000e+000) (1, 4.37977469159095520000e-001) (2, 7.11608272491707770000e-001) (3, 1.65909907187695760000e+000) (4, 1.67882062239281700000e+000) (5, 4.12873472658380200000e-001) (6, 2.17865733106985760000e-001) (7, -2.37339657738911170000e+000) (0, 3.23302896914294260000e-001) (1, 5.72892667227967170000e-001) (2, -2.97240697571919450000e-001) (3, 1.01706433444078260000e+000) (4, 1.68675468781309590000e+000) (5, 5.86092684679556550000e-001) (6, 1.26416410751119360000e+000) (7, 1.52420903448706200000e+000) (0, 1.30574609657000720000e+000) (1, 1.40310761427036470000e+000) (2, 1.10832346673402140000e+000) (3, 1.87244273360043680000e+000) (4, 1.48493883584540100000e+000) (5, 6.03977629595815140000e-001) (6, 2.77925685988821060000e+000) (7, -4.97340394110469930000e-001) (0, 1.68954985658207460000e+000) (1, 8.94962880116831480000e-002) (2, 3.84492593811200580000e+000) (3, 7.22602906595226860000e-001) (4, 8.06148783847717710000e-001) (5, 1.32178024018487930000e+000) (6, 8.54324033884362590000e-002) (7, -1.37947928194231720000e+000) (0, 7.26188220807078010000e-001) (1, 1.25097048621132690000e+000) (2, -5.59376534343218210000e-001) (3, 1.04420582974761620000e+000) (4, 1.27463431332976060000e+000) (5, -1.13509625358271180000e-001) (6, 3.39410632354002320000e-001) (7, -2.03495609445121330000e+000) (0, 1.05404586480482100000e+000) (1, 5.29124337860990670000e-001) (2, 1.45398420138866680000e+000) (3, 1.33905835803147430000e+000) (4, 1.96988793003082070000e+000) (5, 2.68512852613158990000e-001) (6, 1.02296639896526330000e+000) (7, 2.70783184152591390000e-001) (0, 2.12210236581361980000e+000) (1, 1.56856306633750410000e+000) (2, 1.16431126986681900000e+000) (3, 1.83617914227868680000e+000) (4, 3.74308107801563980000e-001) (5, 1.48107037631655340000e+000) (6, 2.23760867146275130000e-001) (7, 2.08433495161368490000e+000) (0, 1.15997500051107270000e+000) (1, 6.44346532215955060000e-001) (2, 1.31118892555833600000e+000) (3, 1.16171086421582200000e+000) (4, 1.43154004473921950000e+000) (5, 2.02819340189042800000e+000) (6, 1.22635089859188430000e+000) (7, -3.12260023745585920000e-001) (8, -1.36310305369179650000e-001) (9, -1.21842633577760110000e+000) (10, -6.62886443321393240000e-001) (11, 9.10122766947835120000e-001) (12, -7.86862277778323960000e-001) (13, -1.07350769538509730000e+000) (14, 1.39872142212206410000e+000) (15, 3.34931514673033730000e-001) (16, -5.39462147872602720000e-001) (17, -4.18296123131354500000e-001) (18, -5.94382412804704610000e-001) (19, 2.12688427281387510000e-001) (20, -1.88905291894921310000e-001) (21, -2.14654779294415400000e-001) (22, -8.71857435353587280000e-001) (23, 7.73972602107382720000e-001) (24, 3.13190948566186010000e-001) (25, 4.70102509472472670000e-001) (26, 3.82245683851047790000e-001) (27, 1.70476239595135090000e+000) (28, 1.62014506842939010000e+000) (29, -1.16997872111588740000e+000) (30, -1.09981183178059210000e+000) (31, 2.58327888157684970000e-002) (32, -9.36660855680241930000e-001) (33, -8.01274468522391150000e-001) (34, 7.73733188436446780000e-001) (35, -9.16918548752297280000e-001) (36, 3.93514641527214160000e-001) (37, 7.33483505365956410000e-001) (38, 3.83684885576796750000e-001) (39, -7.52731020740843860000e-001) (40, 3.07270519210285640000e-001) (41, 1.30925017802495720000e+000) (42, 1.61414850100043150000e+000) (43, -8.23210762683381000000e-001) (44, 2.36123967081874190000e-001) (45, 1.23058053702380810000e+000) (46, -2.03749105548218150000e-001) (47, -6.62555432339583810000e-001) (48, 1.70593190259630670000e+000) (49, -4.38431874396666140000e-001) (50, 5.99513667529920080000e-001) (51, 8.52707513780327390000e-001) (52, 1.22013765436799080000e-001) (53, 4.66640111283331220000e-001) (54, -2.45796611076281670000e-001) (55, 9.32642307139326720000e-001) (56, -1.72618465794947300000e-001) (57, 2.57252755676627090000e-001) (58, -3.42177905865163110000e-001) (59, 9.99939071374284840000e-001) (60, 2.33096508131138940000e-001) (61, -5.25571426163521150000e-001) (62, 8.40475347398219940000e-001) (63, -3.17554726298918570000e-001) (64, -8.47098971296559450000e-002) (65, -5.20121293048127380000e-001) (66, -2.18167585573317380000e-002) (67, 4.34039173822649770000e-002) (68, -6.64577437552600240000e-001) (69, 1.32633826055683170000e-002) (70, 9.83248776091249830000e-001) (71, -6.57218264544116360000e-001) (72, -6.51650210689478260000e-001) (73, 7.44301510211201830000e-001) (74, 2.17940846626027420000e-001) (75, -6.61735842790137970000e-001) (76, 4.60883353981430540000e-001) (77, -7.47280781642702840000e-001) (78, 1.71011913587837850000e+000) (79, -6.23278608648372630000e-002) (80, -1.65391264912076290000e-001) (81, -4.06060889805826770000e-001) (82, -5.18835165964945720000e-001) (83, -3.62782661003727800000e-001) (84, 7.49664066497414680000e-001) (85, -3.83545779155775650000e-001) (86, 9.24016775842516070000e-001) (87, 7.14081246971068340000e-001) (88, 5.21658672979301460000e-001) (89, -6.46009101213317620000e-002) (90, 3.44548101942684260000e-001) (91, 8.24607191794126000000e-001) (92, 1.02727591004154610000e+000) (93, 7.97081764838458160000e-001) (94, -7.60943663589491950000e-001) (95, 7.97688413441417920000e-002) (96, 3.70727894655809910000e-001) (97, -4.97373832042508180000e-001) (98, -6.17428188495796060000e-001) (99, -3.94727578314720270000e-001) (100, 1.19017497659243480000e+000) (101, -3.09790144092070730000e-001) (102, 6.49517689760448440000e-001) (103, -5.60730067833737470000e-001) (104, 3.65064711059052080000e-001) (105, 4.07249318517865430000e-002) (106, -1.42374140719306430000e-001) (107, -5.15997735674212590000e-001) (108, 1.26240199232591170000e-001) (109, 5.76498470249470070000e-002) (110, -4.50753705704864390000e-001) (111, -1.99774906756901650000e-001) (112, -1.81314600963139560000e+000) (113, 4.26165006366670600000e-001) (114, 1.04451609234071260000e+000) (115, -1.90104921846743190000e-001) (116, 8.81714838548141810000e-001) (117, 6.71202755053048940000e-001) (118, 7.81468422551195200000e-001) (119, 3.83918013052754970000e-001) (120, 2.03886361582986990000e+000) (121, 6.87210283656542240000e-001) (122, 8.81145196908768020000e-001) (123, 9.56003794056409120000e-001) (124, 2.41275687337310280000e-001) (125, 2.83837406580535080000e-001) (126, 6.49871602575551320000e-001) (127, 8.44918250893071490000e-001) (128, -5.12859751669029420000e-001) (129, 1.17650446509170050000e+000) (130, -1.72985055069579330000e+000) (131, 6.08589225783434000000e-001) (132, 9.49302531074531770000e-001) (133, -4.56849890139290890000e-001) (134, 6.07928831411738700000e-001) (135, -3.97728138470268780000e-001) (136, 6.06269959645685970000e-001) (137, 1.99692969869256130000e+000) (138, -5.08964325027037920000e-001) (139, -7.04218275833983220000e-001) (140, -3.38315355182728710000e-001) (141, -5.05019006657655420000e-001) (142, 3.82524998496975440000e-002) (143, 1.15582513596618890000e+000) (144, -4.41273629367499030000e-001) (145, -2.29803929205667330000e-001) (146, 3.58897672440899150000e-001) (147, 9.86666694313393930000e-001) (148, -9.83639354322054520000e-001) (149, -3.15642563568990010000e-001) (150, 2.76662212873409470000e-001) (151, 9.74916175783188820000e-002) (152, -6.46969505114155850000e-001) (153, -4.10392852879638560000e-001) (154, -1.00098389980017050000e-001) (155, -2.58280522089407660000e-001) (156, -5.09526639008390240000e-001) (157, 4.21238285089794270000e-001) (158, 2.92653619277547350000e-001) (159, 6.76418762403838800000e-001) (160, -2.15690423682774990000e-002) (161, -9.04410004330448160000e-001) (162, 5.10194274727655110000e-001) (163, 2.26735374523883990000e+000) (164, 1.62612698422003540000e+000) (165, -5.28111914714980490000e-002) (166, 6.45090142047807790000e-002) (167, -4.42117215095385870000e-001) (168, -4.34854522639649130000e-001) (169, 1.26197418834353360000e+000) (170, -1.12637485128761220000e-001) (171, 1.05892071826703850000e-001) (172, 1.01838717421310770000e-001) (173, 3.24541862020596650000e-001) (174, 8.27401517275079820000e-001) (175, -2.65538280517268990000e-002) (176, 4.73238310983787320000e-001) (177, -3.09780732203165210000e-001) (178, 3.24540634842909790000e-001) (179, 1.06078364928150660000e+000) (180, -1.43411666227635130000e+000) (181, 2.05642477152241930000e-001) (182, 8.43914461994466510000e-001) (183, 8.29059951623138500000e-001) (184, 1.18733056954965700000e+000) (185, -3.77638167578744580000e-001) (186, -1.74324912801430790000e+000) (187, 1.81532705921604350000e+000) (188, 1.79079939211217300000e+000) (189, -5.55702976141086660000e-001) (190, 6.60517384233647140000e-001) (191, -1.11567125977235900000e+000) (192, 4.25513618137016990000e-001) (193, 1.61290954424758490000e-001) (194, -7.23998997428095930000e-001) (195, -1.41919930897106080000e-001) (196, -1.93310077723701930000e-001) (197, 3.34957997163941090000e-001) (198, 1.18756765806487820000e-001) (199, 9.64823383734930150000e-001) (200, -5.55234696838805440000e-001) (201, 9.98363021406251550000e-001) (202, -4.03843888037611840000e-001) (203, 2.06377728781409310000e-001) (8, 6.95727653990053430000e-001) (9, 3.04926792287916030000e-001) (10, 5.21007090130484960000e-001) (11, 4.96159532434520210000e-001) (12, 3.07889831706763870000e-001) (13, 6.64134191565452730000e-001) (14, 3.20609711550267460000e-001) (15, 2.69432509255492840000e-001) (16, -9.68567047753079670000e-001) (17, -4.11945464231322780000e-001) (18, -2.67543732191539100000e-001) (19, -1.16524591156601430000e+000) (20, 7.44868244224022090000e-001) (21, 5.39684979503584410000e-001) (22, 7.01296005473006740000e-001) (23, -7.66412172222637020000e-001) (24, 8.33896926133813500000e-001) (25, -8.90922565504108420000e-001) (26, 3.20724886497894050000e-001) (27, 1.05208799823560170000e+000) (28, -1.69979131446277100000e-001) (29, 7.31782383686696570000e-002) (30, 1.73588385449258200000e-001) (31, 5.31945113402425340000e-001) (32, 9.05427613165770580000e-001) (33, 5.85132102709915670000e-001) (34, -6.93561676442466140000e-001) (35, 6.91944532884776530000e-001) (36, 4.10120355779103270000e-001) (37, 5.33292508858636990000e-001) (38, 2.65154760081423410000e-001) (39, 1.14886562605034030000e-001) (40, 7.39973252590317540000e-001) (41, 5.52715373465090880000e-002) (42, 1.22547944039462500000e+000) (43, 7.08097452845136810000e-001) (44, -1.05528182722879200000e+000) (45, -5.29604107731944770000e-001) (46, 6.55586513883212540000e-001) (47, -5.97662538043768570000e-001) (48, 4.82931804816851550000e-001) (49, -9.31812444778029150000e-004) (50, 1.94458212854896530000e-001) (51, -2.19599587796641570000e-001) (52, -1.28876328700280710000e-001) (53, -1.24142620951730760000e+000) (54, 4.50285028648667600000e-001) (55, -6.15104450474753150000e-001) (56, -2.69506959343612520000e-001) (57, 7.50125838802818250000e-001) (58, -1.74299395715218960000e-001) (59, -1.13234633572979230000e+000) (60, -9.48414046103234880000e-001) (61, 3.95098531784484670000e-001) (62, 1.98865286002497030000e-001) (63, 9.07277983166013820000e-001) (64, -7.70510819574117270000e-001) (65, -1.74577423237465590000e-002) (66, 3.46898568946414850000e-001) (67, -6.42971649023186820000e-001) (68, 3.76594869027994660000e-001) (69, 4.47945031744221010000e-001) (70, -9.58288483865269100000e-001) (71, -2.55205808307654320000e-001) (72, -7.99062254890888000000e-001) (73, 2.36755107321978850000e-001) (74, -2.45364811877469950000e-001) (75, 1.69940161475625680000e-001) (76, 8.14309687914839820000e-001) (77, 6.14463046987640870000e-001) (78, 1.69163390168191840000e+000) (79, -5.49970646308472960000e-002) (80, 5.73205660279547450000e-001) (81, -5.99164830034455860000e-001) (82, 6.38443680464635730000e-001) (83, 9.74078349082458160000e-001) (84, -5.90912113777441130000e-001) (85, -7.60283342268088690000e-001) (86, 6.50758809372750990000e-001) (87, -5.40656532878620030000e-001) (88, -8.36977850631172300000e-002) (89, 4.55617162418775760000e-002) (90, 4.17511749527921250000e-001) (91, 6.87219600719692900000e-001) (92, 7.45427878739575270000e-003) (93, 3.34337411712394230000e-001) (94, 3.35865222072201320000e-001) (95, -6.69301256848124030000e-001) (96, 4.27847136166798590000e-001) (97, 8.25744831068239040000e-001) (98, 7.09517962522788760000e-001) (99, -7.53762338748352970000e-001) (100, 2.55924086179035780000e-001) (101, 5.51029979993493680000e-001) (102, 2.75866622808915770000e-001) (103, -9.00436560096984360000e-001) (104, -7.54907002629356670000e-002) (105, -8.28922944390283690000e-001) (106, -9.09891996670890270000e-001) (107, -2.48707868083207610000e-001) (108, 1.91602297835437890000e-001) (109, -4.49126968202713530000e-001) (110, -3.40513781253845570000e-003) (111, -2.39461639001252410000e-002) (112, -3.53339610735610650000e-001) (113, -5.33916325443800740000e-001) (114, 1.10152872299337970000e+000) (115, 2.22039553032297220000e-001) (116, -7.50370180086880170000e-001) (117, -2.91536768756901990000e-001) (118, 1.50430919464108190000e-001) (119, -7.65854678597090000000e-001) (120, 1.85964514096040670000e-001) (121, -1.05650841855307130000e+000) (122, -6.61839164244414360000e-001) (123, 3.59443681637570960000e-001) (124, 6.61074064682636300000e-001) (125, 2.26673958188251150000e-001) (126, -1.13148058369730500000e+000) (127, 2.72833682776481510000e-001) (128, -7.03889609618039810000e-001) (129, -1.20137406756444950000e-001) (130, 3.02308306689806630000e-001) (131, 6.90471955964871880000e-001) (132, 3.01310572935458880000e-001) (133, -7.38745797587305080000e-001) (134, 5.24921523928505770000e-001) (135, -1.96005253311145180000e-002) (136, 2.88656540296899970000e-001) (137, -1.73418121664976970000e+000) (138, 8.25002846173821690000e-001) (139, 7.58567968360123750000e-001) (140, -1.30746143494042190000e+000) (141, 7.94718130958044670000e-001) (142, 2.16102797245376180000e-001) (143, 3.22787708625562160000e-001) (144, -7.08884184569564040000e-001) (145, -6.03184722400073260000e-001) (146, 2.90440058196850090000e-001) (147, -5.70867967143939390000e-001) (148, 8.57369361554975340000e-001) (149, -2.74605731657583290000e-001) (150, -2.45107424791793010000e-001) (151, 8.60424202275326120000e-001) (152, 6.13123930244465210000e-001) (153, -4.76762721844184830000e-001) (154, 6.81064682726738480000e-001) (155, -3.03486101355614710000e-001) (156, -4.24128840997622490000e-001) (157, -5.18486778795056260000e-003) (158, -6.44025728341705350000e-001) (159, 2.94885168557006690000e-001) (160, 8.46186166318859010000e-001) (161, 2.07339935409562300000e-001) (162, 1.08797762166847490000e-001) (163, 1.99646249661715600000e-001) (164, -6.33197893417888680000e-001) (165, 6.06463198378552200000e-002) (166, 1.25562234506655090000e+000) (167, 2.49015670652631530000e-001) (168, 3.95413311289672890000e-001) (169, -2.42184888270923940000e-001) (170, 1.69448024395562300000e+000) (171, -8.10570690257874320000e-001) (172, -6.51166115276441080000e-001) (173, -9.08545929146892030000e-001) (174, 4.38982919486087750000e-001) (175, -9.63288391565238630000e-002) (176, -3.19205955419941730000e-001) (177, 3.98622869467898880000e-001) (178, 6.11050289353725740000e-001) (179, 2.11346598944454900000e-001) (180, -6.83159922739370040000e-002) (181, 7.30018886055197820000e-001) (182, 2.40812631847921730000e-001) (183, 6.68913507334974680000e-001) (184, 6.76628641599229970000e-001) (185, 2.88414647319188480000e-001) (186, 6.37467054380749130000e-001) (187, -6.20993150836950500000e-001) (188, 3.37158337321151360000e-001) (189, 1.96215566052588220000e-001) (190, -4.65487642623021950000e-001) (191, 1.11256553378640220000e+000) (192, 1.72005085981972780000e-001) (193, 3.33775524757226940000e-001) (194, 4.02520753827937060000e-001) (195, -5.31624295075668770000e-001) (196, 8.16168525954607980000e-001) (197, 1.94267770836235640000e-001) (198, -2.28370692948554030000e-001) (199, -3.10380957779750720000e-001) (200, -6.99638906535878460000e-001) (201, 2.27685890312686770000e-001) (202, -2.87358825083071590000e-001) (203, -9.97206288363503560000e-001) (8, 1.14354998348230640000e-001) (9, 2.16803730267741660000e-001) (10, 1.87061644922885740000e-001) (11, -1.36843115859942690000e-001) (12, -2.86898625716350210000e-002) (13, 6.76443178143840830000e-003) (14, 1.21258805627411690000e+000) (15, -2.16791927635430760000e-002) (16, 5.07546947633569450000e-001) (17, -1.98860594347949450000e-001) (18, -4.83897047688779780000e-001) (19, 2.84559769406105690000e-002) (20, -1.27794594644618230000e-001) (21, 4.39061687743199850000e-002) (22, -3.55301299279156270000e-001) (23, 4.69355301279310970000e-001) (24, -1.14555893322362330000e+000) (25, -1.14188151782959980000e+000) (26, -1.07163347326696080000e+000) (27, 6.48282865779436950000e-001) (28, -2.06792004323605620000e-001) (29, 4.95601424988609150000e-001) (30, 5.46464718371650890000e-001) (31, 5.22096646152355960000e-001) (32, 3.42661650044773390000e-001) (33, 4.02613053586269480000e-001) (34, -1.64080259052789000000e-001) (35, -7.00294415760995940000e-001) (36, 1.12491968253767200000e-002) (37, 5.90758422813711830000e-001) (38, 4.73927109731763880000e-001) (39, 3.75461264031848650000e-001) (40, -8.32658494874711080000e-002) (41, 1.76659116620806020000e-001) (42, 4.88606301288798840000e-001) (43, -1.56245854804729800000e-001) (44, -8.01759935434132600000e-001) (45, -4.29667837511012400000e-001) (46, 6.16088213388965470000e-001) (47, 2.85206254920248980000e-001) (48, 4.62045975631217580000e-001) (49, 8.88814532466142980000e-002) (50, 1.35670976417580720000e-002) (51, -9.11611805353528810000e-001) (52, -8.62270297213081570000e-001) (53, 6.27929319111541370000e-001) (54, -1.00950080412720020000e-001) (55, 2.60965574077353600000e-001) (56, -4.80916633602476550000e-001) (57, 1.13352132318852310000e+000) (58, 2.06904632329409870000e-001) (59, 5.71030642740418700000e-001) (60, 2.98793056034952210000e-001) (61, -1.25406141262818590000e+000) (62, -3.50199012210707480000e-001) (63, -7.41477179850997370000e-001) (64, -3.33387600517481900000e-001) (65, 5.56595987824596180000e-001) (66, -1.10149538567856300000e+000) (67, 3.35173805975561960000e-001) (68, 3.81690571613740310000e-001) (69, -5.90635410576575760000e-001) (70, 3.23955469558666610000e-002) (71, 2.22359216056313450000e-001) (72, -3.56682215884105480000e-001) (73, 7.87798777753229710000e-001) (74, -9.08401005057224320000e-001) (75, -9.94424119831748690000e-002) (76, 4.32551060633858560000e-001) (77, 1.19833377591831480000e-001) (78, 1.63010582772736990000e+000) (79, -2.75909458386917990000e-001) (80, 3.21270159337680940000e-001) (81, 3.14178802553536700000e-001) (82, -1.79063551135784180000e-001) (83, 3.30728849358572330000e-001) (84, 1.18445630762276340000e+000) (85, 1.12394954651482480000e+000) (86, -1.09624447706567650000e+000) (87, -1.26737770003929920000e+000) (88, -7.57075727496879460000e-001) (89, 2.19487427975123110000e-001) (90, 1.14200749476686010000e+000) (91, -1.41537275380059340000e-001) (92, 1.24955254876817400000e-001) (93, 6.48037574530414660000e-001) (94, 9.86113279767581870000e-002) (95, -1.01150412885484900000e+000) (96, -4.07535496847275520000e-001) (97, 6.40219054458935900000e-001) (98, 1.75841335877565190000e-002) (99, -1.81564552826907500000e-001) (100, -3.13005194089029520000e-002) (101, -2.95111246515001590000e-001) (102, -3.25019056198558640000e-001) (103, -6.40877631404169200000e-002) (104, 5.44885183307560530000e-001) (105, 4.33967091685898250000e-001) (106, -4.95454977040097750000e-002) (107, 5.68605144969511090000e-001) (108, -1.18008369623191070000e-001) (109, -1.11303011425783320000e+000) (110, -4.74202962101507590000e-002) (111, -2.93629983790544490000e-002) (112, 7.65203170287824250000e-001) (113, -1.64732402020321690000e-001) (114, 1.57332855402585810000e+000) (115, 4.84042853664191420000e-001) (116, -3.48545126225667080000e-001) (117, -7.37193851152263660000e-001) (118, -7.65713667410567870000e-002) (119, 4.85521591975750840000e-001) (120, -2.93921962545932280000e-001) (121, -5.42757332010615710000e-001) (122, 1.86291308297092730000e-001) (123, 1.63123729197140750000e+000) (124, 5.51114436058558810000e-001) (125, -7.88068350018823920000e-001) (126, 4.20016980814115040000e-001) (127, 1.41826667676955650000e-001) (128, 3.54227874497941300000e-001) (129, -3.18822964073115010000e-002) (130, 5.33413926638337200000e-001) (131, 7.03138154563860080000e-001) (132, 3.80700386765131630000e-001) (133, 3.24679895324122110000e-001) (134, 2.85299951917127480000e-001) (135, -2.24206134728427040000e-001) (136, 6.85447798846421240000e-002) (137, 1.74249364731436960000e-001) (138, 3.43183520722247670000e-001) (139, -4.09614840638306500000e-001) (140, 9.77540618078349550000e-002) (141, 3.10659043714176910000e-001) (142, 1.88961204208440620000e-001) (143, -2.54524262947457940000e-002) (144, 7.33439841445978290000e-001) (145, -1.11047954892818220000e+000) (146, 4.42692582771812060000e-001) (147, 2.53376544215213050000e-001) (148, -6.40380642731858300000e-003) (149, -5.11059767674630420000e-002) (150, 5.55884220795448970000e-001) (151, 4.54444135566502150000e-002) (152, 2.15298537050802250000e-002) (153, -2.29907331704001820000e-001) (154, 5.46534419843586420000e-001) (155, 3.65081369991455350000e-001) (156, 5.25387874236993570000e-002) (157, -3.66892834715496390000e-001) (158, 2.07308410943097850000e-001) (159, -7.66139263669518680000e-001) (160, -3.18233542619810350000e-001) (161, -3.21310763822182540000e-001) (162, 5.67398143111734870000e-001) (163, 4.71389027782948690000e-002) (164, 2.75427918873855430000e-001) (165, 3.48278405573323850000e-001) (166, 7.78646353981682580000e-001) (167, 4.99906159670784170000e-001) (168, 1.02621696973230020000e-001) (169, -2.30583691755096020000e-002) (170, 1.69021737846822080000e+000) (171, -4.86013905102777700000e-001) (172, -4.71476636478892150000e-001) (173, -3.76004070575548470000e-001) (174, -7.89676594695471250000e-001) (175, -1.20437070873689600000e+000) (176, 9.34391462733669830000e-003) (177, -1.07703453140855850000e+000) (178, 2.12857288553031100000e-001) (179, 2.78605738754391210000e-001) (180, 3.66502675901731410000e-001) (181, 5.22662464805440210000e-001) (182, -6.81280250505028470000e-002) (183, 1.15863613375848020000e-001) (184, 5.99123765099629610000e-001) (185, 1.19439258809964380000e-001) (186, 3.84150252408926200000e-001) (187, 2.66541288798751440000e-001) (188, 4.23276877381589810000e-001) (189, 1.67914042685596980000e-001) (190, 6.35882712686027920000e-001) (191, -1.05871137231955910000e+000) (192, -4.35838860784088340000e-001) (193, -4.99851985595438090000e-001) (194, -4.41401968961531550000e-001) (195, 3.37428393711875880000e-001) (196, 1.57804415918841030000e-002) (197, 3.27058856024115390000e-001) (198, 4.45512111685757160000e-003) (199, 3.30055044583929810000e-001) (200, -1.91377686821119150000e-002) (201, -1.12591605107179800000e+000) (202, 6.02400360499766420000e-001) (203, 6.19183127692252140000e-001) 
