FANN_FLO_2.1
num_layers=3
learning_rate=0.700000
connection_rate=1.000000
network_type=0
learning_momentum=0.000000
training_algorithm=2
train_error_function=0
train_stop_function=0
cascade_output_change_fraction=0.010000
quickprop_decay=-0.000100
quickprop_mu=1.750000
rprop_increase_factor=1.200000
rprop_decrease_factor=0.500000
rprop_delta_min=0.000000
rprop_delta_max=50.000000
rprop_delta_zero=0.100000
cascade_output_stagnation_epochs=12
cascade_candidate_change_fraction=0.010000
cascade_candidate_stagnation_epochs=12
cascade_max_out_epochs=150
cascade_min_out_epochs=50
cascade_max_cand_epochs=150
cascade_min_cand_epochs=50
cascade_num_candidate_groups=2
bit_fail_limit=9.99999977648258210000e-003
cascade_candidate_limit=1.00000000000000000000e+003
cascade_weight_multiplier=4.00000000000000020000e-001
cascade_activation_functions_count=10
cascade_activation_functions=3 5 7 8 10 11 14 15 16 17 
cascade_activation_steepnesses_count=4
cascade_activation_steepnesses=2.50000000000000000000e-001 5.00000000000000000000e-001 7.50000000000000000000e-001 1.00000000000000000000e+000 
layer_sizes=8 3 4 
scale_included=1
scale_mean_in=0.508434 0.450602 0.580723 0.469880 0.453012 0.468675 1.000000 
scale_deviation_in=0.499929 0.497554 0.493441 0.499092 0.497787 0.499018 0.000000 
scale_new_min_in=-1.000000 -1.000000 -1.000000 -1.000000 -1.000000 -1.000000 -1.000000 
scale_factor_in=1.000000 1.000000 1.000000 1.000000 1.000000 1.000000 1.000000 
scale_mean_out=0.401205 0.478313 0.120482 
scale_deviation_out=0.490142 0.499529 0.325524 
scale_new_min_out=-1.000000 -1.000000 -1.000000 
scale_factor_out=1.000000 1.000000 1.000000 
neurons (num_inputs, activation_function, activation_steepness)=(0, 0, 0.00000000000000000000e+000) (0, 0, 0.00000000000000000000e+000) (0, 0, 0.00000000000000000000e+000) (0, 0, 0.00000000000000000000e+000) (0, 0, 0.00000000000000000000e+000) (0, 0, 0.00000000000000000000e+000) (0, 0, 0.00000000000000000000e+000) (0, 0, 0.00000000000000000000e+000) (8, 6, 1.00000000000000000000e+000) (8, 6, 1.00000000000000000000e+000) (0, 6, 1.00000000000000000000e+000) (3, 6, 1.00000000000000000000e+000) (3, 6, 1.00000000000000000000e+000) (3, 6, 1.00000000000000000000e+000) (0, 6, 1.00000000000000000000e+000) 
connections (connected_to_neuron, weight)=(0, -1.56034283121818770000e+000) (1, 1.91566847416478490000e+000) (2, 1.11130567806610040000e+000) (3, 8.88093086757183460000e-001) (4, 2.69570579890893970000e+000) (5, -2.83496565496762810000e+000) (6, -1.86735635401828190000e-001) (7, -1.88139084653018320000e+000) (0, -2.02621012643514980000e-001) (1, 1.10302864857114490000e+000) (2, -4.14424865094787260000e-001) (3, -2.69260878699038030000e+001) (4, 2.87116218745587340000e+001) (5, 2.46892170433225000000e+001) (6, -2.51779381759295660000e+000) (7, 2.63026197120703880000e+000) (8, 6.30905093785759760000e-001) (9, 6.26710792991887480000e-002) (10, 6.76123924424035570000e-001) (8, 3.05013077085515280000e-002) (9, -8.35677569595920540000e-001) (10, 8.37219360643088660000e-001) (8, -3.63408711947835190000e-001) (9, 5.77339711101682140000e-001) (10, -1.20257507827396940000e-001) 
