FANN_FLO_2.1
num_layers=47
learning_rate=0.700000
connection_rate=1.000000
network_type=1
learning_momentum=0.000000
training_algorithm=2
train_error_function=0
train_stop_function=0
cascade_output_change_fraction=0.010000
quickprop_decay=-0.000100
quickprop_mu=1.750000
rprop_increase_factor=1.200000
rprop_decrease_factor=0.500000
rprop_delta_min=0.000000
rprop_delta_max=50.000000
rprop_delta_zero=0.100000
cascade_output_stagnation_epochs=12
cascade_candidate_change_fraction=0.010000
cascade_candidate_stagnation_epochs=12
cascade_max_out_epochs=150
cascade_min_out_epochs=50
cascade_max_cand_epochs=150
cascade_min_cand_epochs=50
cascade_num_candidate_groups=2
bit_fail_limit=3.49999999999999980000e-001
cascade_candidate_limit=1.00000000000000000000e+003
cascade_weight_multiplier=4.00000000000000020000e-001
cascade_activation_functions_count=5
cascade_activation_functions=3 12 10 17 16 
cascade_activation_steepnesses_count=4
cascade_activation_steepnesses=2.50000000000000000000e-001 5.00000000000000000000e-001 7.50000000000000000000e-001 1.00000000000000000000e+000 
layer_sizes=126 1 1 1 1 1 1 1 1 1 1 1 1 1 1 1 1 1 1 1 1 1 1 1 1 1 1 1 1 1 1 1 1 1 1 1 1 1 1 1 1 1 1 1 1 1 3 
scale_included=0
neurons (num_inputs, activation_function, activation_steepness)=(0, 0, 0.00000000000000000000e+000) (0, 0, 0.00000000000000000000e+000) (0, 0, 0.00000000000000000000e+000) (0, 0, 0.00000000000000000000e+000) (0, 0, 0.00000000000000000000e+000) (0, 0, 0.00000000000000000000e+000) (0, 0, 0.00000000000000000000e+000) (0, 0, 0.00000000000000000000e+000) (0, 0, 0.00000000000000000000e+000) (0, 0, 0.00000000000000000000e+000) (0, 0, 0.00000000000000000000e+000) (0, 0, 0.00000000000000000000e+000) (0, 0, 0.00000000000000000000e+000) (0, 0, 0.00000000000000000000e+000) (0, 0, 0.00000000000000000000e+000) (0, 0, 0.00000000000000000000e+000) (0, 0, 0.00000000000000000000e+000) (0, 0, 0.00000000000000000000e+000) (0, 0, 0.00000000000000000000e+000) (0, 0, 0.00000000000000000000e+000) (0, 0, 0.00000000000000000000e+000) (0, 0, 0.00000000000000000000e+000) (0, 0, 0.00000000000000000000e+000) (0, 0, 0.00000000000000000000e+000) (0, 0, 0.00000000000000000000e+000) (0, 0, 0.00000000000000000000e+000) (0, 0, 0.00000000000000000000e+000) (0, 0, 0.00000000000000000000e+000) (0, 0, 0.00000000000000000000e+000) (0, 0, 0.00000000000000000000e+000) (0, 0, 0.00000000000000000000e+000) (0, 0, 0.00000000000000000000e+000) (0, 0, 0.00000000000000000000e+000) (0, 0, 0.00000000000000000000e+000) (0, 0, 0.00000000000000000000e+000) (0, 0, 0.00000000000000000000e+000) (0, 0, 0.00000000000000000000e+000) (0, 0, 0.00000000000000000000e+000) (0, 0, 0.00000000000000000000e+000) (0, 0, 0.00000000000000000000e+000) (0, 0, 0.00000000000000000000e+000) (0, 0, 0.00000000000000000000e+000) (0, 0, 0.00000000000000000000e+000) (0, 0, 0.00000000000000000000e+000) (0, 0, 0.00000000000000000000e+000) (0, 0, 0.00000000000000000000e+000) (0, 0, 0.00000000000000000000e+000) (0, 0, 0.00000000000000000000e+000) (0, 0, 0.00000000000000000000e+000) (0, 0, 0.00000000000000000000e+000) (0, 0, 0.00000000000000000000e+000) (0, 0, 0.00000000000000000000e+000) (0, 0, 0.00000000000000000000e+000) (0, 0, 0.00000000000000000000e+000) (0, 0, 0.00000000000000000000e+000) (0, 0, 0.00000000000000000000e+000) (0, 0, 0.00000000000000000000e+000) (0, 0, 0.00000000000000000000e+000) (0, 0, 0.00000000000000000000e+000) (0, 0, 0.00000000000000000000e+000) (0, 0, 0.00000000000000000000e+000) (0, 0, 0.00000000000000000000e+000) (0, 0, 0.00000000000000000000e+000) (0, 0, 0.00000000000000000000e+000) (0, 0, 0.00000000000000000000e+000) (0, 0, 0.00000000000000000000e+000) (0, 0, 0.00000000000000000000e+000) (0, 0, 0.00000000000000000000e+000) (0, 0, 0.00000000000000000000e+000) (0, 0, 0.00000000000000000000e+000) (0, 0, 0.00000000000000000000e+000) (0, 0, 0.00000000000000000000e+000) (0, 0, 0.00000000000000000000e+000) (0, 0, 0.00000000000000000000e+000) (0, 0, 0.00000000000000000000e+000) (0, 0, 0.00000000000000000000e+000) (0, 0, 0.00000000000000000000e+000) (0, 0, 0.00000000000000000000e+000) (0, 0, 0.00000000000000000000e+000) (0, 0, 0.00000000000000000000e+000) (0, 0, 0.00000000000000000000e+000) (0, 0, 0.00000000000000000000e+000) (0, 0, 0.00000000000000000000e+000) (0, 0, 0.00000000000000000000e+000) (0, 0, 0.00000000000000000000e+000) (0, 0, 0.00000000000000000000e+000) (0, 0, 0.00000000000000000000e+000) (0, 0, 0.00000000000000000000e+000) (0, 0, 0.00000000000000000000e+000) (0, 0, 0.00000000000000000000e+000) (0, 0, 0.00000000000000000000e+000) (0, 0, 0.00000000000000000000e+000) (0, 0, 0.00000000000000000000e+000) (0, 0, 0.00000000000000000000e+000) (0, 0, 0.00000000000000000000e+000) (0, 0, 0.00000000000000000000e+000) (0, 0, 0.00000000000000000000e+000) (0, 0, 0.00000000000000000000e+000) (0, 0, 0.00000000000000000000e+000) (0, 0, 0.00000000000000000000e+000) (0, 0, 0.00000000000000000000e+000) (0, 0, 0.00000000000000000000e+000) (0, 0, 0.00000000000000000000e+000) (0, 0, 0.00000000000000000000e+000) (0, 0, 0.00000000000000000000e+000) (0, 0, 0.00000000000000000000e+000) (0, 0, 0.00000000000000000000e+000) (0, 0, 0.00000000000000000000e+000) (0, 0, 0.00000000000000000000e+000) (0, 0, 0.00000000000000000000e+000) (0, 0, 0.00000000000000000000e+000) (0, 0, 0.00000000000000000000e+000) (0, 0, 0.00000000000000000000e+000) (0, 0, 0.00000000000000000000e+000) (0, 0, 0.00000000000000000000e+000) (0, 0, 0.00000000000000000000e+000) (0, 0, 0.00000000000000000000e+000) (0, 0, 0.00000000000000000000e+000) (0, 0, 0.00000000000000000000e+000) (0, 0, 0.00000000000000000000e+000) (0, 0, 0.00000000000000000000e+000) (0, 0, 0.00000000000000000000e+000) (0, 0, 0.00000000000000000000e+000) (0, 0, 0.00000000000000000000e+000) (0, 0, 0.00000000000000000000e+000) (0, 0, 0.00000000000000000000e+000) (126, 3, 2.50000000000000000000e-001) (127, 10, 2.50000000000000000000e-001) (128, 3, 2.50000000000000000000e-001) (129, 3, 2.50000000000000000000e-001) (130, 10, 5.00000000000000000000e-001) (131, 17, 7.50000000000000000000e-001) (132, 10, 1.00000000000000000000e+000) (133, 12, 5.00000000000000000000e-001) (134, 10, 5.00000000000000000000e-001) (135, 10, 7.50000000000000000000e-001) (136, 3, 2.50000000000000000000e-001) (137, 10, 2.50000000000000000000e-001) (138, 10, 2.50000000000000000000e-001) (139, 12, 2.50000000000000000000e-001) (140, 17, 7.50000000000000000000e-001) (141, 17, 1.00000000000000000000e+000) (142, 3, 2.50000000000000000000e-001) (143, 17, 2.50000000000000000000e-001) (144, 3, 2.50000000000000000000e-001) (145, 3, 2.50000000000000000000e-001) (146, 3, 5.00000000000000000000e-001) (147, 3, 5.00000000000000000000e-001) (148, 10, 5.00000000000000000000e-001) (149, 12, 1.00000000000000000000e+000) (150, 12, 7.50000000000000000000e-001) (151, 10, 7.50000000000000000000e-001) (152, 10, 1.00000000000000000000e+000) (153, 10, 7.50000000000000000000e-001) (154, 10, 5.00000000000000000000e-001) (155, 17, 5.00000000000000000000e-001) (156, 10, 5.00000000000000000000e-001) (157, 17, 7.50000000000000000000e-001) (158, 3, 2.50000000000000000000e-001) (159, 17, 1.00000000000000000000e+000) (160, 3, 2.50000000000000000000e-001) (161, 17, 5.00000000000000000000e-001) (162, 3, 2.50000000000000000000e-001) (163, 3, 7.50000000000000000000e-001) (164, 3, 5.00000000000000000000e-001) (165, 3, 2.50000000000000000000e-001) (166, 17, 5.00000000000000000000e-001) (167, 3, 2.50000000000000000000e-001) (168, 3, 2.50000000000000000000e-001) (169, 3, 1.00000000000000000000e+000) (170, 3, 2.50000000000000000000e-001) (171, 3, 5.00000000000000000000e-001) (171, 3, 5.00000000000000000000e-001) (171, 3, 5.00000000000000000000e-001) 
connections (connected_to_neuron, weight)=(-1908874778, -3.33886494506008940000e+000) (-1908874777, -6.63659042938072430000e-001) (-1908874776, 1.28176358185583220000e+000) (-1908874775, -4.82866905132582180000e-001) (-1908874774, 1.63680731593970850000e+000) (-1908874773, -2.34926408944987440000e+000) (-1908874772, -8.18197734700887750000e-001) (-1908874771, -3.05313005543715210000e-001) (-1908874770, 1.12268816242143670000e+000) (-1908874769, -8.71733371445718390000e-001) (-1908874768, -2.35899821753600090000e+000) (-1908874767, -4.77061212815279970000e-001) (-1908874766, -6.04958759907340850000e+000) (-1908874765, 2.75494698125448410000e-001) (-1908874764, -1.03095116894896250000e+000) (-1908874763, -3.69108331000966090000e+000) (-1908874762, -9.11656198777040180000e-001) (-1908874761, -2.31704957306332960000e+000) (-1908874760, -2.17876156341670550000e-002) (-1908874759, 2.79319920465583070000e-001) (-1908874758, -1.74212762282951730000e+000) (-1908874757, -6.08955798153037460000e-001) (-1908874756, -4.36727595030710400000e-001) (-1908874755, 8.69878780357634110000e-001) (-1908874754, 3.75379984039690000000e-002) (-1908874753, -8.65797745309005440000e-001) (-1908874752, -7.98641816227689260000e-001) (-1908874751, 5.56106430452340760000e-001) (-1908874750, 5.37814161360167580000e-001) (-1908874749, -2.00510345292255090000e-001) (-1908874748, 3.27922828169292730000e-002) (-1908874747, 8.48199311050026220000e-001) (-1908874746, 1.45942966991365800000e+000) (-1908874745, 6.93613205687093060000e-001) (-1908874744, 6.12039124594248920000e-001) (-1908874743, -1.96776459331944250000e+000) (-1908874742, 4.99115569609009030000e-002) (-1908874741, 1.29066234782576370000e+000) (-1908874740, 6.42318389298842660000e-001) (-1908874739, 7.86663266674354600000e-001) (-1908874738, -8.24321333805262960000e-001) (-1908874737, 6.84033039102479590000e-001) (-1908874736, 3.59053763749301260000e-001) (-1908874735, 6.57837938366952150000e-001) (-1908874734, 2.80471355327322420000e-001) (-1908874733, -1.03969363977836050000e+000) (-1908874732, 1.99014880876148400000e+000) (-1908874731, 1.11864463777964970000e+000) (-1908874730, 9.15003821557383690000e-001) (-1908874729, 8.48132440209218850000e-002) (-1908874728, -1.47269374175858550000e+000) (-1908874727, -5.04666650013700480000e-001) (-1908874726, 8.08737330246662720000e-001) (-1908874725, 1.77808299175556720000e+000) (-1908874724, 1.04991575003477690000e+000) (-1908874723, -1.32858478875927320000e+000) (-1908874722, 1.16639010482945360000e+000) (-1908874721, 8.80697018902102110000e-002) (-1908874720, 1.25358821807371280000e+000) (-1908874719, -6.82151291423825690000e-001) (-1908874718, -7.22647894910837470000e-001) (-1908874717, 2.92917785948047570000e-001) (-1908874716, 1.11662480653620010000e+000) (-1908874715, -2.42570136265674340000e-001) (-1908874714, 3.78545525366331900000e-001) (-1908874713, -2.30478161808465420000e-001) (-1908874712, 8.19045530190136590000e-001) (-1908874711, -3.34597387974969570000e-001) (-1908874710, -5.26541512590544940000e-001) (-1908874709, 7.92486562289091420000e-001) (-1908874708, -3.09441879331292970000e-001) (-1908874707, -5.25756138742792460000e-002) (-1908874706, 5.26004539488024310000e-002) (-1908874705, -2.83771844907772460000e-001) (-1908874704, 2.20908957746251120000e+000) (-1908874703, 4.91148857038945730000e-001) (-1908874702, 7.16629876433366840000e-001) (-1908874701, -1.22601222792557100000e-001) (-1908874700, 1.07071862575190930000e-001) (-1908874699, 3.19041350301252690000e-001) (-1908874698, -3.58872844084260070000e-001) (-1908874697, 9.08661573481346680000e-001) (-1908874696, -1.20133785983093070000e-003) (-1908874695, -3.00981620071479770000e-001) (-1908874694, 1.76426649115102110000e+000) (-1908874693, 1.19186978940643700000e+000) (-1908874692, 6.73722363174623530000e-001) (-1908874691, -9.62893564321457280000e-002) (-1908874690, 3.52345451581859040000e-001) (-1908874689, 1.04126897986084370000e+000) (-1908874688, 1.93711595436890340000e-001) (-1908874687, 7.39128847688181430000e-001) (-1908874686, -2.83135378570591630000e+000) (-1908874685, 8.09943269489452720000e-001) (-1908874684, 5.25328379967883170000e-001) (-1908874683, 1.04301740285509870000e+000) (-1908874682, 7.67704844282681820000e-001) (-1908874681, -1.60542232338986100000e+000) (-1908874680, -5.75323879497350310000e-001) (-1908874679, -5.71803297233404170000e-001) (-1908874678, 4.04444675754051850000e-001) (-1908874677, 8.12166548125370510000e-002) (-1908874676, -2.16840629892254850000e+000) (-1908874675, 9.88383731665522290000e-001) (-1908874674, 3.14082636467278630000e-001) (-1908874673, 1.01572645581081280000e+000) (-1908874672, 2.93742149975849740000e-001) (-1908874671, 2.72644532105992270000e-001) (-1908874670, 6.71973187736334520000e-001) (-1908874669, -1.46518017527940330000e-001) (-1908874668, 4.39063621422156550000e-001) (-1908874667, 4.55850918038284200000e-001) (-1908874666, -6.03675625994404610000e-001) (-1908874665, 4.06455888603358020000e-001) (-1908874664, 2.84238120756771070000e-001) (-1908874663, -1.28389253090667590000e-001) (-1908874662, -1.17325063586424670000e+000) (-1908874661, -9.64640310973174650000e-002) (-1908874660, 1.64228781199468040000e+000) (-1908874659, -2.71986762840762450000e-001) (-1908874658, 4.56844328839614620000e-001) (-1908874657, -1.42696492563413300000e+000) (-1908874656, 7.80879850769367610000e-001) (-1908874655, 1.81545609413829630000e-001) (-1908874654, -4.03604422663154380000e-001) (-1908874653, 3.72604447689044420000e+001) (-1908874778, -1.60084428133964810000e-001) (-1908874777, -3.86575211534019410000e-001) (-1908874776, -1.31107077783310630000e+000) (-1908874775, -6.77627637650311420000e-001) (-1908874774, 3.36237098544976880000e+000) (-1908874773, -1.41100453594275290000e-002) (-1908874772, 6.51927485976147250000e-001) (-1908874771, -6.36038349821770140000e+000) (-1908874770, -6.95167994691293200000e-001) (-1908874769, 4.93778290736069180000e+000) (-1908874768, 1.59027296234434010000e+000) (-1908874767, -9.84883961582088130000e-002) (-1908874766, 3.73187438342050640000e+000) (-1908874765, -1.30255089749493380000e+000) (-1908874764, 2.32583353901118390000e+000) (-1908874763, 1.33305650642681290000e-001) (-1908874762, -1.81970592339256790000e-002) (-1908874761, -1.38282416344888780000e+000) (-1908874760, -6.62017700284017960000e-001) (-1908874759, 2.38028032171689130000e+000) (-1908874758, -1.12228032139514780000e+000) (-1908874757, 1.42037338588615510000e+000) (-1908874756, 6.21826238589122320000e+000) (-1908874755, -4.84556268921939900000e+000) (-1908874754, 2.10842737713627140000e+000) (-1908874753, 6.97476115465961330000e-001) (-1908874752, 8.20249519960526750000e-001) (-1908874751, -3.17366317855366510000e+000) (-1908874750, -8.02526945992205580000e+000) (-1908874749, 1.63835878107572790000e+000) (-1908874748, 1.67397671494052380000e+000) (-1908874747, -2.02367275136910860000e-001) (-1908874746, -4.40041975061554780000e+001) (-1908874745, -3.90095910815638460000e+000) (-1908874744, 2.25284044981444340000e+000) (-1908874743, -1.09507346397725160000e-001) (-1908874742, 9.21920797815229290000e-001) (-1908874741, -5.96485912765066400000e+000) (-1908874740, -4.34820711811491640000e+000) (-1908874739, 3.93735461906787880000e+000) (-1908874738, -1.09448242099868860000e-002) (-1908874737, -4.86145891008888410000e+000) (-1908874736, -3.44876771056899610000e+001) (-1908874735, -2.07617766442865910000e+000) (-1908874734, 3.75281329947228050000e+000) (-1908874733, 1.49326895696971440000e+000) (-1908874732, 3.51823220308699500000e-001) (-1908874731, -4.85014927859282880000e+000) (-1908874730, -4.45670309238444140000e-001) (-1908874729, 3.01384242545029890000e+000) (-1908874728, 4.34413085597837420000e-001) (-1908874727, 1.77700776757116440000e+000) (-1908874726, -3.14752872966414370000e+000) (-1908874725, 1.95968839072936430000e+000) (-1908874724, 3.44193942961749140000e+000) (-1908874723, 1.36102741758856860000e+000) (-1908874722, 5.85324684742771220000e-001) (-1908874721, -1.06935656869463980000e+000) (-1908874720, 1.97447229166366120000e+000) (-1908874719, 2.30888811582581170000e+000) (-1908874718, 1.16325344649690900000e-001) (-1908874717, 1.65293775994598050000e-001) (-1908874716, -9.81556975625738030000e+000) (-1908874715, -6.06287689253644310000e+000) (-1908874714, 2.01912189010741640000e+000) (-1908874713, -3.60203353225616310000e-001) (-1908874712, 1.32253601988603650000e+000) (-1908874711, -1.83220331249848730000e+001) (-1908874710, -6.21906302848739670000e+000) (-1908874709, 6.09257238535396480000e-001) (-1908874708, 1.26157555143044760000e+000) (-1908874707, 7.11447122486703830000e-001) (-1908874706, -2.83389399006356020000e+000) (-1908874705, -6.60664077298675930000e-001) (-1908874704, 9.20322806952716070000e-001) (-1908874703, 1.61045849983401280000e+000) (-1908874702, 2.27033094543596300000e-001) (-1908874701, -9.48916600155153670000e+000) (-1908874700, -1.17348840565167300000e+000) (-1908874699, 4.61856848790035720000e+000) (-1908874698, 3.88076492841594230000e-001) (-1908874697, 1.66176964379958970000e+000) (-1908874696, 2.82109425635220820000e+001) (-1908874695, 1.14411314264589550000e+000) (-1908874694, 1.26284324421040870000e+000) (-1908874693, -2.26237136850143420000e+000) (-1908874692, 1.23454697800442870000e+000) (-1908874691, -2.52497639236796980000e+000) (-1908874690, -1.25612127127193520000e-001) (-1908874689, 2.29639435827927140000e+000) (-1908874688, 1.59861886668410240000e+000) (-1908874687, 2.12405414342427610000e+000) (-1908874686, -2.12879069155102840000e+000) (-1908874685, -2.95864009275457510000e+000) (-1908874684, 3.66345149566258450000e+000) (-1908874683, -6.44428936562150390000e-001) (-1908874682, 2.18227947984338670000e+000) (-1908874681, -1.50011258987006780000e+000) (-1908874680, -3.91517722355309910000e+000) (-1908874679, -1.47238497984859350000e+000) (-1908874678, -1.77278090297693590000e-001) (-1908874677, 9.38480195713582540000e-001) (-1908874676, 1.81157577552180480000e-001) (-1908874675, -3.70921073232933060000e+000) (-1908874674, 2.15600451610180510000e+000) (-1908874673, 1.75554682339753600000e+000) (-1908874672, 7.96333687169389240000e-001) (-1908874671, -1.35160724397212720000e+000) (-1908874670, -1.27550511104330580000e+000) (-1908874669, 2.93529517488916400000e+000) (-1908874668, -1.61333062942840470000e+000) (-1908874667, 8.82611237019080840000e-001) (-1908874666, -4.99468210587342030000e+000) (-1908874665, -2.21535376135215990000e+000) (-1908874664, 4.07593633510510770000e+000) (-1908874663, 1.17107263453345500000e+000) (-1908874662, 1.90349622893425390000e+000) (-1908874661, -1.08519707915676220000e+000) (-1908874660, -1.63574045019846850000e+000) (-1908874659, 4.70186104201072560000e+000) (-1908874658, 2.75812741433741520000e-001) (-1908874657, 2.12345524964804520000e+000) (-1908874656, 1.14120709330386680000e+001) (-1908874655, -1.80874250699881540000e+000) (-1908874654, 2.80064377871260820000e+000) (-1908874653, 5.32307460273244090000e+000) (-1908874778, 8.78433913017287440000e+000) (-1908874777, -1.02144633345132600000e+001) (-1908874776, -2.08988692005538130000e-001) (-1908874775, 2.55407118508961160000e+000) (-1908874774, -4.20911461151012360000e-001) (-1908874773, 3.13666554345780170000e+000) (-1908874772, -6.53664409920238310000e+000) (-1908874771, -1.36156187139358820000e+000) (-1908874770, 2.08167684915691180000e+000) (-1908874769, -9.96480209863053970000e-001) (-1908874768, 7.01949667490887720000e-001) (-1908874767, -2.07919948855895330000e+000) (-1908874766, -4.25593129123263140000e-001) (-1908874765, 1.46018077740580290000e+000) (-1908874764, -2.94059166291844940000e+000) (-1908874763, -7.49066501178776710000e-001) (-1908874762, -3.15382947421112900000e+000) (-1908874761, -1.52002541391938210000e+000) (-1908874760, 3.75007801856414750000e-001) (-1908874759, -7.07926152314795410000e+000) (-1908874758, 7.49360114574627370000e+000) (-1908874757, -1.43839119953121820000e+000) (-1908874756, -1.36000664719552590000e+000) (-1908874755, 1.56055639480063800000e+000) (-1908874754, -2.10969635662672350000e-001) (-1908874753, 1.11126833813051680000e+000) (-1908874752, -3.04702798939949690000e+000) (-1908874751, -4.87337705678341120000e-001) (-1908874750, 9.90476470949608220000e-001) (-1908874749, 2.52248575906890690000e+000) (-1908874748, 3.32938829138260810000e+000) (-1908874747, 7.34955888899112630000e-003) (-1908874746, -6.02663101633336350000e-002) (-1908874745, -3.94264596291094360000e+000) (-1908874744, -3.10809242680210970000e+000) (-1908874743, 7.54548766287750920000e-001) (-1908874742, -8.71424149274657610000e-001) (-1908874741, -3.64549731367697250000e-001) (-1908874740, -3.21977467743667580000e-002) (-1908874739, -2.70039807006279500000e+000) (-1908874738, 1.80587423082900320000e+000) (-1908874737, -1.97177992874752850000e-001) (-1908874736, 2.01342405195182840000e-001) (-1908874735, 1.29306481521509700000e+000) (-1908874734, 4.19838331117556640000e-001) (-1908874733, 8.84882037538331280000e-001) (-1908874732, -1.11600212840820400000e+000) (-1908874731, -3.47102186698233020000e-002) (-1908874730, 1.22349771536302710000e+000) (-1908874729, -6.98484477909411820000e-001) (-1908874728, 2.68784110719116400000e-001) (-1908874727, -1.05588320834036800000e+000) (-1908874726, 5.63993931630498820000e-001) (-1908874725, 7.91434648040445720000e-001) (-1908874724, 1.05300948022421450000e+000) (-1908874723, 1.36491634488363940000e+000) (-1908874722, -5.92770198296454610000e-001) (-1908874721, 8.41874374063690810000e-001) (-1908874720, 1.56917365392628350000e+000) (-1908874719, 1.03849043701226100000e+000) (-1908874718, 1.98857662327524150000e+000) (-1908874717, -1.02715669290685500000e+000) (-1908874716, 1.25058702531705370000e-001) (-1908874715, 4.33388091600179660000e-001) (-1908874714, -9.46696096381302810000e-001) (-1908874713, 4.87441299875005170000e-001) (-1908874712, -7.78898420747505040000e-001) (-1908874711, -9.56260163395121770000e-001) (-1908874710, 1.16606418323745610000e+000) (-1908874709, 1.23033988406051780000e+000) (-1908874708, 1.69383555492130000000e+000) (-1908874707, -1.85116870690555490000e-001) (-1908874706, 3.80901560152310800000e-001) (-1908874705, 1.57298505696279740000e+000) (-1908874704, 1.78987833184635280000e-002) (-1908874703, 4.76298091688995620000e-001) (-1908874702, 1.17147413500652530000e-003) (-1908874701, -1.18257029208165280000e-001) (-1908874700, 3.74970379999306000000e+000) (-1908874699, -1.98255642229680170000e+000) (-1908874698, 3.18714262852989410000e+000) (-1908874697, -3.23759251269768510000e-001) (-1908874696, -4.33750270605301300000e-001) (-1908874695, 3.37316613370379860000e+000) (-1908874694, -5.86897173680026250000e-001) (-1908874693, 5.01850257232616050000e+000) (-1908874692, 5.61114088827268720000e-002) (-1908874691, 6.11570269010424550000e-001) (-1908874690, 2.91954426651237850000e+000) (-1908874689, -4.13905709849053680000e+000) (-1908874688, -5.60502845790682320000e-001) (-1908874687, -1.01018539398605480000e+000) (-1908874686, 5.44037785061100790000e-001) (-1908874685, 1.64033536020007480000e+000) (-1908874684, -5.50416985904279340000e-001) (-1908874683, 9.68338173051131260000e+000) (-1908874682, -3.24596972149119370000e-001) (-1908874681, -8.52560008444928850000e-001) (-1908874680, 3.09837820571392490000e+000) (-1908874679, -5.27411946002110280000e-001) (-1908874678, 1.69418010660984230000e+000) (-1908874677, -1.69227986396300720000e+000) (-1908874676, -3.37251843176916490000e-002) (-1908874675, 2.61180164430466940000e+000) (-1908874674, -1.20654402962861120000e+000) (-1908874673, 7.45821842526050220000e-001) (-1908874672, -4.89640918104860380000e-001) (-1908874671, 1.34124850890476340000e+000) (-1908874670, 2.22332409408429840000e+000) (-1908874669, -8.46013240542390020000e-001) (-1908874668, 1.10209423644729540000e+000) (-1908874667, -2.31123366818199430000e+000) (-1908874666, 1.59531753472138080000e-001) (-1908874665, 2.74614038884105760000e+000) (-1908874664, -2.11050824022058660000e-001) (-1908874663, -1.51484856075097210000e-001) (-1908874662, -7.01205264691891590000e-001) (-1908874661, 5.05634155322586600000e-001) (-1908874660, 5.26259679601953520000e-001) (-1908874659, -3.37988408428048670000e+000) (-1908874658, 3.59043584361125450000e+000) (-1908874657, 8.78743271042383810000e-001) (-1908874656, 1.74043542612277840000e+000) (-1908874655, 2.32061468783267790000e+000) (-1908874654, -5.47395023420191860000e-001) (-1908874653, 1.37530883722741830000e+001) (-1431789050, 1.57198844795479400000e+001) (-1431789050, 1.44800445677759340000e+002) (-1431789050, 1.55593509503004570000e+001) (-1431789050, -1.73564046228922210000e+000) (-1431789050, -2.20105581398974600000e+000) (-1431789050, 9.96739112665026240000e-001) (-1431789050, -5.54952673344518920000e-001) (-1431789050, 1.57196174233450450000e-002) (-1431789050, -1.28398040786125510000e+000) (-1431789050, -8.60992812382566310000e-001) (-1431789050, -4.16024266123177560000e-001) (-1431789050, -9.22781973557497470000e-001) (-1431789050, 9.94125451191276710000e-001) (-1431789050, -8.58672894242283660000e-001) (-1431789050, -1.86190023529412760000e+000) (-1431789050, 1.08529418379672200000e+000) (-1431789050, -8.52313523560631730000e-001) (-1431789050, 1.29422503123556450000e+000) (-1431789050, -1.20977882297105670000e+000) (-1431789050, -2.28364032848999700000e-001) (-1431789050, -3.27531171039397420000e+000) (-1431789050, 8.83389570084886390000e-001) (-1431789050, -1.13929316959521090000e-001) (-1431789050, -4.88038883219779120000e-001) (-1431789050, -1.26332537502191400000e+000) (-1431789050, -3.56192117717987870000e+000) (-1431789050, -3.87674407408418580000e-001) (-1431789050, 1.03907660873097770000e+000) (-1431789050, -1.51526785105460960000e+000) (-1431789050, -6.53561098930141030000e-001) (-1431789050, 2.40909112596271010000e+000) (-1431789050, 1.55924595128189950000e+000) (-1431789050, 6.21512815948878310000e-001) (-1431789050, -1.40467552209716180000e+000) (-1431789050, -4.63889171209501020000e-001) (-1431789050, 3.08059566798475970000e+000) (-1431789050, 5.39726083371494860000e-001) (-1431789050, 9.42610570068491580000e-001) (-1431789050, -4.17785512182081930000e-001) (-1431789050, -1.85202892336336690000e+000) (-1431789050, 1.65483701168475880000e-001) (-1431789050, -8.51343205416105970000e-001) (-1431789050, -3.54754358298974730000e-001) (-1431789050, -1.63051178150047300000e+000) (-1431789050, -8.93074872218621250000e-001) (-1431789050, 2.81428038250728950000e+000) (-1431789050, 8.50970061098541840000e-002) (-1431789050, 8.22702774034522300000e-001) (-1431789050, -1.80712136689202610000e+000) (-1431789050, -7.59063509494689480000e-001) (-1431789050, -4.55013096303873250000e+000) (-1431789050, 4.34321868010589390000e-002) (-1431789050, -3.04265667759227750000e-001) (-1431789050, -6.17900893592512100000e-001) (-1431789050, 1.74858113630135330000e+000) (-1431789050, 1.06005170211858180000e+000) (-1431789050, -4.78998352726206280000e-001) (-1431789050, 1.81403405651387420000e+000) (-1431789050, -1.50102840944835770000e+000) (-1431789050, 6.96512260196074710000e-001) (-1431789050, 8.89324046213997300000e-001) (-1431789050, 1.79437867188741200000e+000) (-1431789050, -5.53108308515697030000e-001) (-1431789050, -1.64787869135715770000e+000) (-1431789050, -2.90220452801622060000e-001) (-1431789050, -2.96655731693075660000e+000) (-1431789050, 2.33899026318629580000e+000) (-1431789050, -2.80956774264642940000e-001) (-1431789050, -1.12063832956205520000e+000) (-1431789050, -3.64927525659688720000e-001) (-1431789050, 1.81686885373057460000e+000) (-1431789050, 6.88460060213839650000e-002) (-1431789050, 4.08509183328674310000e-001) (-1431789050, -1.09353280862676130000e+000) (-1431789050, 3.77042391339998370000e+000) (-1431789050, -6.44290493045988550000e+000) (-1431789050, 1.90532693136079500000e+000) (-1431789050, -4.47617858666745290000e-002) (-1431789050, -1.68040233075616510000e+000) (-1431789050, 2.68185800633259940000e+000) (-1431789050, -5.22704307339717380000e+000) (-1431789050, 4.90449639618525520000e+000) (-1431789050, 1.27920650482450270000e+000) (-1431789050, -1.22908311851776910000e+000) (-1431789050, 2.71515007335076320000e+000) (-1431789050, 1.14245127037181750000e+000) (-1431789050, 8.18488635648035170000e-002) (-1431789050, 1.19021234953965840000e+000) (-1431789050, 3.36566668130958760000e-001) (-1431789050, 8.41385371293018270000e-001) (-1431789050, -6.99359445158250730000e+000) (-1431789050, 1.32051492938934770000e+000) (-1431789050, 5.78311507019357180000e-001) (-1431789050, -2.26739071922716110000e-001) (-1431789050, 1.75353292123015310000e+000) (-1431789050, 3.32860018170988070000e+000) (-1431789050, 9.69138784687106350000e-001) (-1431789050, 8.37864475864379290000e-001) (-1431789050, -1.02977500318628330000e+000) (-1431789050, 1.42378797704085460000e+000) (-1431789050, 1.68200249802769460000e+000) (-1431789050, 1.50844358618255290000e+000) (-1431789050, 8.06217314796519590000e-001) (-1431789050, 1.35310239838830670000e-001) (-1431789050, 4.30242954817212750000e-001) (-1431789050, 4.30542089106096080000e+000) (-1431789050, -3.01704656725352200000e+000) (-1431789050, 2.66953502793096180000e+000) (-1431789050, -8.67311090673709150000e-001) (-1431789050, 3.30268923984640850000e+000) (-1431789050, 3.11795758639500110000e+000) (-1431789050, -7.90300646915621960000e-001) (-1431789050, -8.84419033532065190000e-001) (-1431789050, 7.81563271144881670000e-001) (-1431789050, 2.60558048343918310000e+000) (-1431789050, 3.93009100400971790000e+000) (-1431789050, -3.34826438747241830000e-001) (-1431789050, 9.96999773042616670000e-001) (-1431789050, 3.08985517772593490000e+000) (-1431789050, 2.51434884750250780000e+000) (-1431789050, 2.98812694660847190000e+000) (-1431789050, -2.53356165516380210000e+000) (-1431789050, 1.52589453534818700000e+000) (-1431789050, 1.90612507366306110000e+000) (-1431789050, -5.47517905989700980000e+000) (-1431789050, 2.73962148251589220000e+000) (-1431789050, 5.98875002907541280000e+000) (-1431789050, 2.49381332753632060000e+000) (-1431789050, 5.10579073410299320000e+001) (-1431789050, 1.52051892042268970000e+002) (-1431789050, -1.24910591968520680000e+003) (-1431789050, 3.66655010215109130000e+001) (-1431789050, 2.63216843645651810000e+000) (-1431789050, 1.14845644847963620000e+000) (-1431789050, 8.32332692621731240000e+000) (-1431789050, 2.66438443711735880000e+000) (-1431789050, -6.89303712350193100000e+000) (-1431789050, 2.73496901950322170000e+000) (-1431789050, 1.34930960539845590000e+000) (-1431789050, 9.57857259624504030000e+000) (-1431789050, -2.61120124861457860000e+000) (-1431789050, -3.48747602067003810000e+000) (-1431789050, 1.57527474069599500000e+000) (-1431789050, 1.99603341932975240000e+000) (-1431789050, 1.02184560771541350000e+001) (-1431789050, 2.71191421173168470000e-001) (-1431789050, -6.74727337335866980000e-001) (-1431789050, 1.99206015999188010000e+000) (-1431789050, 1.44776042179199700000e+000) (-1431789050, 9.49558054934039930000e+000) (-1431789050, 4.14524074640699130000e-001) (-1431789050, 3.28134688319848960000e+000) (-1431789050, 2.72132796088917410000e+000) (-1431789050, 8.21818227414743640000e-001) (-1431789050, 8.72863181809061040000e+000) (-1431789050, 2.33250124491403630000e+000) (-1431789050, 1.02940822521361790000e+000) (-1431789050, 1.30352062365800550000e+000) (-1431789050, 9.38294843215688010000e-001) (-1431789050, 9.86423067098685810000e+000) (-1431789050, 6.31995250470376080000e-001) (-1431789050, 2.57556067117002120000e+000) (-1431789050, 1.65807582144529550000e+000) (-1431789050, 2.57430504342808450000e+000) (-1431789050, 1.09825585719528220000e+001) (-1431789050, 3.67644691800119090000e+000) (-1431789050, -1.00058286753896740000e+000) (-1431789050, 1.28772743173890310000e+000) (-1431789050, 2.02662407509562440000e+000) (-1431789050, 8.57408371016761000000e+000) (-1431789050, 6.26669869638489630000e+000) (-1431789050, 2.79515052114938280000e+000) (-1431789050, 1.21218652075836690000e+000) (-1431789050, 2.43303577901648630000e+000) (-1431789050, 1.11848637691567670000e+001) (-1431789050, 1.47783468537255940000e+001) (-1431789050, 5.66340510141377070000e+000) (-1431789050, 2.97453491461832490000e+000) (-1431789050, 1.17980601884550170000e+000) (-1431789050, 9.77907318584301600000e+000) (-1431789050, 5.57072430930512400000e+000) (-1431789050, 3.85689393546653700000e+000) (-1431789050, 2.76934243339372930000e+000) (-1431789050, 2.51934574034603550000e+000) (-1431789050, 1.06456357528555690000e+001) (-1431789050, 4.47379536219269800000e+000) (-1431789050, 2.51707968119510240000e+000) (-1431789050, 3.59405063074907450000e+000) (-1431789050, 2.32243944464277870000e+000) (-1431789050, 1.05795502443961970000e+001) (-1431789050, -3.55928885536175250000e+000) (-1431789050, 2.19323116263829000000e-001) (-1431789050, 1.80372049576007390000e+000) (-1431789050, 8.19310248113948480000e-001) (-1431789050, 1.08492857724175150000e+001) (-1431789050, 7.96959286194229670000e+000) (-1431789050, 5.02849364350781870000e-001) (-1431789050, 2.54520053243187230000e+000) (-1431789050, 2.34859531704146950000e+000) (-1431789050, 9.17383068884746140000e+000) (-1431789050, 6.49751909330883050000e+000) (-1431789050, 1.29659242258751520000e+000) (-1431789050, 1.52191388348620650000e+000) (-1431789050, 2.30384638140099530000e+000) (-1431789050, 1.04412593647432090000e+001) (-1431789050, 3.41516798142052200000e+000) (-1431789050, 2.60211899444391160000e+000) (-1431789050, 1.62539219031112260000e+000) (-1431789050, 2.77843415277987130000e+000) (-1431789050, 9.37363812205984810000e+000) (-1431789050, 2.37161116020123060000e+000) (-1431789050, -2.07812121287645900000e-001) (-1431789050, 2.58158029534333890000e+000) (-1431789050, 3.35899784107567580000e+000) (-1431789050, 9.90920616652157090000e+000) (-1431789050, 3.48517442356434380000e+000) (-1431789050, 2.24315022887862710000e+000) (-1431789050, 9.17794035479406970000e-001) (-1431789050, 1.63377079523849230000e+000) (-1431789050, 9.71522036920961090000e+000) (-1431789050, 8.43294092142140170000e+000) (-1431789050, 2.20050968912130430000e+000) (-1431789050, 2.37525174795320690000e+000) (-1431789050, 3.48864073466663930000e+000) (-1431789050, 1.05637122866041350000e+001) (-1431789050, 9.39432987072606630000e+000) (-1431789050, 3.71437063571419920000e+000) (-1431789050, 2.30529942695719560000e+000) (-1431789050, 1.90672982030388720000e+000) (-1431789050, 1.05321546164671740000e+001) (-1431789050, 5.08593539006838040000e+000) (-1431789050, -6.60881895757838620000e-001) (-1431789050, 6.57460296994213820000e-001) (-1431789050, 2.44740006663167800000e+000) (-1431789050, 1.01275098027063830000e+001) (-1431789050, 6.01372986608122420000e+000) (-1431789050, 2.24556657937874120000e+000) (-1431789050, 2.64172295911479880000e+000) (-1431789050, 2.41692009693197600000e+000) (-1431789050, 1.14293750246573720000e+001) (-1431789050, 3.70753655722083940000e+000) (-1431789050, 3.11415507308166810000e+000) (-1431789050, 1.33032120627581230000e+000) (-1431789050, 2.78018640052484400000e+000) (-1431789050, 1.12065630142261470000e+001) (-1431789050, 2.28214337358259380000e+000) (-1431789050, 7.11200706464910960000e-001) (-1431789050, 1.53639373787581830000e+000) (-1431789050, 1.37493210701889420000e+000) (-1431789050, 1.04040839324106500000e+001) (-1431789050, 5.91256109617611170000e+000) (-1431789050, 4.15349392689883510000e+000) (-1431789050, 2.56463877289726040000e+000) (-1431789050, 4.32992140515337910000e-001) (-1431789050, 1.13561575741341660000e+001) (-1431789050, -2.35092158575780760000e+000) (-1431789050, 4.41906167919199080000e+000) (-1431789050, 7.89096135250570900000e+000) (-1431789050, 1.04001660121365000000e+001) (-1431789050, 1.65307961883185060000e+000) (-1431789050, 1.06858120726881630000e+001) (-1431789050, 1.06284674768857600000e+001) (-1431789050, 4.85810949667783990000e-001) (-1431789050, 1.52354546514002600000e-001) (-1431789050, 3.31757138743144770000e-001) (-1431789050, -6.25010699367305690000e-001) (-1431789050, 1.71242515970444900000e-001) (-1431789050, 1.07414653198046390000e+000) (-1431789050, 1.58005839050874180000e-002) (-1431789050, 1.05150112836615840000e+000) (-1431789050, -7.23124710141842540000e-001) (-1431789050, 2.04966541565116790000e-001) (-1431789050, 4.42852567095376070000e-001) (-1431789050, -1.31548301880163490000e+000) (-1431789050, 1.04590283737372050000e+000) (-1431789050, -1.07076950638895820000e+000) (-1431789050, 9.05459654877496910000e-001) (-1431789050, 5.10346702248736460000e-001) (-1431789050, 7.49861718908886200000e-001) (-1431789050, 3.98504632606384520000e-001) (-1431789050, 7.69277257769543700000e-001) (-1431789050, 1.66454080071246110000e+000) (-1431789050, 5.83491830420933670000e-001) (-1431789050, -1.46665163736905190000e-001) (-1431789050, -7.64031252770647070000e-002) (-1431789050, -4.68366592193649230000e-001) (-1431789050, 9.21752467327555250000e-002) (-1431789050, 2.57289743833888570000e-002) (-1431789050, 5.26819437252686870000e-001) (-1431789050, 1.77389170844530940000e-002) (-1431789050, -1.17509014068237930000e+000) (-1431789050, 1.01537453475542990000e+000) (-1431789050, 6.50996383314745520000e-001) (-1431789050, 7.57128457527323500000e-001) (-1431789050, 2.21271688286195530000e-001) (-1431789050, -1.20823889519612270000e+000) (-1431789050, 6.28073185954992840000e-001) (-1431789050, 1.17220029290113370000e+000) (-1431789050, -6.25996265633604780000e-001) (-1431789050, -1.34854103849358500000e-001) (-1431789050, -8.44758278250547060000e-001) (-1431789050, -4.55955651028626950000e-001) (-1431789050, -2.00121636298855770000e-001) (-1431789050, -8.73519695480982960000e-001) (-1431789050, 6.72127114339975630000e-001) (-1431789050, -1.65714260922817670000e+000) (-1431789050, -8.60075124393281650000e-002) (-1431789050, -1.13508419804244150000e+000) (-1431789050, -8.19986542997351520000e-001) (-1431789050, 4.03903899804680500000e-001) (-1431789050, -3.93697767018344470000e-002) (-1431789050, 3.90390915771854810000e-001) (-1431789050, -8.71006094803835170000e-001) (-1431789050, -1.17518954213967230000e+000) (-1431789050, 9.63936872469186020000e-001) (-1431789050, -8.29784755684579770000e-001) (-1431789050, -1.19963931025884000000e-001) (-1431789050, -1.05526914761503490000e+000) (-1431789050, -6.06384877231339380000e-001) (-1431789050, 5.60869060164577600000e-001) (-1431789050, 5.44658964661262070000e-001) (-1431789050, 6.89424812046181110000e-001) (-1431789050, 3.84440880583668540000e-001) (-1431789050, -1.03508035597802710000e+000) (-1431789050, -2.35325336654017720000e-001) (-1431789050, 1.76871674365153300000e-001) (-1431789050, -2.12731927583575540000e-001) (-1431789050, -4.05458318712625610000e-001) (-1431789050, 2.28782300302399820000e-001) (-1431789050, 7.14331094871564430000e-001) (-1431789050, -5.45011212060618750000e-001) (-1431789050, 1.54248659065181930000e+000) (-1431789050, 1.47767922412520570000e-002) (-1431789050, 9.54808770793740050000e-001) (-1431789050, -2.43489184030274500000e-001) (-1431789050, -1.35100975757929480000e+000) (-1431789050, -1.67903859264155770000e-001) (-1431789050, -6.93218161684673760000e-001) (-1431789050, -8.40673041750123470000e-001) (-1431789050, -5.81981766981139680000e-001) (-1431789050, 2.23132810460903410000e-001) (-1431789050, 6.52057247823605190000e-001) (-1431789050, 1.04541853115117520000e+000) (-1431789050, -5.81945306145952080000e-001) (-1431789050, 3.73070931193845320000e-001) (-1431789050, 1.82203856622958790000e-001) (-1431789050, 3.73316347880838010000e-001) (-1431789050, 1.35586143263185080000e-001) (-1431789050, -2.46898125468311970000e-002) (-1431789050, 1.22304879089131320000e-001) (-1431789050, 2.33442098660549020000e-001) (-1431789050, -3.62812230395603150000e-003) (-1431789050, 7.45593696608746410000e-001) (-1431789050, 2.86929520685834220000e-001) (-1431789050, 1.19461329981773230000e+000) (-1431789050, -8.98484130133782260000e-001) (-1431789050, -5.39300272668629010000e-001) (-1431789050, -2.75365089488588950000e-001) (-1431789050, 8.70392784639140830000e-001) (-1431789050, 8.90573322151847920000e-001) (-1431789050, 5.97617391267628690000e-001) (-1431789050, -6.01188620059870620000e-001) (-1431789050, -7.58174216358164400000e-001) (-1431789050, -3.46914683505570860000e-001) (-1431789050, 9.71470888782435930000e-001) (-1431789050, -2.59468826499550940000e-001) (-1431789050, 5.37375758035574470000e-001) (-1431789050, -1.77299839112906310000e-002) (-1431789050, -7.19375019689539320000e-001) (-1431789050, 1.83209361558246490000e-001) (-1431789050, -7.72919323510733670000e-001) (-1431789050, 1.96143671877744620000e-001) (-1431789050, 8.93699657528798760000e-001) (-1431789050, 6.59619380557471490000e-001) (-1431789050, 8.69185878451995460000e-001) (-1431789050, -1.84413581996642750000e+000) (-1431789050, 8.89696157189392770000e-001) (-1431789050, 4.80443858739688810000e-001) (-1431789050, 2.96642228886131680000e-001) (-1431789050, 2.15408194171054030000e-001) (-1431789050, -3.89716332127118260000e-001) (-1431789050, 2.61178369615462370000e-001) (-1431789050, 7.19888445809291230000e-001) (-1431789050, 1.51746657741039010000e-001) (-1431789050, 9.03214788748253450000e-001) (-1431789050, -8.13023282478494870000e-001) (-1431789050, 8.83166030657698610000e-001) (-1431789050, 2.05049739411184370000e-001) (-1431789050, 2.34137459812215850000e+000) (-1431789050, 1.05607419244459910000e+000) (-1431789050, 1.30294013062111300000e+000) (-1431789050, 3.30711797719213500000e-001) (-1431789050, -1.81297953625993320000e-001) (-1431789050, 1.68410286733330010000e-002) (-1431789050, -7.27227591445002600000e-001) (-1431789050, 1.23171574865156100000e+001) (-1431789050, -2.27503807553402470000e+000) (-1431789050, -2.24872394705517980000e-001) (-1431789050, 1.75172466080410240000e+000) (-1431789050, -1.34900355371172700000e-001) (-1431789050, 9.61152394212624910000e+000) (-1431789050, 2.36024934290333640000e+000) (-1431789050, 2.82817716030839440000e-001) (-1431789050, 8.53597266051464460000e-001) (-1431789050, -1.81246574324585170000e+000) (-1431789050, 3.86395831595932520000e+000) (-1431789050, 1.94644603377393090000e+000) (-1431789050, -8.70225493038822350000e-001) (-1431789050, -8.91444159019066510000e-002) (-1431789050, 1.36266438162514940000e-002) (-1431789050, -9.10954059239342410000e+000) (-1431789050, 1.11226929109108360000e+000) (-1431789050, 2.10828776948759740000e+000) (-1431789050, 1.58843074386750270000e+000) (-1431789050, 8.87172056509243080000e-003) (-1431789050, -7.96216652520026270000e-001) (-1431789050, 7.77982830386004580000e-001) (-1431789050, -1.32336269242875170000e-001) (-1431789050, 4.90475334819346240000e-001) (-1431789050, 3.57886363640428810000e-001) (-1431789050, 8.35730066061189270000e+000) (-1431789050, 1.53283717579470010000e+000) (-1431789050, -1.82189523950942100000e+000) (-1431789050, -1.02827232823584150000e-001) (-1431789050, 7.54023457634003020000e-001) (-1431789050, -2.64615191772379000000e+000) (-1431789050, 1.92663254260402540000e+000) (-1431789050, -1.73718067524753120000e+000) (-1431789050, -1.94349821727091000000e-001) (-1431789050, -1.04195222776036610000e+000) (-1431789050, 8.69504365934738390000e+000) (-1431789050, 2.87075599850075050000e+000) (-1431789050, -1.12339682776668260000e+000) (-1431789050, 6.01034887362674850000e-001) (-1431789050, -6.24778672676539080000e-001) (-1431789050, 1.70120173230026770000e+001) (-1431789050, 7.62181620418333480000e-001) (-1431789050, -2.44757318412658880000e-001) (-1431789050, -5.89710313453768360000e+000) (-1431789050, -1.85923578432706570000e+000) (-1431789050, 5.50611879028981120000e+000) (-1431789050, 1.83347242167667050000e+000) (-1431789050, -2.23251193985167050000e-001) (-1431789050, -1.76826565279205710000e+000) (-1431789050, 5.12268675851633600000e-001) (-1431789050, 6.03918007555180840000e+000) (-1431789050, 2.58628029014016880000e-001) (-1431789050, -1.48826984384536810000e+000) (-1431789050, -9.38842196339643390000e-001) (-1431789050, 1.75293790528234260000e+000) (-1431789050, -1.15224479605538740000e+001) (-1431789050, 6.57558656549973140000e-001) (-1431789050, -1.24653688037883480000e+000) (-1431789050, 2.41995706943689520000e-001) (-1431789050, 1.79813269330929180000e+000) (-1431789050, -5.28418900327603500000e+000) (-1431789050, 1.84838307915901770000e+000) (-1431789050, -2.02655235344781080000e-001) (-1431789050, -1.13259784600932580000e+000) (-1431789050, -1.19919259440256820000e-001) (-1431789050, 7.06702512137853760000e+000) (-1431789050, 4.40150188778771150000e+000) (-1431789050, 1.95453285978523040000e-001) (-1431789050, 3.18881148268651190000e+000) (-1431789050, 6.58156620375614840000e-001) (-1431789050, -2.86825976707125200000e+000) (-1431789050, 3.09414599819949950000e-001) (-1431789050, -5.19745056872973450000e-001) (-1431789050, -2.48514042348678510000e-002) (-1431789050, -2.56232930501531470000e-002) (-1431789050, 6.48043563601462580000e+000) (-1431789050, -1.00800686850927820000e+000) (-1431789050, -1.40712601879190320000e+000) (-1431789050, 3.68154792837193880000e-001) (-1431789050, 1.04041992907675570000e+000) (-1431789050, 1.30203693852453180000e+000) (-1431789050, 2.72105108006857940000e-001) (-1431789050, 5.74587046469717140000e-001) (-1431789050, 9.49351107423235360000e-001) (-1431789050, 1.21631928894894770000e-001) (-1431789050, 2.96615704103002020000e+000) (-1431789050, 1.84219550896797800000e+000) (-1431789050, 1.14555681035984840000e+000) (-1431789050, 1.33051003918855050000e+000) (-1431789050, 1.35284509131832430000e+000) (-1431789050, 1.33054526862005510000e+001) (-1431789050, 1.55090007929415670000e+000) (-1431789050, -9.24584473918486970000e-001) (-1431789050, 4.73215063933233200000e-001) (-1431789050, -4.78119083163250750000e-001) (-1431789050, -6.64200454430585910000e+000) (-1431789050, 1.64649579802369030000e+000) (-1431789050, 8.15477699305132140000e-001) (-1431789050, 1.06954059246760510000e+000) (-1431789050, 1.25224798097899900000e+000) (-1431789050, 3.26337243077894530000e+000) (-1431789050, -1.12073047405769070000e+000) (-1431789050, 1.26703823398817340000e+000) (-1431789050, -2.94138020051201820000e+000) (-1431789050, -6.36700666776689350000e-001) (-1431789050, 1.61840982543784570000e-002) (-1431789050, 9.88139509190533840000e-001) (-1431789050, 1.56764121349323270000e+000) (-1431789050, -1.40850862368994600000e+000) (-1431789050, 6.63080313374584950000e-001) (-1431789050, -1.10301805994681970000e+001) (-1431789050, -2.24279903008148100000e-001) (-1431789050, 8.90220190863825420000e-001) (-1431789050, 1.02163555832837050000e+000) (-1431789050, 1.04560434429153550000e+000) (-1431789050, 4.22063392194371460000e+000) (-1431789050, 9.22639427776174690000e-001) (-1431789050, -3.26447296563477440000e+000) (-1431789050, 8.62132985698331520000e-001) (-1431789050, -7.12358545072458880000e-001) (-1431789050, 2.74637379067756580000e+000) (-1431789050, -6.41194024443656890000e-002) (-1431789050, -2.99710616979463610000e-001) (-1431789050, 5.06011467391707210000e-001) (-1431789050, 3.14263959111236790000e+000) (-1431789050, -2.95545979045018210000e+002) (-1431789050, 3.38421693573878900000e+000) (-1431789050, 3.03487705963232730000e+000) (-1431789050, 3.08207537067977370000e+000) (-1431789050, 2.65567200689059260000e+000) (-1431789050, -2.25156324703051560000e+000) (-1431789050, -2.62655850787926810000e+000) (-1431789050, 7.55679785970349230000e+001) (-1431789050, -5.28174044298819400000e+001) (-1431789050, 7.66525379241390250000e+001) (-1431789050, -6.30612394768749080000e-001) (-1431789050, -1.83169719263315200000e+000) (-1431789050, -3.04620281184317320000e+001) (-1431789050, -9.57747032097274340000e+000) (-1431789050, 7.87793387674591510000e+001) (-1431789050, -1.54434894870894680000e+000) (-1431789050, -1.20694761161421730000e+000) (-1431789050, -3.57308725095110020000e+001) (-1431789050, -1.28480929789838630000e+002) (-1431789050, 1.09020321599285410000e+002) (-1431789050, -1.35038358303221840000e+000) (-1431789050, -9.40943492323308380000e+000) (-1431789050, 4.27817599664079130000e+000) (-1431789050, -1.33578824230144020000e+002) (-1431789050, 9.88674340516689510000e+001) (-1431789050, -2.03886062038691930000e+000) (-1431789050, -6.25932688584281080000e-001) (-1431789050, 2.79800412520565530000e+000) (-1431789050, -4.74574597244027620000e+000) (-1431789050, 3.77547857777500270000e-001) (-1431789050, -1.12457290011870330000e+000) (-1431789050, -4.57885377778130680000e-002) (-1431789050, -4.33619281642609610000e+000) (-1431789050, -3.82194178047293360000e+000) (-1431789050, 3.75748373931668310000e+000) (-1431789050, -3.56939880146700360000e-001) (-1431789050, -7.53751570660424090000e-001) (-1431789050, 2.20431466198862360000e+000) (-1431789050, -7.72103771370418860000e-001) (-1431789050, 3.27144901727197810000e+000) (-1431789050, -1.02879484563657140000e-001) (-1431789050, -4.23047575016572140000e-001) (-1431789050, 3.41997098062833070000e+000) (-1431789050, -9.31989269711232000000e+001) (-1431789050, 1.07277097365571760000e+002) (-1431789050, -1.04928539703905280000e+000) (-1431789050, 2.17019274607569560000e-001) (-1431789050, 8.16013909762790760000e-001) (-1431789050, 9.92748639394521400000e-001) (-1431789050, 1.42293117929391340000e+002) (-1431789050, -1.84699568557134810000e+000) (-1431789050, 7.59719781214061140000e-001) (-1431789050, 1.66307869160982390000e+000) (-1431789050, 5.28419612462088020000e-001) (-1431789050, -1.24086175894947320000e+001) (-1431789050, -1.93480050032417370000e+000) (-1431789050, 8.78082192096359180000e-001) (-1431789050, 2.99690029051745200000e+000) (-1431789050, 7.12018282168968280000e+001) (-1431789050, -1.09668840784101460000e+001) (-1431789050, -1.11706314703005870000e+000) (-1431789050, 8.34929972292372200000e-001) (-1431789050, -3.34727309257396430000e+002) (-1431789050, 1.28036965839123800000e-001) (-1431789050, 3.14037722275924570000e+000) (-1431789050, -1.22634005648756420000e+000) (-1431789050, 4.58108539722892450000e-001) (-1431789050, 8.06548031652715600000e-001) (-1431789050, -4.49364892060088740000e+000) (-1431789050, -1.80176474091570240000e+002) (-1431789050, -7.48352079854497140000e-001) (-1431789050, -7.12699587907057580000e+001) (-1431789050, -8.43665104332310820000e-002) (-1431789050, -7.65792194150548330000e+000) (-1431789050, 4.92163592813486980000e-001) (-1431789050, -3.21237655842222030000e-001) (-1431789050, 1.15804617501531550000e+000) (-1431789050, 1.05356755565240000000e+003) (-1431789050, -3.17947727122865720000e+000) (-1431789050, 1.57522176013175790000e+002) (-1431789050, -1.04582559503607510000e+000) (-1431789050, 4.20977449050023010000e+000) (-1431789050, 3.06691825789067570000e+000) (-1431789050, -3.40270889871311170000e+002) (-1431789050, 1.86901985225306500000e+002) (-1431789050, -9.02713389127194570000e-001) (-1431789050, 8.52651550168761260000e-001) (-1431789050, 1.84522525510741390000e+002) (-1431789050, -1.86159893154920760000e+000) (-1431789050, 1.11890648304053270000e+002) (-1431789050, -4.37490204047756640000e-002) (-1431789050, 2.31040551817731110000e+000) (-1431789050, 8.78946425664551040000e+001) (-1431789050, -8.47337620395165910000e-001) (-1431789050, 3.63511665116530980000e+001) (-1431789050, -1.43340805652487190000e-001) (-1431789050, 3.05633309137718840000e+000) (-1431789050, 1.83658023973213570000e+002) (-1431789050, 1.57102921832666720000e-001) (-1431789050, 6.61531354245100690000e+001) (-1431789050, 3.59965908792604370000e+000) (-1431789050, 2.24810690656029300000e+000) (-1431789050, 3.10044870756675870000e+001) (-1431789050, 5.77455390516942390000e-001) (-1431789050, 1.10738114683430680000e+002) (-1431789050, 8.53265688121918500000e-001) (-1431789050, 5.59348192703066880000e+000) (-1431789050, 8.68379445438289150000e-001) (-1431789050, -3.11177443732127030000e+000) (-1431789050, 6.03620206520846470000e-001) (-1431789050, -1.82052706869434200000e-001) (-1431789050, 3.36409151069206750000e+000) (-1431789050, 1.01179684106881410000e-001) (-1431789050, -2.93919064038989920000e+002) (-1431789050, 1.20094901182952130000e+001) (-1431789050, 1.64062008493899540000e+000) (-1431789050, 1.99696053677789220000e+001) (-1431789050, -2.12059383625419320000e+001) (-1431789050, -1.42501386172387380000e+001) (-1431789050, 2.52464055441051060000e+000) (-1431789050, -2.46063050242665010000e+001) (-1431789050, 1.41410705925796450000e+001) (-1431789050, -2.32284267861370380000e+002) (-1431789050, -3.34842129537629420000e+001) (-1431789050, 5.10346187807423670000e+000) (-1431789050, -1.81309934268808060000e+001) (-1431789050, 9.11422898564613070000e+000) (-1431789050, -9.11764856955274890000e+001) (-1431789050, -4.71612496908486660000e+002) (-1431789050, 6.63049991326775280000e+002) (-1431789050, 1.50000000000000000000e+003) (-1431789050, 1.50000000000000000000e+003) (-1431789050, 1.50000000000000000000e+003) (-1431789050, 1.50000000000000000000e+003) (-1431789050, 1.50000000000000000000e+003) (-1431789050, 1.50000000000000000000e+003) (-1431789050, -1.50000000000000000000e+003) (-1431789050, 1.50000000000000000000e+003) (-1431789050, 2.06406088873691160000e+000) (-1431789050, 1.04241103489086040000e+000) (-1431789050, 8.79862756128727240000e+000) (-1431789050, -1.99918102644119000000e+000) (-1431789050, -1.65685204766671190000e+000) (-1431789050, 2.19339789395864850000e-001) (-1431789050, 1.05497359380981330000e+000) (-1431789050, 8.56380922211773130000e+000) (-1431789050, -2.57350028078328250000e+000) (-1431789050, -6.57138951723906930000e+000) (-1431789050, 1.84465811172482910000e+000) (-1431789050, 6.60529125629444990000e-001) (-1431789050, 1.09610201824965210000e+001) (-1431789050, -3.62092820230745630000e+000) (-1431789050, -1.88526611953015080000e+001) (-1431789050, 9.74854684800691710000e-001) (-1431789050, 7.49316221631536880000e-001) (-1431789050, 8.12240060778509940000e+000) (-1431789050, -6.03504717347721490000e-001) (-1431789050, 9.12457836966533260000e-001) (-1431789050, 2.01881474908057300000e+000) (-1431789050, 1.58050886500797110000e+000) (-1431789050, 1.08972910933983990000e+001) (-1431789050, 1.09502928772924020000e+000) (-1431789050, 1.00462186700510060000e+000) (-1431789050, 8.71634502860665680000e-001) (-1431789050, 5.41588385023666800000e-001) (-1431789050, 1.29566219306646230000e+001) (-1431789050, -1.23257998548326930000e+000) (-1431789050, -3.20731561285060350000e+000) (-1431789050, 1.06802007593403750000e+000) (-1431789050, 1.66909190766109040000e+000) (-1431789050, 1.29873336069158650000e+001) (-1431789050, 5.37257016470198630000e-001) (-1431789050, 9.78439070415077690000e+000) (-1431789050, 1.14457818697597520000e+000) (-1431789050, 4.74763093388667730000e-001) (-1431789050, 1.02797964108593230000e+001) (-1431789050, 5.16801358717893900000e-001) (-1431789050, -1.50925396763611390000e+000) (-1431789050, 1.99071525155366260000e+000) (-1431789050, 1.88627176143640150000e+000) (-1431789050, 1.46424581570440240000e+001) (-1431789050, 1.60837932548011570000e-001) (-1431789050, 1.32886530962294030000e+001) (-1431789050, -3.68877625710454570000e-001) (-1431789050, 1.92244527502342550000e+000) (-1431789050, 1.30996004765525900000e+001) (-1431789050, -4.16356564477067760000e-001) (-1431789050, 7.46363414988829720000e+000) (-1431789050, 1.34816181073914510000e+000) (-1431789050, 1.80603690124859200000e+000) (-1431789050, 9.36983902684022500000e+000) (-1431789050, 4.10869007855451730000e-002) (-1431789050, 1.76958195330142340000e+000) (-1431789050, 1.12605949418828580000e+000) (-1431789050, 8.81580101482001500000e-001) (-1431789050, 1.06090168631932040000e+001) (-1431789050, -9.15061396067924800000e-001) (-1431789050, 5.69247983581947550000e+000) (-1431789050, 4.75909109499110030000e-001) (-1431789050, 8.39747836462600320000e-001) (-1431789050, 1.24349863090105770000e+001) (-1431789050, -1.29301278404218770000e+000) (-1431789050, 2.88030417335878220000e+001) (-1431789050, 6.73437398860908030000e-001) (-1431789050, 1.98200527612097190000e-001) (-1431789050, 1.10313664791981730000e+001) (-1431789050, -1.04354501547921920000e+000) (-1431789050, 3.77833630151291630000e+000) (-1431789050, 1.74110970737061230000e+000) (-1431789050, 4.84694990585781750000e-001) (-1431789050, 7.38878605217334710000e+000) (-1431789050, 9.11493370392498230000e-001) (-1431789050, 1.00627128444287340000e+001) (-1431789050, 1.30146953300139170000e+000) (-1431789050, 8.56110906144933460000e-001) (-1431789050, 8.74368698143586980000e+000) (-1431789050, -5.80059587507291030000e-001) (-1431789050, 2.51655940033385180000e+000) (-1431789050, 1.98849006735369400000e+000) (-1431789050, 4.87551189662153370000e-002) (-1431789050, 8.57795061883583540000e+000) (-1431789050, 9.65265460831048360000e-001) (-1431789050, 1.67543536563444980000e-001) (-1431789050, 2.32279414078992770000e+000) (-1431789050, -1.09104020679676170000e+000) (-1431789050, 6.65492451717174480000e+000) (-1431789050, 2.75609167371753560000e-001) (-1431789050, -5.62896554165967620000e+000) (-1431789050, 1.31534094812099120000e+000) (-1431789050, 1.06164690487647850000e+000) (-1431789050, 7.98211567454532300000e+000) (-1431789050, 5.44560525815976690000e-001) (-1431789050, 4.05193891285903090000e+000) (-1431789050, 1.52364941479843920000e-001) (-1431789050, 1.08607525877566240000e+000) (-1431789050, 6.64189907204382730000e+000) (-1431789050, 1.85089398341992560000e+000) (-1431789050, 1.04912326483839880000e+000) (-1431789050, 5.76509750488953370000e-001) (-1431789050, 1.49466125974578380000e+000) (-1431789050, 7.83432734087703150000e+000) (-1431789050, 2.27095698596754580000e+000) (-1431789050, 2.16029169475168730000e+000) (-1431789050, 1.32777448316180150000e+000) (-1431789050, 6.35107395644459620000e-001) (-1431789050, 6.82155482518915870000e+000) (-1431789050, 1.00290422132144990000e+000) (-1431789050, 1.44990289469666640000e+001) (-1431789050, -1.10559647840289110000e+000) (-1431789050, 2.07680299875619620000e+000) (-1431789050, 8.04440188511830280000e+000) (-1431789050, -6.93641609792716160000e-002) (-1431789050, -9.29319492641265790000e-001) (-1431789050, -3.44823835143271530000e-001) (-1431789050, 2.14213578160954130000e-001) (-1431789050, 7.86423311477375280000e+000) (-1431789050, 1.27760222286195660000e+000) (-1431789050, 2.47436566837190420000e+000) (-1431789050, 6.38541549511489890000e-001) (-1431789050, 1.71977705253601830000e+000) (-1431789050, 4.43787003178732230000e+000) (-1431789050, -4.02927500962157530000e-002) (-1431789050, 1.15486380233530020000e+000) (-1431789050, 4.48435363946036320000e+001) (-1431789050, 1.22289279957142610000e+002) (-1431789050, 1.45507915630960970000e+003) (-1431789050, 1.85812611308130950000e+002) (-1431789050, 5.78748003618496160000e+001) (-1431789050, 3.15279461468530150000e+001) (-1431789050, 2.87249319189307140000e+001) (-1431789050, 3.64759581191334310000e+001) (-1431789050, 1.68645039096287970000e+002) (-1431789050, 2.35934329025302290000e+000) (-1431789050, 1.97102716218037790000e+000) (-1431789050, 6.08810752560863830000e+000) (-1431789050, 1.77754872811861930000e+000) (-1431789050, 6.26357155947556520000e+000) (-1431789050, 4.35386822536972500000e+000) (-1431789050, 2.23960022043584980000e+000) (-1431789050, 1.57412867051156060000e+001) (-1431789050, 2.10609737639965610000e+001) (-1431789050, 4.30613206779964130000e+000) (-1431789050, 3.58386397641985520000e+000) (-1431789050, 2.07356993715826030000e+000) (-1431789050, 1.47897911673024750000e+001) (-1431789050, 8.32203505871154190000e+000) (-1431789050, 5.84896823079548510000e+000) (-1431789050, 2.83913661225164970000e+000) (-1431789050, 1.95590849548658530000e+000) (-1431789050, 1.44941779186711980000e+001) (-1431789050, 4.93058573520294630000e+000) (-1431789050, 3.64852760572497740000e+000) (-1431789050, 3.28486444902887390000e+000) (-1431789050, 2.29323667734766670000e+000) (-1431789050, 1.47219637803684550000e+001) (-1431789050, 7.21036455225843480000e+000) (-1431789050, 1.14328919778291130000e+001) (-1431789050, 3.23176631006687390000e+000) (-1431789050, 1.96746205666450760000e+000) (-1431789050, 1.59097822514678560000e+001) (-1431789050, 8.40958042333743630000e+000) (-1431789050, 2.82360771754075880000e+000) (-1431789050, 2.31922288658997160000e+000) (-1431789050, 1.43612488911194400000e+000) (-1431789050, 1.48303809607275690000e+001) (-1431789050, 6.29334182861548190000e+000) (-1431789050, 2.48731059028910200000e+000) (-1431789050, 2.78751608255869690000e+000) (-1431789050, 1.28546531096423180000e+000) (-1431789050, 1.56881964759251070000e+001) (-1431789050, 1.00180613326469650000e+001) (-1431789050, 7.04618065472099800000e+000) (-1431789050, 2.16283197997428320000e+000) (-1431789050, 2.81728388073931770000e+000) (-1431789050, 1.57304847410035930000e+001) (-1431789050, 5.97937584657841010000e+000) (-1431789050, 6.77924495941113840000e+000) (-1431789050, 1.92538205731969780000e+000) (-1431789050, 3.04065218343213140000e+000) (-1431789050, 1.53054499709999640000e+001) (-1431789050, 6.78374800391971000000e+000) (-1431789050, 5.78248329604735380000e+000) (-1431789050, 3.08850749933404910000e+000) (-1431789050, 2.82268297191039070000e+000) (-1431789050, 1.58826769300561780000e+001) (-1431789050, 1.26761394792200410000e+001) (-1431789050, 3.02451037310366510000e+000) (-1431789050, 3.17615171464071370000e+000) (-1431789050, 1.67374138231010840000e+000) (-1431789050, 1.62903690871106510000e+001) (-1431789050, 1.01870895319598510000e+001) (-1431789050, 4.28479709778572810000e+000) (-1431789050, 3.01537985043266590000e+000) (-1431789050, 4.15120809449838650000e+000) (-1431789050, 1.76425904886213760000e+001) (-1431789050, 7.62237807639243940000e+000) (-1431789050, 2.53858886967734640000e+000) (-1431789050, 1.95198292963754950000e+000) (-1431789050, 3.19630836963108810000e+000) (-1431789050, 1.70035774179960060000e+001) (-1431789050, 6.66840896109854510000e+000) (-1431789050, 3.02534480362438530000e+000) (-1431789050, 2.21589969661932300000e+000) (-1431789050, 1.62150808559734540000e+000) (-1431789050, 1.76726795193321140000e+001) (-1431789050, 6.18848296028427210000e+000) (-1431789050, 7.84611665876330470000e+000) (-1431789050, 2.72117023194173720000e+000) (-1431789050, 1.56272308177434180000e+000) (-1431789050, 1.56774175133020800000e+001) (-1431789050, 1.05116388483174710000e+001) (-1431789050, 3.88363402450457510000e+000) (-1431789050, 3.81414538817691140000e+000) (-1431789050, 1.72775565420064600000e+000) (-1431789050, 1.64524377882958640000e+001) (-1431789050, 9.75359686831796150000e+000) (-1431789050, 4.07920631180910930000e+000) (-1431789050, 2.80251746826751980000e+000) (-1431789050, 2.83081987018694070000e+000) (-1431789050, 1.53022377455855650000e+001) (-1431789050, 9.96126141276181800000e+000) (-1431789050, 3.26456327599045700000e+000) (-1431789050, 1.16307734643041010000e+000) (-1431789050, 1.73703399918628400000e+000) (-1431789050, 1.44864232664685750000e+001) (-1431789050, 8.56230069776367490000e+000) (-1431789050, 3.18496193884458020000e+000) (-1431789050, 3.61316305137282970000e+000) (-1431789050, 1.43491926907209220000e+000) (-1431789050, 1.53443684089453570000e+001) (-1431789050, 2.92620023504649130000e+000) (-1431789050, 3.53006610780321760000e+000) (-1431789050, 3.44014769686912910000e+000) (-1431789050, 2.31874948685773940000e+000) (-1431789050, 1.69192550350405460000e+001) (-1431789050, 1.25546151733115750000e+001) (-1431789050, 4.46527037270387610000e+000) (-1431789050, 2.21456845405707710000e+000) (-1431789050, 2.26116256239706590000e+000) (-1431789050, 1.50954968699026250000e+001) (-1431789050, 1.55454346513106980000e+001) (-1431789050, 9.49135576579574010000e+000) (-1431789050, 1.43342931682147960000e+000) (-1431789050, 1.67221777966383290000e+000) (-1431789050, 1.59020888044239930000e+001) (-1431789050, 2.99630144690909760000e+000) (-1431789050, 1.12656021941090930000e+001) (-1431789050, 2.11769930753913950000e+000) (-1431789050, 2.01106311024086310000e+000) (-1431789050, 1.67624482161010350000e+001) (-1431789050, 2.42071441966368450000e+000) (-1431789050, 7.32420035348848590000e+000) (-1431789050, 2.89028617778005390000e+000) (-1431789050, 2.28239884097566790000e+000) (-1431789050, 1.70828088294591250000e+001) (-1431789050, 3.06194763616759100000e+000) (-1431789050, 2.40439532270777040000e+001) (-1431789050, 1.98414904208172230000e+001) (-1431789050, 3.15462466150731530000e+002) (-1431789050, 2.31465855505740450000e+002) (-1431789050, 3.17024672768676170000e+002) (-1431789050, 1.23922888227705120000e+002) (-1431789050, 1.09496866906135260000e+003) (-1431789050, 1.97785373987188900000e+002) (-1431789050, 2.35151804913900020000e+001) (-1431789050, 4.92254691770901220000e+002) (-1431789050, 4.30099752215709190000e+001) (-1431789050, -8.20196914270418960000e-001) (-1431789050, -3.74949392347011970000e-001) (-1431789050, -3.17853181291952550000e+000) (-1431789050, -5.97417306163133490000e-001) (-1431789050, 5.79095032776119070000e-001) (-1431789050, -5.10361284499947110000e-001) (-1431789050, 3.61775396631401350000e-001) (-1431789050, -4.26709643005122090000e+000) (-1431789050, 1.03430777586238550000e+000) (-1431789050, 2.72608971894795770000e-001) (-1431789050, -8.38281453131153990000e-001) (-1431789050, 9.01004492864058480000e-001) (-1431789050, -2.07089321414075920000e+000) (-1431789050, -2.56676223073399100000e-001) (-1431789050, 1.22323406339558160000e+000) (-1431789050, 4.54020973339221030000e-001) (-1431789050, -1.82159243356755010000e-001) (-1431789050, -1.09170732190244670000e+000) (-1431789050, -5.25486744042779950000e-001) (-1431789050, -8.37550340311772220000e-001) (-1431789050, 5.11572002136091440000e-001) (-1431789050, 8.17042858307859610000e-001) (-1431789050, 2.80488331190123230000e-002) (-1431789050, 6.15167040055504040000e-001) (-1431789050, 7.06827041398941370000e-002) (-1431789050, -8.65051437409615210000e-001) (-1431789050, -6.70460108684281660000e-002) (-1431789050, 1.11722512986792260000e+000) (-1431789050, 4.56560385194911820000e-001) (-1431789050, 7.76432441505172430000e-001) (-1431789050, 3.59018554793928080000e-001) (-1431789050, 1.07319300383036280000e-001) (-1431789050, 6.18735808727009510000e-001) (-1431789050, -5.58150270460671560000e-001) (-1431789050, 1.06292646163705420000e+000) (-1431789050, -3.50657365307362130000e-001) (-1431789050, -6.59721829822084380000e-001) (-1431789050, -7.88325068238483330000e-002) (-1431789050, 3.28151611460478550000e-001) (-1431789050, 1.20543773500937390000e+000) (-1431789050, 7.09781258910045290000e-001) (-1431789050, 8.49680646453664590000e-001) (-1431789050, 1.36706142445664700000e+000) (-1431789050, -1.15645520028186710000e+000) (-1431789050, 4.65019134459190850000e-001) (-1431789050, -9.53707270911200030000e-002) (-1431789050, -8.74995543500227400000e-002) (-1431789050, -1.39163184707250280000e-001) (-1431789050, -1.60710289763302420000e+000) (-1431789050, 1.22057345384453540000e+000) (-1431789050, -8.57414406312367210000e-001) (-1431789050, -7.53015910622901300000e-001) (-1431789050, -4.37798897639702530000e-001) (-1431789050, -2.84516583555029840000e+000) (-1431789050, 9.60127258393782880000e-001) (-1431789050, -7.38310409436758850000e-001) (-1431789050, 9.55886913826399790000e-001) (-1431789050, 2.94933962823367760000e-001) (-1431789050, 6.19357238090273210000e-001) (-1431789050, 1.29232087208587720000e+000) (-1431789050, 2.60855152322871060000e-002) (-1431789050, 4.72788719166269520000e-001) (-1431789050, -6.31270256051955190000e-001) (-1431789050, -1.87621816113033050000e-001) (-1431789050, 2.29656632587190320000e-001) (-1431789050, -6.81598525939791200000e-001) (-1431789050, 1.09511827437389160000e+000) (-1431789050, -4.02352324909621560000e-002) (-1431789050, -5.98485070216749570000e-001) (-1431789050, 1.00939436059569970000e-001) (-1431789050, -5.15458329277496350000e-001) (-1431789050, 2.99699313457575670000e-001) (-1431789050, -8.66083778616074440000e-001) (-1431789050, -8.99890981490492630000e-001) (-1431789050, 6.28001143676045980000e-001) (-1431789050, 6.25604429563736410000e-001) (-1431789050, -5.12986375396851770000e-001) (-1431789050, -8.30329846463102260000e-001) (-1431789050, -8.57901443666429180000e-001) (-1431789050, 1.77628509203191800000e+000) (-1431789050, 6.92238876823853430000e-001) (-1431789050, -3.17707748917521520000e-001) (-1431789050, 6.32993240651099850000e-001) (-1431789050, -2.33373770859169880000e+000) (-1431789050, 8.78759719416394640000e-001) (-1431789050, 3.42290708509311590000e-001) (-1431789050, -2.66506866710154390000e-001) (-1431789050, 7.21197018967694730000e-001) (-1431789050, 1.36810670041956320000e-001) (-1431789050, 2.94852773881292940000e-001) (-1431789050, 1.02240370538237620000e+000) (-1431789050, -6.83305834701848470000e-001) (-1431789050, 1.86149713547568130000e+000) (-1431789050, 1.76041941510291270000e+000) (-1431789050, 6.51701281135054430000e-001) (-1431789050, -9.40200094371320790000e-001) (-1431789050, -8.92727326640325060000e-001) (-1431789050, -1.72758877209960150000e+000) (-1431789050, -1.43740010316529280000e+000) (-1431789050, 3.68123320123075690000e-001) (-1431789050, -1.61990890155276320000e-001) (-1431789050, -1.34659268450178950000e+000) (-1431789050, -7.73275325675566670000e-001) (-1431789050, -9.96881975780704920000e-001) (-1431789050, 8.82461075281852470000e-001) (-1431789050, -7.98875934140551690000e-001) (-1431789050, 1.27354139198798920000e+000) (-1431789050, -4.82743986116146000000e-001) (-1431789050, -3.05177076307543540000e-001) (-1431789050, 6.48600816836836060000e-003) (-1431789050, 2.56632786600948070000e-001) (-1431789050, -1.75170832575696180000e-001) (-1431789050, -7.81664139147230510000e-002) (-1431789050, -1.71093553036259740000e-003) (-1431789050, -1.00589584034898750000e+000) (-1431789050, -6.73268448083438750000e-002) (-1431789050, 5.99645093207057280000e-001) (-1431789050, -6.52795427294731030000e-002) (-1431789050, -2.91502375020425130000e+000) (-1431789050, 1.42899122495321910000e+000) (-1431789050, 1.10849801483796110000e+000) (-1431789050, -7.22962066098652240000e-003) (-1431789050, -3.60403972480486450000e-001) (-1431789050, 1.58042615262828480000e-001) (-1431789050, 1.16269436195893610000e+000) (-1431789050, 4.58992045465463510000e+000) (-1431789050, 3.15139961056190070000e+001) (-1431789050, -1.50000000000000000000e+003) (-1431789050, 2.69817374992454970000e+001) (-1431789050, 8.17064614074714330000e+000) (-1431789050, 4.37606062635301730000e+000) (-1431789050, 2.46179462878581260000e+000) (-1431789050, 5.54811099413614170000e+000) (-1431789050, 4.65969444957153560000e+000) (-1431789050, 2.33713560904702040000e+001) (-1431789050, 1.78046056963833170000e+002) (-1431789050, 4.55375228861212230000e-001) (-1431789050, 4.94704775127854050000e-001) (-1431789050, 3.82462580281746600000e+000) (-1431789050, 1.76936092499644950000e+000) (-1431789050, 8.45707494502700110000e-001) (-1431789050, 1.98067810880526520000e+000) (-1431789050, -4.71668943717436170000e-001) (-1431789050, 4.75952763173374380000e+000) (-1431789050, 2.64996311412408000000e+000) (-1431789050, 2.41142822764840310000e+000) (-1431789050, 2.65446063556168180000e-001) (-1431789050, -3.19063223670986050000e-001) (-1431789050, 3.88477754392862230000e+000) (-1431789050, 1.43547376285691610000e+000) (-1431789050, -2.43042592779375590000e-001) (-1431789050, 1.38277390446215030000e+000) (-1431789050, 8.14603554364197740000e-001) (-1431789050, 4.49166138294872220000e+000) (-1431789050, 6.92232522153700240000e-001) (-1431789050, 5.46446880462746920000e-001) (-1431789050, 1.24364582897508580000e+000) (-1431789050, -5.37112085759533730000e-001) (-1431789050, 4.43207117131405860000e+000) (-1431789050, 2.32918481707931410000e+000) (-1431789050, 5.35575815239566320000e-001) (-1431789050, -2.70194066214421710000e-001) (-1431789050, 3.76728363543168580000e-001) (-1431789050, 5.58791093976142150000e+000) (-1431789050, 6.02262220948767450000e+000) (-1431789050, 4.06091005911347610000e-001) (-1431789050, -3.31776706899104100000e-001) (-1431789050, 1.21852823700142960000e+000) (-1431789050, 3.77162757881082640000e+000) (-1431789050, 1.83584869789147630000e+000) (-1431789050, 8.85961068206179480000e-001) (-1431789050, 7.66189250819628960000e-001) (-1431789050, -9.35208836050447580000e-001) (-1431789050, 3.94023799862524850000e+000) (-1431789050, 8.38407591411395760000e-001) (-1431789050, 2.09173911301251490000e+000) (-1431789050, 3.83484121269792030000e-001) (-1431789050, -4.17686863960736730000e-001) (-1431789050, 5.10897044409867540000e+000) (-1431789050, 2.54746537626897050000e+000) (-1431789050, 9.16656984247847250000e-001) (-1431789050, 2.02088462242811850000e-001) (-1431789050, 5.55106550169174760000e-001) (-1431789050, 4.55737446977357410000e+000) (-1431789050, 1.82358708830875950000e+000) (-1431789050, 1.19218652585076200000e+000) (-1431789050, -6.92728961395020160000e-001) (-1431789050, 7.47383629505688600000e-001) (-1431789050, 4.07101678938751820000e+000) (-1431789050, 2.98021678223170120000e+000) (-1431789050, 2.81908980313195280000e-001) (-1431789050, 3.24246862583975990000e-003) (-1431789050, -6.18483328395697640000e-001) (-1431789050, 4.40918180253131720000e+000) (-1431789050, 2.62960206202798300000e+000) (-1431789050, 4.39142085778146900000e-001) (-1431789050, 1.01049343789375310000e+000) (-1431789050, 8.22912072016073640000e-001) (-1431789050, 3.82007285146671420000e+000) (-1431789050, 3.76211919072532200000e+000) (-1431789050, 9.19622579684144740000e-001) (-1431789050, -5.36051151782252490000e-001) (-1431789050, 8.36043653280243660000e-001) (-1431789050, 5.50293223497664920000e+000) (-1431789050, 4.80455474245538740000e+000) (-1431789050, 1.33099278540334030000e+000) (-1431789050, 8.63054775319033300000e-001) (-1431789050, -9.95764474537982060000e-002) (-1431789050, 4.91549813767179170000e+000) (-1431789050, 2.54697253593270820000e+000) (-1431789050, -1.61399413648664590000e-001) (-1431789050, 3.42089207012629350000e-001) (-1431789050, -4.58598759258892320000e-001) (-1431789050, 3.89774697320221590000e+000) (-1431789050, 1.22093007499329540000e+000) (-1431789050, 4.03223399691912120000e-001) (-1431789050, 2.04288387643728970000e-001) (-1431789050, -5.13721329636231520000e-001) (-1431789050, 4.26341378001983620000e+000) (-1431789050, 3.59115708181407860000e+000) (-1431789050, 8.46118264445069990000e-001) (-1431789050, 5.23232719841197120000e-001) (-1431789050, 5.81338786443641680000e-001) (-1431789050, 5.24029338582498740000e+000) (-1431789050, 3.23715738081988480000e+000) (-1431789050, -2.37929863849734270000e-001) (-1431789050, 1.41065824217153050000e-001) (-1431789050, -1.41411863488949160000e-001) (-1431789050, 4.69976078786218120000e+000) (-1431789050, 2.04004087214938630000e+000) (-1431789050, -1.45486465245595030000e-001) (-1431789050, 8.09530394872979510000e-001) (-1431789050, 3.21549975637457520000e-001) (-1431789050, 5.40021311495746390000e+000) (-1431789050, 1.51176388413657010000e+000) (-1431789050, 1.25892911890592900000e-001) (-1431789050, -6.06372967082565020000e-002) (-1431789050, 1.15326662157998010000e+000) (-1431789050, 4.32575286621367280000e+000) (-1431789050, 1.87831242315638240000e+000) (-1431789050, -6.66308584381140820000e-001) (-1431789050, 1.38361577273403240000e+000) (-1431789050, 6.17270479058090630000e-001) (-1431789050, 4.56065493598012320000e+000) (-1431789050, 3.47403763862134780000e+000) (-1431789050, -7.12480884086215540000e-002) (-1431789050, 5.56924206976733840000e-001) (-1431789050, 4.75138959081086720000e-001) (-1431789050, 3.82975058434146120000e+000) (-1431789050, 1.08988160667386240000e+000) (-1431789050, -2.74252993954475670000e-001) (-1431789050, 1.08007331949219990000e+000) (-1431789050, 1.31582786906761440000e+000) (-1431789050, 5.15057127792294180000e+000) (-1431789050, 1.83514690084296790000e+000) (-1431789050, 6.86876015005438270000e-001) (-1431789050, 1.79303339540496690000e+000) (-1431789050, 1.14567025646201030000e-001) (-1431789050, 4.22481246954791430000e+000) (-1431789050, 9.34670693886857530000e-001) (-1431789050, 8.80559342852251570000e-001) (-1431789050, 2.61068116013310190000e+000) (-1431789050, 5.16680488072838350000e+000) (-1431789050, 3.54857023821363170000e+000) (-1431789050, 4.19225141484465350000e+000) (-1431789050, 5.58893226923014550000e+000) (-1431789050, 5.50797063151587540000e+000) (-1431789050, 1.27339142039516150000e+000) (-1431789050, 4.51818836625724000000e+000) (-1431789050, 5.66235071227446610000e+000) (-1431789050, 4.89105916549801020000e+000) (-1431789050, 8.41863815647797860000e+000) (-1431789050, 7.30091633676002340000e+000) (-1431789050, 3.17515896442805090000e-001) (-1431789050, -2.21844761094253580000e-001) (-1431789050, 2.83038657337275530000e+000) (-1431789050, 2.01286173489463360000e+000) (-1431789050, 6.23520970889708040000e-001) (-1431789050, 1.17573128002112660000e+000) (-1431789050, 1.13241228347470260000e+000) (-1431789050, 2.83325384225926550000e+000) (-1431789050, 2.44855612678326650000e+000) (-1431789050, 1.33995055837092500000e+000) (-1431789050, 1.39343045537789620000e+000) (-1431789050, -1.52785521972863750000e+000) (-1431789050, 2.46566682460276800000e+000) (-1431789050, 1.81951841658208570000e+000) (-1431789050, 9.84087001892982930000e-001) (-1431789050, 1.63945357284590560000e+000) (-1431789050, -6.68694805168368930000e-003) (-1431789050, 2.84607366113376600000e+000) (-1431789050, 2.01349381631919620000e+000) (-1431789050, 6.33101489867960890000e-001) (-1431789050, 5.59859111144229040000e-001) (-1431789050, -9.00147834002975160000e-001) (-1431789050, 3.90769382200921060000e+000) (-1431789050, 7.58590277305160600000e-001) (-1431789050, -1.25024025579864690000e+000) (-1431789050, 1.06877210074883820000e+000) (-1431789050, -7.33511576225631900000e-001) (-1431789050, 2.96265292060647360000e+000) (-1431789050, 1.70845037385482450000e+000) (-1431789050, -2.50798701101709490000e-001) (-1431789050, 8.06094273938468220000e-001) (-1431789050, 1.35685644048921250000e-001) (-1431789050, 3.41880443417967330000e+000) (-1431789050, 3.43129732872626270000e-001) (-1431789050, 2.40237568858622410000e-001) (-1431789050, 1.45494315142291740000e+000) (-1431789050, 1.04443649534461260000e+000) (-1431789050, 1.23628135163226620000e+000) (-1431789050, 1.07674601981902220000e+000) (-1431789050, 1.48091503836349950000e-001) (-1431789050, 8.80823809298565300000e-001) (-1431789050, -4.25257762958143260000e-002) (-1431789050, 1.20587699321366860000e+000) (-1431789050, 1.42573059702743480000e-001) (-1431789050, -1.42712744354505140000e+000) (-1431789050, 1.33009305260884880000e+000) (-1431789050, 1.81447397004783650000e+000) (-1431789050, 2.10769156661790320000e+000) (-1431789050, 1.34746884315497820000e+000) (-1431789050, -7.63190983178158870000e-002) (-1431789050, 1.27503427660051100000e-001) (-1431789050, -1.90828510436613280000e-001) (-1431789050, 3.40555414183203680000e+000) (-1431789050, 2.00475292210420930000e+000) (-1431789050, 1.72803139687593640000e-001) (-1431789050, 3.11350442321680580000e-001) (-1431789050, -2.68733703954900150000e-001) (-1431789050, 2.66105407691935760000e+000) (-1431789050, 1.32014109729216480000e+000) (-1431789050, 1.70164480035737950000e-001) (-1431789050, -1.85493065007286910000e-001) (-1431789050, 5.58938348433245520000e-001) (-1431789050, 1.35911235500116280000e+000) (-1431789050, 1.32932074850295610000e+000) (-1431789050, -1.59316524261992050000e-001) (-1431789050, 9.94235701050397710000e-002) (-1431789050, -1.56637073787745270000e+000) (-1431789050, 2.10975620421756240000e+000) (-1431789050, 1.07287073605492570000e+000) (-1431789050, 4.77879682801676360000e-001) (-1431789050, -4.34354085693137270000e-001) (-1431789050, 3.28471427557976770000e-002) (-1431789050, 1.84624425354852710000e+000) (-1431789050, -5.85395069084835780000e-002) (-1431789050, -6.33679132980674350000e-001) (-1431789050, 1.41851047966876580000e+000) (-1431789050, 2.37514708960202710000e-001) (-1431789050, 3.68891756719672110000e+000) (-1431789050, 5.92425955883171480000e-001) (-1431789050, -1.18794806048322730000e+000) (-1431789050, 1.01734922933766760000e+000) (-1431789050, -2.54047045470541520000e-002) (-1431789050, 3.20252574084914120000e+000) (-1431789050, 1.36301850945603880000e+000) (-1431789050, 5.90828964462677080000e-001) (-1431789050, 9.88211277836917980000e-001) (-1431789050, 4.27732158556257790000e-001) (-1431789050, 2.29242301330898050000e+000) (-1431789050, 2.19085066089297960000e+000) (-1431789050, -5.41085528375888010000e-003) (-1431789050, 6.12103272262080830000e-001) (-1431789050, -1.11871665069703960000e+000) (-1431789050, 2.20228228131956660000e+000) (-1431789050, 1.13387893231256710000e+000) (-1431789050, -1.18843215095177650000e-001) (-1431789050, -2.74497094427709140000e-001) (-1431789050, -3.02521755327394500000e-001) (-1431789050, 2.72430588999881480000e+000) (-1431789050, 1.63677846186709510000e+000) (-1431789050, -8.06913002481905230000e-001) (-1431789050, 1.69783298611359080000e+000) (-1431789050, -9.38748234491998180000e-001) (-1431789050, 2.11131785912553480000e+000) (-1431789050, 1.96613383630894560000e+000) (-1431789050, -6.19936580532781560000e-001) (-1431789050, 1.68162974063299140000e+000) (-1431789050, 9.59644713547693320000e-001) (-1431789050, 4.55469786467157520000e+000) (-1431789050, 1.54791768695429900000e+000) (-1431789050, 5.77864542672295030000e-001) (-1431789050, 4.66977317029416140000e-001) (-1431789050, -1.18638518088459450000e-001) (-1431789050, 2.74169479584156270000e+000) (-1431789050, 6.58964816759851970000e-001) (-1431789050, 6.48273739695379490000e-001) (-1431789050, 4.27420929328653170000e-001) (-1431789050, 1.57280260103629550000e-001) (-1431789050, 3.66745255617227970000e+000) (-1431789050, 1.38163561982866300000e+000) (-1431789050, 1.09832887757957920000e-001) (-1431789050, 1.09989197842454910000e+000) (-1431789050, 5.80530843222139660000e-001) (-1431789050, 2.90393220606518110000e+000) (-1431789050, 1.60476114422387430000e+000) (-1431789050, -2.92892321879163920000e-001) (-1431789050, 6.03493506313444690000e+000) (-1431789050, 7.75225573904494420000e+000) (-1431789050, 7.72011882302347320000e+002) (-1431789050, 5.86198991552164460000e+000) (-1431789050, 6.02571724025155580000e+000) (-1431789050, 4.31793399984851600000e+000) (-1431789050, 5.21336770809764080000e+000) (-1431789050, 2.99735105767127140000e+000) (-1431789050, 2.12945679264939400000e+001) (-1431789050, 1.48544457008269680000e+001) (-1431789050, 8.04615357428296640000e+000) (-1431789050, 3.04785423773560210000e+001) (-1431789050, 8.29712840428542220000e+001) (-1431789050, -1.38088209762400820000e+002) (-1431789050, -1.30672962417980940000e+003) (-1431789050, -1.50000000000000000000e+003) (-1431789050, 1.65414503526292980000e+002) (-1431789050, -8.08743992673891510000e+002) (-1431789050, 1.49739365522725980000e+003) (-1431789050, 1.50000000000000000000e+003) (-1431789050, -1.29245558043556570000e+003) (-1431789050, 1.37681442257798720000e+003) (-1431789050, 6.02748698686529790000e+002) (-1431789050, 1.50000000000000000000e+003) (-1431789050, -1.50000000000000000000e+003) (-1431789050, -1.50000000000000000000e+003) (-1431789050, -1.46089206026780540000e+003) (-1431789050, -1.21237282921800220000e+003) (-1431789050, -4.92409529401766050000e+001) (-1431789050, -1.50000000000000000000e+003) (-1431789050, -1.41746099865348420000e+003) (-1431789050, 1.50000000000000000000e+003) (-1431789050, -1.50000000000000000000e+003) (-1431789050, -1.50000000000000000000e+003) (-1431789050, 1.19801716532040430000e+003) (-1431789050, -1.50000000000000000000e+003) (-1431789050, 1.10241264700208130000e+003) (-1431789050, 2.98308438919519520000e+002) (-1431789050, -1.50000000000000000000e+003) (-1431789050, -8.40870789427644350000e+001) (-1431789050, -1.44019922070571670000e+003) (-1431789050, 1.05474420113584840000e+002) (-1431789050, -8.30833595571643400000e+002) (-1431789050, -1.50000000000000000000e+003) (-1431789050, 3.55510081714941920000e+002) (-1431789050, -1.47225710408641000000e+003) (-1431789050, 1.50000000000000000000e+003) (-1431789050, -1.50000000000000000000e+003) (-1431789050, -1.50000000000000000000e+003) (-1431789050, -6.17535213200741740000e+002) (-1431789050, -1.50000000000000000000e+003) (-1431789050, 1.50000000000000000000e+003) (-1431789050, 1.48418505779142060000e+003) (-1431789050, -1.50000000000000000000e+003) (-1431789050, 1.40723985339121510000e+003) (-1431789050, -1.49849540715254990000e+003) (-1431789050, -4.98957454982548600000e+002) (-1431789050, -1.50000000000000000000e+003) (-1431789050, -1.50000000000000000000e+003) (-1431789050, 1.50000000000000000000e+003) (-1431789050, -1.50000000000000000000e+003) (-1431789050, 1.50000000000000000000e+003) (-1431789050, 1.13001181422304200000e+002) (-1431789050, -1.50000000000000000000e+003) (-1431789050, -2.65971528529748690000e+001) (-1431789050, -9.78222130578579480000e+002) (-1431789050, 1.50000000000000000000e+003) (-1431789050, -1.50000000000000000000e+003) (-1431789050, -6.68001609693523850000e+002) (-1431789050, -1.50000000000000000000e+003) (-1431789050, -1.50000000000000000000e+003) (-1431789050, 1.50000000000000000000e+003) (-1431789050, -1.50000000000000000000e+003) (-1431789050, -1.50000000000000000000e+003) (-1431789050, -5.05470324024628950000e+002) (-1431789050, -1.50000000000000000000e+003) (-1431789050, 1.50000000000000000000e+003) (-1431789050, 6.32891025370586700000e+002) (-1431789050, 1.49201346745632620000e+003) (-1431789050, 4.91035645174399290000e+002) (-1431789050, -1.50000000000000000000e+003) (-1431789050, 1.50000000000000000000e+003) (-1431789050, -1.50000000000000000000e+003) (-1431789050, 1.49910025343812390000e+003) (-1431789050, 1.22827530494226430000e+003) (-1431789050, -1.50000000000000000000e+003) (-1431789050, 1.50000000000000000000e+003) (-1431789050, -1.48352402889836050000e+003) (-1431789050, -1.29084174242038760000e+003) (-1431789050, 1.23946483889866520000e+003) (-1431789050, -1.50000000000000000000e+003) (-1431789050, 5.97478898389751860000e+002) (-1431789050, 2.88195849265762260000e+001) (-1431789050, -1.50000000000000000000e+003) (-1431789050, 3.33141698310311880000e+002) (-1431789050, -1.50000000000000000000e+003) (-1431789050, 1.50000000000000000000e+003) (-1431789050, -1.50000000000000000000e+003) (-1431789050, 2.96399069428990630000e+002) (-1431789050, 9.31100015184962560000e+002) (-1431789050, -1.50000000000000000000e+003) (-1431789050, 1.40217578975429300000e+003) (-1431789050, 1.94411772951603210000e+002) (-1431789050, 1.50000000000000000000e+003) (-1431789050, 1.50000000000000000000e+003) (-1431789050, -8.63873973366052950000e+002) (-1431789050, 1.50000000000000000000e+003) (-1431789050, -1.50000000000000000000e+003) (-1431789050, 1.22861322888543260000e+003) (-1431789050, 1.22239570048750260000e+003) (-1431789050, 1.64445023578435040000e+002) (-1431789050, 1.69486735713769520000e+002) (-1431789050, -1.50000000000000000000e+003) (-1431789050, -1.17596931944741910000e+003) (-1431789050, 1.50000000000000000000e+003) (-1431789050, -1.50000000000000000000e+003) (-1431789050, 1.33767572748596220000e+003) (-1431789050, 1.06484068411361430000e+003) (-1431789050, -1.50000000000000000000e+003) (-1431789050, -2.28619342860470430000e+002) (-1431789050, 1.18482830274582920000e+003) (-1431789050, 1.50000000000000000000e+003) (-1431789050, -1.50000000000000000000e+003) (-1431789050, -1.42943526690679410000e+003) (-1431789050, -1.50000000000000000000e+003) (-1431789050, 1.48532387547262970000e+003) (-1431789050, 1.14618150957063430000e+003) (-1431789050, -1.34791885211402950000e+003) (-1431789050, 1.50000000000000000000e+003) (-1431789050, -1.50000000000000000000e+003) (-1431789050, 1.46218621261648220000e+003) (-1431789050, 1.45848917445572530000e+003) (-1431789050, -1.50000000000000000000e+003) (-1431789050, 1.49609319365927060000e+003) (-1431789050, -1.50000000000000000000e+003) (-1431789050, 1.50000000000000000000e+003) (-1431789050, 1.46986044912167790000e+003) (-1431789050, 2.29261808691945730000e+002) (-1431789050, -1.50000000000000000000e+003) (-1431789050, -4.96616248907027570000e+002) (-1431789050, -1.50000000000000000000e+003) (-1431789050, -1.50000000000000000000e+003) (-1431789050, -1.50000000000000000000e+003) (-1431789050, -1.50000000000000000000e+003) (-1431789050, 6.98171588024955100000e+002) (-1431789050, -1.50000000000000000000e+003) (-1431789050, -1.50000000000000000000e+003) (-1431789050, -1.50000000000000000000e+003) (-1431789050, -4.62026793031350960000e+002) (-1431789050, -1.31335145142418830000e+003) (-1431789050, 1.50000000000000000000e+003) (-1431789050, -1.50000000000000000000e+003) (-1431789050, -7.15042929014412100000e-002) (-1431789050, -7.11407727807364050000e-001) (-1431789050, 1.81386825834534670000e+000) (-1431789050, 1.64260349782648320000e+000) (-1431789050, 7.66042950051778360000e-001) (-1431789050, 8.72950032186466380000e-001) (-1431789050, -1.94781923022475960000e-001) (-1431789050, -1.26232908796464250000e+000) (-1431789050, 1.57786463352480990000e+000) (-1431789050, -2.91817279943235360000e-001) (-1431789050, 9.23172592940730620000e-001) (-1431789050, 5.65789285192558220000e-001) (-1431789050, 1.14408148278751830000e-001) (-1431789050, 1.73853431329638760000e-001) (-1431789050, 4.17353187116402740000e-001) (-1431789050, 8.99575948147918750000e-001) (-1431789050, 2.50146766176454650000e-001) (-1431789050, 8.75442630924594730000e-001) (-1431789050, -6.37703491748828680000e-001) (-1431789050, -4.94763118797800840000e-002) (-1431789050, -2.62020667977143410000e-001) (-1431789050, 8.96894853659335190000e-001) (-1431789050, 8.91176541714962410000e-001) (-1431789050, -6.62050944325407450000e-001) (-1431789050, -4.83654836440094770000e-001) (-1431789050, 6.17513077861961750000e-001) (-1431789050, 1.00321189947489460000e+000) (-1431789050, 9.67265241762468420000e-001) (-1431789050, -3.18866091266916510000e-001) (-1431789050, -1.37769125370665280000e+000) (-1431789050, -5.56043536097040120000e-002) (-1431789050, 4.02454381947732090000e-001) (-1431789050, 4.57011699637950350000e-001) (-1431789050, -6.03304354080394100000e-002) (-1431789050, -3.29530920056279930000e-001) (-1431789050, -6.21711940861703230000e-001) (-1431789050, 4.33633416019891750000e-001) (-1431789050, 2.18541548979011780000e-002) (-1431789050, 1.36342243642014240000e+000) (-1431789050, 2.81415758071012990000e-001) (-1431789050, 5.86450183061530960000e-001) (-1431789050, -4.99178342833412390000e-001) (-1431789050, 1.19791161931233560000e+000) (-1431789050, -2.70931911690380720000e-001) (-1431789050, 1.32018213782687610000e+000) (-1431789050, 9.15994308895444090000e-001) (-1431789050, -9.48946039800865340000e-001) (-1431789050, 5.40185469430423450000e-001) (-1431789050, -6.58128492309595470000e-001) (-1431789050, 9.57015844489141120000e-001) (-1431789050, -7.62387184491802540000e-001) (-1431789050, 7.60591672671253050000e-001) (-1431789050, -3.31007360575311100000e-001) (-1431789050, -8.53862125466644420000e-001) (-1431789050, -3.35046445703546860000e-001) (-1431789050, -7.13525691232563820000e-001) (-1431789050, 5.91252427119350960000e-002) (-1431789050, -6.71052332100440800000e-001) (-1431789050, 6.85576777769508070000e-002) (-1431789050, 8.11631930402127110000e-001) (-1431789050, 7.30561786469153540000e-002) (-1431789050, -6.35601454412211970000e-002) (-1431789050, -1.09489520966607780000e+000) (-1431789050, -5.66029623803737670000e-002) (-1431789050, 6.70893558185885470000e-002) (-1431789050, -4.80604432167395120000e-001) (-1431789050, -1.80683541775768840000e-001) (-1431789050, -1.15986723651907320000e+000) (-1431789050, 2.33091392612424120000e-001) (-1431789050, 4.39918167121670980000e-001) (-1431789050, -7.23509261120661720000e-002) (-1431789050, 8.13298138981557890000e-001) (-1431789050, -7.92814123296483150000e-001) (-1431789050, -5.87669575568973810000e-001) (-1431789050, 2.23078943209447060000e+000) (-1431789050, -3.93267618376137110000e-001) (-1431789050, 5.25102523266793080000e-001) (-1431789050, 7.06749662502853200000e-001) (-1431789050, 4.97036988328765190000e-001) (-1431789050, 1.29027580926619290000e-002) (-1431789050, -2.41201245284229370000e-002) (-1431789050, -4.15356141319632580000e-002) (-1431789050, -7.59751181495941790000e-002) (-1431789050, 3.92005428718003370000e-001) (-1431789050, 3.61385029303838760000e-001) (-1431789050, -3.15001010755622370000e-001) (-1431789050, 6.62162270964918420000e-001) (-1431789050, -1.84574396752876760000e-001) (-1431789050, -1.52542746833269960000e+000) (-1431789050, 1.53986249921124910000e+000) (-1431789050, -1.79845778723838940000e-001) (-1431789050, 5.59386954865492000000e-002) (-1431789050, 4.95935910165820280000e-001) (-1431789050, -2.70029661374573180000e-001) (-1431789050, -1.35496928390462120000e+000) (-1431789050, 9.48334134306056950000e-001) (-1431789050, 2.09747702321322640000e-001) (-1431789050, 1.33129813562060510000e+000) (-1431789050, -3.83937393815150190000e-001) (-1431789050, -3.64314036517146440000e-001) (-1431789050, 3.88186273612580570000e-001) (-1431789050, 1.06592663162954120000e-002) (-1431789050, 8.33680607315368860000e-001) (-1431789050, 5.32160637095632880000e-001) (-1431789050, -1.01296002709182690000e+000) (-1431789050, 9.49203621183686290000e-002) (-1431789050, -1.90309653173572210000e-001) (-1431789050, 5.27302015318134810000e-001) (-1431789050, 1.25581762734355820000e+000) (-1431789050, -3.40254602038857050000e-001) (-1431789050, -2.47623823736813350000e-001) (-1431789050, 8.81929218142110560000e-001) (-1431789050, -2.32917936280464370000e-001) (-1431789050, 1.14189437026890640000e+000) (-1431789050, 2.74448206680962760000e-001) (-1431789050, -6.34964771690238240000e-001) (-1431789050, -3.03668482411013680000e-001) (-1431789050, -5.34850364987233820000e-001) (-1431789050, 3.39906238415567330000e-001) (-1431789050, 1.48241979860205990000e-001) (-1431789050, 2.82492227851062700000e-001) (-1431789050, -3.07626423049386370000e-002) (-1431789050, -6.83135869332697990000e-001) (-1431789050, -1.57526682774813770000e-001) (-1431789050, -1.13744321732388850000e-001) (-1431789050, 1.56480111970863030000e-001) (-1431789050, 2.10082463292593770000e+000) (-1431789050, 1.30732312517253350000e+000) (-1431789050, 2.23900969823495320000e+000) (-1431789050, -7.69678636905338890000e-001) (-1431789050, 9.77575608828519350000e-001) (-1431789050, 2.62145529329338340000e+000) (-1431789050, 1.65905104590813840000e-001) (-1431789050, 3.73080703148864770000e-001) (-1431789050, -8.41951830537686910000e-002) (-1431789050, 1.02182954421184370000e+000) (-1431789050, -4.64178272532670850000e-001) (-1431789050, 1.03185925547415320000e+000) (-1431789050, -8.30718181820120580000e-001) (-1431789050, 2.38112235096965330000e+000) (-1431789050, 1.13575331352634490000e+000) (-1431789050, 3.07093280424224180000e-001) (-1431789050, 7.64008874609513610000e-001) (-1431789050, -1.01707162115961740000e+000) (-1431789050, -4.71594051865497190000e-001) (-1431789050, 3.02517353603207250000e-001) (-1431789050, 7.54930111036512200000e-001) (-1431789050, 9.90932941012344410000e-001) (-1431789050, -9.25761702472071460000e-001) (-1431789050, 9.40841836948301480000e-001) (-1431789050, 1.48930432339449710000e-002) (-1431789050, 5.45398103109646980000e-001) (-1431789050, 1.17306899875982680000e+000) (-1431789050, -3.08946889371373600000e-001) (-1431789050, -9.11984606847723450000e-002) (-1431789050, 4.80248341356220470000e-001) (-1431789050, 4.50524876557518380000e-001) (-1431789050, 2.25246371479907070000e+000) (-1431789050, -1.43345875214803150000e+000) (-1431789050, 9.08696386704519800000e-001) (-1431789050, 1.11190252716322280000e+000) (-1431789050, 3.47308973699750560000e-001) (-1431789050, 4.33447679806279680000e-001) (-1431789050, 1.76675404357879290000e-001) (-1431789050, 5.48120408469783270000e-001) (-1431789050, -4.75633902827001850000e-001) (-1431789050, -7.75043491521234080000e-001) (-1431789050, 1.28118829651482380000e+000) (-1431789050, -7.26792683901669840000e-001) (-1431789050, -3.08364076792906560000e-001) (-1431789050, 5.11380956374924760000e-001) (-1431789050, 6.21978612803207940000e-002) (-1431789050, 1.93794513307486890000e+000) (-1431789050, 4.36205907317158580000e-001) (-1431789050, 1.28243125361904380000e-001) (-1431789050, 1.66701420408228300000e-001) (-1431789050, 8.03218523902276660000e-001) (-1431789050, 2.55247167393366680000e+000) (-1431789050, -1.41692861519452420000e+000) (-1431789050, 6.40426908430438590000e-001) (-1431789050, -7.52767853439986650000e-001) (-1431789050, -6.93700016021285000000e-002) (-1431789050, 1.86874678967070280000e+000) (-1431789050, -2.05725937258074380000e+000) (-1431789050, 1.20000554369729080000e-001) (-1431789050, 5.56637744908975660000e-001) (-1431789050, 8.98435240520138350000e-001) (-1431789050, 1.14001637279083350000e+000) (-1431789050, -9.30947838500186140000e-001) (-1431789050, 9.82521605066298600000e-001) (-1431789050, -6.18816843409462860000e-001) (-1431789050, 8.20087622631289870000e-001) (-1431789050, 1.08846399194004070000e+000) (-1431789050, 2.70444276461453250000e-001) (-1431789050, 9.17690667658024540000e-001) (-1431789050, 6.84995057868917900000e-001) (-1431789050, 3.75677767277052490000e-001) (-1431789050, 5.35944124892192120000e-001) (-1431789050, -1.05358455934996260000e+000) (-1431789050, 9.40962211102608690000e-001) (-1431789050, 7.13705120686860650000e-001) (-1431789050, 8.32774266293269780000e-001) (-1431789050, 8.90744202500357240000e-001) (-1431789050, 4.17753830889039220000e-001) (-1431789050, -2.56380444667983870000e-002) (-1431789050, 7.86705613523042690000e-001) (-1431789050, -7.00593709142606630000e-002) (-1431789050, -3.72901499258550980000e-001) (-1431789050, -1.52795713370783020000e+000) (-1431789050, 1.41058774459095520000e+000) (-1431789050, 7.19988223574711150000e-001) (-1431789050, -1.96064452866114100000e-001) (-1431789050, 1.01703901039365060000e+000) (-1431789050, -9.07028642713585630000e-001) (-1431789050, 1.23250496996700440000e-002) (-1431789050, -7.57238169492479130000e-001) (-1431789050, -3.62244705132695120000e-002) (-1431789050, 4.91376387917821620000e-001) (-1431789050, -6.02259825473080210000e-001) (-1431789050, 3.62753586810668270000e-001) (-1431789050, 6.27299932279311300000e-002) (-1431789050, -2.14044341243256770000e-001) (-1431789050, 1.05608099265228520000e+000) (-1431789050, -1.19222923585571290000e+000) (-1431789050, 6.86096529273846350000e-001) (-1431789050, -8.05780972915940310000e-001) (-1431789050, -1.87577361562020650000e-001) (-1431789050, 9.11749668124078760000e-001) (-1431789050, -2.10838987146595120000e+000) (-1431789050, -5.23509190852903590000e-001) (-1431789050, 7.37875149770130470000e-001) (-1431789050, 2.42544448250838870000e-001) (-1431789050, 8.21432274811935040000e-001) (-1431789050, -7.02578166794589950000e-001) (-1431789050, -3.00408906697256640000e-002) (-1431789050, 3.76214848584918220000e-001) (-1431789050, 1.20324878252532800000e+000) (-1431789050, 1.61433757492044490000e+000) (-1431789050, -5.16018408910300710000e-001) (-1431789050, 8.00549410908936390000e-001) (-1431789050, -4.01949296351366000000e-001) (-1431789050, -5.54093606160859900000e-001) (-1431789050, 2.06220251940768230000e+000) (-1431789050, -7.18826998850860770000e-001) (-1431789050, 5.24053055363432050000e-001) (-1431789050, 7.70904538556189340000e-001) (-1431789050, 4.75305424267728590000e-001) (-1431789050, 1.20406405207179090000e+000) (-1431789050, 1.12720102485478520000e+000) (-1431789050, -7.28125864032489690000e-001) (-1431789050, 1.21901527710139530000e-002) (-1431789050, 3.24145571331060140000e-001) (-1431789050, 1.53842883307334220000e+000) (-1431789050, 7.79598471642280130000e-001) (-1431789050, -4.57876775633432820000e-001) (-1431789050, 5.93325833728063470000e-001) (-1431789050, -3.14754209973168110000e-001) (-1431789050, 5.20570861944505640000e-001) (-1431789050, -3.81362913476479220000e-001) (-1431789050, -2.09811886433932310000e-001) (-1431789050, -3.79699007312824130000e-001) (-1431789050, 1.12587169419385670000e+000) (-1431789050, 1.60522017701804540000e+000) (-1431789050, 1.55927356448924550000e-001) (-1431789050, -1.38189632042281190000e+000) (-1431789050, 1.84061791882533710000e+000) (-1431789050, 5.31560545525128440000e-001) (-1431789050, -6.64656521580002390000e+000) (-1431789050, 2.03450106185074550000e+000) (-1431789050, 5.36651814262163460000e-001) (-1431789050, -2.90447214672934930000e+000) (-1431789050, 2.02068152761301260000e+000) (-1431789050, 3.32651479982000560000e-001) (-1431789050, 5.13938997646001150000e-001) (-1431789050, 