FANN_FLO_2.1
num_layers=3
learning_rate=0.700000
connection_rate=1.000000
network_type=0
learning_momentum=0.000000
training_algorithm=3
train_error_function=0
train_stop_function=0
cascade_output_change_fraction=0.010000
quickprop_decay=-0.000100
quickprop_mu=1.750000
rprop_increase_factor=1.200000
rprop_decrease_factor=0.500000
rprop_delta_min=0.000000
rprop_delta_max=50.000000
rprop_delta_zero=0.100000
cascade_output_stagnation_epochs=12
cascade_candidate_change_fraction=0.010000
cascade_candidate_stagnation_epochs=12
cascade_max_out_epochs=150
cascade_min_out_epochs=50
cascade_max_cand_epochs=150
cascade_min_cand_epochs=50
cascade_num_candidate_groups=2
bit_fail_limit=3.49999994039535520000e-001
cascade_candidate_limit=1.00000000000000000000e+003
cascade_weight_multiplier=4.00000005960464480000e-001
cascade_activation_functions_count=10
cascade_activation_functions=3 5 7 8 10 11 14 15 16 17 
cascade_activation_steepnesses_count=4
cascade_activation_steepnesses=2.50000000000000000000e-001 5.00000000000000000000e-001 7.50000000000000000000e-001 1.00000000000000000000e+000 
layer_sizes=126 62 4 
scale_included=0
neurons (num_inputs, activation_function, activation_steepness)=(0, 0, 0.00000000000000000000e+000) (0, 0, 0.00000000000000000000e+000) (0, 0, 0.00000000000000000000e+000) (0, 0, 0.00000000000000000000e+000) (0, 0, 0.00000000000000000000e+000) (0, 0, 0.00000000000000000000e+000) (0, 0, 0.00000000000000000000e+000) (0, 0, 0.00000000000000000000e+000) (0, 0, 0.00000000000000000000e+000) (0, 0, 0.00000000000000000000e+000) (0, 0, 0.00000000000000000000e+000) (0, 0, 0.00000000000000000000e+000) (0, 0, 0.00000000000000000000e+000) (0, 0, 0.00000000000000000000e+000) (0, 0, 0.00000000000000000000e+000) (0, 0, 0.00000000000000000000e+000) (0, 0, 0.00000000000000000000e+000) (0, 0, 0.00000000000000000000e+000) (0, 0, 0.00000000000000000000e+000) (0, 0, 0.00000000000000000000e+000) (0, 0, 0.00000000000000000000e+000) (0, 0, 0.00000000000000000000e+000) (0, 0, 0.00000000000000000000e+000) (0, 0, 0.00000000000000000000e+000) (0, 0, 0.00000000000000000000e+000) (0, 0, 0.00000000000000000000e+000) (0, 0, 0.00000000000000000000e+000) (0, 0, 0.00000000000000000000e+000) (0, 0, 0.00000000000000000000e+000) (0, 0, 0.00000000000000000000e+000) (0, 0, 0.00000000000000000000e+000) (0, 0, 0.00000000000000000000e+000) (0, 0, 0.00000000000000000000e+000) (0, 0, 0.00000000000000000000e+000) (0, 0, 0.00000000000000000000e+000) (0, 0, 0.00000000000000000000e+000) (0, 0, 0.00000000000000000000e+000) (0, 0, 0.00000000000000000000e+000) (0, 0, 0.00000000000000000000e+000) (0, 0, 0.00000000000000000000e+000) (0, 0, 0.00000000000000000000e+000) (0, 0, 0.00000000000000000000e+000) (0, 0, 0.00000000000000000000e+000) (0, 0, 0.00000000000000000000e+000) (0, 0, 0.00000000000000000000e+000) (0, 0, 0.00000000000000000000e+000) (0, 0, 0.00000000000000000000e+000) (0, 0, 0.00000000000000000000e+000) (0, 0, 0.00000000000000000000e+000) (0, 0, 0.00000000000000000000e+000) (0, 0, 0.00000000000000000000e+000) (0, 0, 0.00000000000000000000e+000) (0, 0, 0.00000000000000000000e+000) (0, 0, 0.00000000000000000000e+000) (0, 0, 0.00000000000000000000e+000) (0, 0, 0.00000000000000000000e+000) (0, 0, 0.00000000000000000000e+000) (0, 0, 0.00000000000000000000e+000) (0, 0, 0.00000000000000000000e+000) (0, 0, 0.00000000000000000000e+000) (0, 0, 0.00000000000000000000e+000) (0, 0, 0.00000000000000000000e+000) (0, 0, 0.00000000000000000000e+000) (0, 0, 0.00000000000000000000e+000) (0, 0, 0.00000000000000000000e+000) (0, 0, 0.00000000000000000000e+000) (0, 0, 0.00000000000000000000e+000) (0, 0, 0.00000000000000000000e+000) (0, 0, 0.00000000000000000000e+000) (0, 0, 0.00000000000000000000e+000) (0, 0, 0.00000000000000000000e+000) (0, 0, 0.00000000000000000000e+000) (0, 0, 0.00000000000000000000e+000) (0, 0, 0.00000000000000000000e+000) (0, 0, 0.00000000000000000000e+000) (0, 0, 0.00000000000000000000e+000) (0, 0, 0.00000000000000000000e+000) (0, 0, 0.00000000000000000000e+000) (0, 0, 0.00000000000000000000e+000) (0, 0, 0.00000000000000000000e+000) (0, 0, 0.00000000000000000000e+000) (0, 0, 0.00000000000000000000e+000) (0, 0, 0.00000000000000000000e+000) (0, 0, 0.00000000000000000000e+000) (0, 0, 0.00000000000000000000e+000) (0, 0, 0.00000000000000000000e+000) (0, 0, 0.00000000000000000000e+000) (0, 0, 0.00000000000000000000e+000) (0, 0, 0.00000000000000000000e+000) (0, 0, 0.00000000000000000000e+000) (0, 0, 0.00000000000000000000e+000) (0, 0, 0.00000000000000000000e+000) (0, 0, 0.00000000000000000000e+000) (0, 0, 0.00000000000000000000e+000) (0, 0, 0.00000000000000000000e+000) (0, 0, 0.00000000000000000000e+000) (0, 0, 0.00000000000000000000e+000) (0, 0, 0.00000000000000000000e+000) (0, 0, 0.00000000000000000000e+000) (0, 0, 0.00000000000000000000e+000) (0, 0, 0.00000000000000000000e+000) (0, 0, 0.00000000000000000000e+000) (0, 0, 0.00000000000000000000e+000) (0, 0, 0.00000000000000000000e+000) (0, 0, 0.00000000000000000000e+000) (0, 0, 0.00000000000000000000e+000) (0, 0, 0.00000000000000000000e+000) (0, 0, 0.00000000000000000000e+000) (0, 0, 0.00000000000000000000e+000) (0, 0, 0.00000000000000000000e+000) (0, 0, 0.00000000000000000000e+000) (0, 0, 0.00000000000000000000e+000) (0, 0, 0.00000000000000000000e+000) (0, 0, 0.00000000000000000000e+000) (0, 0, 0.00000000000000000000e+000) (0, 0, 0.00000000000000000000e+000) (0, 0, 0.00000000000000000000e+000) (0, 0, 0.00000000000000000000e+000) (0, 0, 0.00000000000000000000e+000) (0, 0, 0.00000000000000000000e+000) (0, 0, 0.00000000000000000000e+000) (0, 0, 0.00000000000000000000e+000) (0, 0, 0.00000000000000000000e+000) (0, 0, 0.00000000000000000000e+000) (0, 0, 0.00000000000000000000e+000) (0, 0, 0.00000000000000000000e+000) (126, 6, 5.00000000000000000000e-001) (126, 6, 5.00000000000000000000e-001) (126, 6, 5.00000000000000000000e-001) (126, 6, 5.00000000000000000000e-001) (126, 6, 5.00000000000000000000e-001) (126, 6, 5.00000000000000000000e-001) (126, 6, 5.00000000000000000000e-001) (126, 6, 5.00000000000000000000e-001) (126, 6, 5.00000000000000000000e-001) (126, 6, 5.00000000000000000000e-001) (126, 6, 5.00000000000000000000e-001) (126, 6, 5.00000000000000000000e-001) (126, 6, 5.00000000000000000000e-001) (126, 6, 5.00000000000000000000e-001) (126, 6, 5.00000000000000000000e-001) (126, 6, 5.00000000000000000000e-001) (126, 6, 5.00000000000000000000e-001) (126, 6, 5.00000000000000000000e-001) (126, 6, 5.00000000000000000000e-001) (126, 6, 5.00000000000000000000e-001) (126, 6, 5.00000000000000000000e-001) (126, 6, 5.00000000000000000000e-001) (126, 6, 5.00000000000000000000e-001) (126, 6, 5.00000000000000000000e-001) (126, 6, 5.00000000000000000000e-001) (126, 6, 5.00000000000000000000e-001) (126, 6, 5.00000000000000000000e-001) (126, 6, 5.00000000000000000000e-001) (126, 6, 5.00000000000000000000e-001) (126, 6, 5.00000000000000000000e-001) (126, 6, 5.00000000000000000000e-001) (126, 6, 5.00000000000000000000e-001) (126, 6, 5.00000000000000000000e-001) (126, 6, 5.00000000000000000000e-001) (126, 6, 5.00000000000000000000e-001) (126, 6, 5.00000000000000000000e-001) (126, 6, 5.00000000000000000000e-001) (126, 6, 5.00000000000000000000e-001) (126, 6, 5.00000000000000000000e-001) (126, 6, 5.00000000000000000000e-001) (126, 6, 5.00000000000000000000e-001) (126, 6, 5.00000000000000000000e-001) (126, 6, 5.00000000000000000000e-001) (126, 6, 5.00000000000000000000e-001) (126, 6, 5.00000000000000000000e-001) (126, 6, 5.00000000000000000000e-001) (126, 6, 5.00000000000000000000e-001) (126, 6, 5.00000000000000000000e-001) (126, 6, 5.00000000000000000000e-001) (126, 6, 5.00000000000000000000e-001) (126, 6, 5.00000000000000000000e-001) (126, 6, 5.00000000000000000000e-001) (126, 6, 5.00000000000000000000e-001) (126, 6, 5.00000000000000000000e-001) (126, 6, 5.00000000000000000000e-001) (126, 6, 5.00000000000000000000e-001) (126, 6, 5.00000000000000000000e-001) (126, 6, 5.00000000000000000000e-001) (126, 6, 5.00000000000000000000e-001) (126, 6, 5.00000000000000000000e-001) (126, 6, 5.00000000000000000000e-001) (0, 6, 5.00000000000000000000e-001) (62, 14, 5.00000000000000000000e-001) (62, 14, 5.00000000000000000000e-001) (62, 14, 5.00000000000000000000e-001) (0, 14, 5.00000000000000000000e-001) 
connections (connected_to_neuron, weight)=(0, 3.10014039278030400000e-002) (1, -6.73781409859657290000e-002) (2, -7.29667469859123230000e-002) (3, 6.35401112958788870000e-003) (4, -5.30282929539680480000e-002) (5, 9.42547991871833800000e-003) (6, 8.06625112891197200000e-002) (7, -5.46708405017852780000e-002) (8, -7.32977986335754390000e-002) (9, 7.15820714831352230000e-002) (10, 4.46549728512763980000e-002) (11, 5.39832264184951780000e-002) (12, -2.54515595734119420000e-002) (13, -6.67810142040252690000e-002) (14, 4.69007752835750580000e-002) (15, 7.33807962387800220000e-003) (16, -1.46700702607631680000e-002) (17, -3.16291116178035740000e-002) (18, -4.95333746075630190000e-002) (19, 1.38352839276194570000e-002) (20, -9.03914049267768860000e-002) (21, -4.46615694090723990000e-003) (22, -9.03543159365653990000e-002) (23, -5.78882731497287750000e-002) (24, 9.90965813398361210000e-002) (25, 5.35783097147941590000e-002) (26, -7.68729001283645630000e-002) (27, 7.16388374567031860000e-002) (28, 5.16698919236660000000e-002) (29, -6.58938614651560780000e-003) (30, -2.95149404555559160000e-002) (31, 6.28119409084320070000e-002) (32, 9.71419923007488250000e-003) (33, -1.92207321524620060000e-002) (34, 3.21357846260070800000e-002) (35, -9.03120562434196470000e-002) (36, -1.81569959968328480000e-002) (37, 3.71138677000999450000e-002) (38, 6.18570931255817410000e-002) (39, 4.91118766367435460000e-002) (40, -7.16963335871696470000e-002) (41, 6.62067234516143800000e-002) (42, 1.60074159502983090000e-002) (43, -2.87454687058925630000e-002) (44, 5.61817176640033720000e-002) (45, -2.06221193075180050000e-002) (46, -4.11645621061325070000e-002) (47, -9.02054235339164730000e-002) (48, -5.32451719045639040000e-002) (49, -5.82422316074371340000e-002) (50, 3.48832458257675170000e-002) (51, -9.29014012217521670000e-002) (52, 6.62708580493927000000e-002) (53, -6.32632747292518620000e-002) (54, -9.59755256772041320000e-002) (55, -8.03816393017768860000e-002) (56, -6.84288814663887020000e-002) (57, 7.46404975652694700000e-002) (58, 1.24891502782702450000e-002) (59, 3.45384590327739720000e-002) (60, -2.83613782376050950000e-002) (61, -7.68256234005093570000e-003) (62, 9.93214771151542660000e-002) (63, 4.57618609070777890000e-002) (64, -7.13615119457244870000e-002) (65, 5.93705438077449800000e-002) (66, 6.16761110723018650000e-002) (67, 6.37676790356636050000e-002) (68, 2.41200327873229980000e-002) (69, -8.99781212210655210000e-002) (70, 6.90629184246063230000e-002) (71, -4.22436892986297610000e-002) (72, -6.21229968965053560000e-002) (73, 1.41896517015993600000e-003) (74, 1.98255199939012530000e-002) (75, -4.77129453793168070000e-003) (76, -2.56192646920681000000e-002) (77, -8.10608267784118650000e-002) (78, 1.64234098047018050000e-002) (79, 4.70633096992969510000e-002) (80, -4.36995103955268860000e-002) (81, 8.28569531440734860000e-002) (82, -4.46836017072200780000e-002) (83, -8.94308462738990780000e-002) (84, -1.19356168434023860000e-002) (85, 6.50529116392135620000e-002) (86, 6.02237693965435030000e-002) (87, -8.15150141716003420000e-002) (88, 1.64712332189083100000e-002) (89, -6.13044165074825290000e-002) (90, -5.82197755575180050000e-002) (91, -5.66412210464477540000e-002) (92, -6.58744946122169490000e-002) (93, 5.96349760890007020000e-002) (94, -1.62944495677948000000e-002) (95, 4.79142479598522190000e-002) (96, -9.57530066370964050000e-002) (97, 1.03339925408363340000e-001) (98, 2.72232349961996080000e-002) (99, 6.31134957075119020000e-002) (100, -5.99409714341163640000e-002) (101, -9.35738980770111080000e-002) (102, -4.73003610968589780000e-002) (103, -6.34615942835807800000e-002) (104, -1.11513398587703700000e-002) (105, 2.64603886753320690000e-002) (106, 8.39842557907104490000e-002) (107, -7.31386765837669370000e-002) (108, -5.77421672642230990000e-002) (109, -5.93900680541992190000e-002) (110, 1.02827563881874080000e-001) (111, 4.47400137782096860000e-002) (112, 2.22221389412879940000e-002) (113, -1.80499833077192310000e-002) (114, -3.08877304196357730000e-002) (115, 1.01417653262615200000e-001) (116, -8.27114507555961610000e-002) (117, -6.22288957238197330000e-002) (118, -7.87936747074127200000e-002) (119, -6.26031756401062010000e-002) (120, 7.61273736134171490000e-003) (121, -4.13754731416702270000e-002) (122, 5.54447099566459660000e-002) (123, -2.09176074713468550000e-002) (124, 2.34983619302511220000e-002) (125, 2.10340004414319990000e-002) (0, -9.30309668183326720000e-002) (1, 9.27150025963783260000e-002) (2, 6.01292997598648070000e-002) (3, -3.88486161828041080000e-002) (4, 2.60422024875879290000e-002) (5, 7.28137567639350890000e-002) (6, -9.25653204321861270000e-002) (7, 8.62276628613471980000e-002) (8, -4.81996648013591770000e-002) (9, -8.90278965234756470000e-002) (10, -3.98266166448593140000e-002) (11, -2.22684442996978760000e-002) (12, 9.33710932731628420000e-002) (13, -6.91689997911453250000e-002) (14, -9.11170467734336850000e-002) (15, 5.33801689743995670000e-002) (16, 6.37980774044990540000e-002) (17, -4.01305705308914180000e-002) (18, -8.05230345577001570000e-003) (19, -5.98048381507396700000e-002) (20, 2.86548268049955370000e-002) (21, 9.49978530406951900000e-002) (22, 3.28442407771945000000e-003) (23, -7.35866576433181760000e-002) (24, 1.62200257182121280000e-002) (25, 4.47742119431495670000e-002) (26, -2.85647343844175340000e-002) (27, -7.00373053550720210000e-002) (28, -1.26531487330794330000e-002) (29, 8.42739418148994450000e-002) (30, 6.91089257597923280000e-002) (31, -2.60300170630216600000e-002) (32, -8.45083445310592650000e-002) (33, 9.19980555772781370000e-002) (34, -3.38925532996654510000e-002) (35, 3.25199728831648830000e-003) (36, 3.97666245698928830000e-002) (37, -3.82373039610683920000e-003) (38, 6.76843225955963130000e-002) (39, -6.92620649933815000000e-002) (40, -9.83166173100471500000e-002) (41, 6.75194337964057920000e-002) (42, -5.59967719018459320000e-002) (43, 3.00219114869832990000e-002) (44, 2.90814042091369630000e-002) (45, -5.70751503109931950000e-002) (46, -4.13611009716987610000e-002) (47, 5.48835098743438720000e-002) (48, -4.17503900825977330000e-002) (49, -7.88018032908439640000e-002) (50, -4.12975624203681950000e-002) (51, -3.09910029172897340000e-002) (52, -4.98009994626045230000e-002) (53, 9.45778265595436100000e-002) (54, -5.82465380430221560000e-002) (55, 2.29907669126987460000e-002) (56, 5.93413598835468290000e-002) (57, -5.18202930688858030000e-002) (58, 3.77316847443580630000e-002) (59, -3.06866690516471860000e-002) (60, 6.67285546660423280000e-002) (61, -3.93517948687076570000e-002) (62, 1.41538782045245170000e-002) (63, 2.77278069406747820000e-002) (64, 4.32280935347080230000e-002) (65, -8.33247415721416470000e-003) (66, 1.16258356720209120000e-002) (67, 8.60911607742309570000e-002) (68, -6.94037824869155880000e-002) (69, 9.89087149500846860000e-002) (70, 7.10193291306495670000e-002) (71, -8.39960202574729920000e-002) (72, -1.69535240274854000000e-004) (73, 4.61120158433914180000e-002) (74, 6.99687376618385310000e-002) (75, 4.18506264686584470000e-002) (76, -5.80658838152885440000e-002) (77, 3.63393537700176240000e-002) (78, -9.53097641468048100000e-002) (79, -4.51619327068328860000e-002) (80, 3.88676300644874570000e-003) (81, -9.82056632637977600000e-002) (82, 2.85107418894767760000e-002) (83, -1.61960422992706300000e-002) (84, 3.68350893259048460000e-002) (85, 3.68701592087745670000e-002) (86, -5.24562597274780270000e-002) (87, 7.81407393515110020000e-003) (88, -5.57573176920413970000e-002) (89, 1.68411675840616230000e-002) (90, -5.55797889828681950000e-002) (91, 8.71163159608840940000e-002) (92, 8.63215923309326170000e-002) (93, 6.53419718146324160000e-002) (94, -6.13690391182899480000e-002) (95, -4.10290099680423740000e-002) (96, 9.87957790493965150000e-002) (97, 8.17561347503215070000e-004) (98, 2.67872717231512070000e-002) (99, -2.02006418257951740000e-002) (100, 4.05994057655334470000e-002) (101, -3.41645907610654830000e-003) (102, -9.37771499156951900000e-002) (103, -6.62239417433738710000e-002) (104, 3.16429957747459410000e-002) (105, -5.71789108216762540000e-002) (106, 9.23938974738121030000e-002) (107, -1.45122921094298360000e-002) (108, -2.64866799116134640000e-002) (109, 4.70822528004646300000e-002) (110, 9.19665917754173280000e-002) (111, -3.68440859019756320000e-002) (112, 7.15868361294269560000e-003) (113, -5.89963458478450780000e-002) (114, -5.50629086792469020000e-002) (115, 6.89579639583826070000e-003) (116, 6.75307065248489380000e-002) (117, 2.29939613491296770000e-002) (118, -2.28058230131864550000e-002) (119, 7.33306705951690670000e-002) (120, -5.40478080511093140000e-002) (121, 7.10946917533874510000e-002) (122, 6.91371932625770570000e-002) (123, 1.09970569610595700000e-002) (124, -7.42085278034210210000e-002) (125, -6.45457301288843150000e-003) (0, 4.78165671229362490000e-002) (1, -1.04050729423761370000e-002) (2, 8.13213586807250980000e-002) (3, -1.78554095327854160000e-002) (4, 7.12459683418273930000e-002) (5, -4.58052530884742740000e-002) (6, -2.21932423301041130000e-003) (7, 7.00896456837654110000e-002) (8, 9.05687883496284480000e-002) (9, 7.96726718544960020000e-002) (10, -4.27779108285903930000e-002) (11, -8.56365039944648740000e-002) (12, 6.13885093480348590000e-003) (13, -6.33574277162551880000e-002) (14, -5.57368434965610500000e-002) (15, -3.93965616822242740000e-002) (16, -2.50146898906677960000e-004) (17, -9.53139066696166990000e-002) (18, -4.69720102846622470000e-002) (19, -6.85680359601974490000e-002) (20, 7.60086923837661740000e-002) (21, -3.06126512587070470000e-002) (22, -8.97977128624916080000e-002) (23, -9.27771776914596560000e-002) (24, -8.46555903553962710000e-002) (25, 1.16837536916136740000e-002) (26, -7.63938277959823610000e-002) (27, -5.09394146502017970000e-003) (28, 1.75458639860153200000e-002) (29, -2.81403269618749620000e-002) (30, -6.02766908705234530000e-002) (31, -2.90913768112659450000e-002) (32, 8.87126997113227840000e-002) (33, -6.09016679227352140000e-002) (34, -3.09446230530738830000e-002) (35, 5.54947890341281890000e-002) (36, 3.18150483071804050000e-002) (37, -3.95300518721342090000e-003) (38, -9.72901210188865660000e-002) (39, 5.44859915971755980000e-002) (40, 7.29264169931411740000e-002) (41, 5.29627837240695950000e-002) (42, -7.10963681340217590000e-002) (43, -3.49422208964824680000e-002) (44, 3.50965932011604310000e-002) (45, 7.74002894759178160000e-002) (46, -4.69403937458992000000e-002) (47, -6.99276030063629150000e-002) (48, 3.08079458773136140000e-002) (49, 8.74780770391225810000e-003) (50, 7.50894937664270400000e-003) (51, 1.95080172270536420000e-002) (52, 3.25616747140884400000e-002) (53, -9.85928848385810850000e-002) (54, -8.70862007141113280000e-002) (55, -1.00370682775974270000e-001) (56, -2.48342286795377730000e-002) (57, 3.26610468327999110000e-002) (58, -8.97462666034698490000e-002) (59, -7.23349601030349730000e-002) (60, 2.58866343647241590000e-002) (61, -9.68859642744064330000e-002) (62, -2.49356534332036970000e-002) (63, 6.51361048221588130000e-002) (64, -6.58223032951354980000e-002) (65, 4.01322394609451290000e-002) (66, -8.40006098151206970000e-002) (67, -2.50482349656522270000e-003) (68, 3.04375886917114260000e-002) (69, -7.20752775669097900000e-003) (70, -5.60652650892734530000e-002) (71, 3.56177389621734620000e-002) (72, 3.48812341690063480000e-002) (73, -3.85105237364768980000e-002) (74, 7.46160298585891720000e-002) (75, -3.79317179322242740000e-002) (76, 2.90096737444400790000e-002) (77, 9.79250818490982060000e-002) (78, -1.73452645540237430000e-002) (79, 5.88445104658603670000e-002) (80, -7.43758082389831540000e-002) (81, -9.48645845055580140000e-002) (82, -7.97988325357437130000e-002) (83, 1.04881143197417260000e-002) (84, 5.04186451435089110000e-002) (85, -5.47041781246662140000e-002) (86, 9.89194288849830630000e-002) (87, -3.05717401206493380000e-002) (88, -9.58852395415306090000e-002) (89, -5.38937300443649290000e-002) (90, -7.38814249634742740000e-002) (91, 5.86888976395130160000e-002) (92, -3.50716896355152130000e-002) (93, 4.84740696847438810000e-002) (94, -4.60021048784255980000e-002) (95, -2.26424168795347210000e-002) (96, -1.48908942937850950000e-002) (97, -6.97097405791282650000e-002) (98, 6.33640363812446590000e-002) (99, 4.20584119856357570000e-002) (100, 1.85868293046951290000e-002) (101, -6.49413317441940310000e-002) (102, -9.71197430044412610000e-003) (103, 6.16518706083297730000e-002) (104, 8.97065848112106320000e-002) (105, -8.17732736468315120000e-002) (106, -9.98729243874549870000e-002) (107, 2.80283223837614060000e-002) (108, 7.48061388731002810000e-002) (109, -5.14001585543155670000e-003) (110, 9.61624979972839360000e-002) (111, 3.52005334571003910000e-003) (112, -4.50031571090221410000e-002) (113, 3.63574288785457610000e-002) (114, 2.18676701188087460000e-002) (115, -3.49104776978492740000e-002) (116, -5.83652313798666000000e-003) (117, -5.07234483957290650000e-002) (118, -2.05879788845777510000e-002) (119, 4.16612401604652400000e-002) (120, -2.01216656714677810000e-002) (121, -3.42964529991149900000e-002) (122, -2.76046469807624820000e-002) (123, 4.04533669352531430000e-002) (124, -6.39867261052131650000e-002) (125, -4.79762889444828030000e-002) (0, 7.84889832139015200000e-002) (1, -5.26531450450420380000e-002) (2, -1.91186647862195970000e-002) (3, 5.29657639563083650000e-002) (4, -6.88235685229301450000e-002) (5, 7.60719850659370420000e-002) (6, -1.87992118299007420000e-002) (7, -7.32110738754272460000e-002) (8, -8.77833552658557890000e-003) (9, -6.57038763165473940000e-002) (10, 7.87453278899192810000e-002) (11, 4.48440909385681150000e-002) (12, 1.00095823407173160000e-001) (13, -5.87547495961189270000e-002) (14, 8.83296355605125430000e-002) (15, 6.78444504737854000000e-002) (16, 3.96258421242237090000e-002) (17, -1.59190353006124500000e-002) (18, -7.94671550393104550000e-002) (19, 4.83536086976528170000e-002) (20, 2.12746281176805500000e-002) (21, 1.59340084064751860000e-003) (22, -3.39636951684951780000e-002) (23, 6.70181363821029660000e-002) (24, -5.61880171298980710000e-002) (25, -5.65408449620008470000e-003) (26, 1.26752806827425960000e-002) (27, -8.23584347963333130000e-002) (28, 3.05167492479085920000e-002) (29, -2.12727729231119160000e-002) (30, 6.85707703232765200000e-002) (31, 8.33882391452789310000e-002) (32, 3.42056937515735630000e-002) (33, -3.17703858017921450000e-002) (34, -1.57511960715055470000e-002) (35, 5.70961572229862210000e-002) (36, 2.21856683492660520000e-002) (37, 4.52121123671531680000e-002) (38, -6.84772506356239320000e-002) (39, -2.95901261270046230000e-002) (40, -2.35129687935113910000e-002) (41, 1.30763864144682880000e-002) (42, -2.28161718696355820000e-002) (43, 6.60147368907928470000e-002) (44, -5.78028075397014620000e-002) (45, -6.53342604637146000000e-002) (46, 1.75904557108879090000e-002) (47, -7.44298994541168210000e-002) (48, 3.75915728509426120000e-002) (49, -3.10529600828886030000e-002) (50, -4.67002242803573610000e-002) (51, -5.72102051228284840000e-003) (52, 1.13542964681982990000e-002) (53, 9.21930298209190370000e-002) (54, 9.22323614358901980000e-002) (55, -4.32395301759243010000e-002) (56, 6.37533664703369140000e-002) (57, 6.48148953914642330000e-002) (58, -5.82604557275772090000e-002) (59, 2.73064300417900090000e-002) (60, 6.20949380099773410000e-002) (61, 3.61881703138351440000e-002) (62, -7.37426057457923890000e-002) (63, -1.08002582564949990000e-002) (64, -1.34181128814816470000e-002) (65, -9.15139820426702500000e-003) (66, -2.54654581658542160000e-003) (67, -2.58435052819550040000e-003) (68, 1.82553175836801530000e-002) (69, -5.02580925822258000000e-002) (70, -8.45542252063751220000e-002) (71, -1.71841755509376530000e-002) (72, 5.71217462420463560000e-002) (73, 1.18832839652895930000e-002) (74, 8.97676423192024230000e-002) (75, -8.57810378074646000000e-002) (76, 8.39801281690597530000e-002) (77, 9.85582023859024050000e-002) (78, 4.04452271759510040000e-002) (79, 8.09689611196517940000e-002) (80, -2.42532556876540180000e-003) (81, 9.10831764340400700000e-002) (82, -8.30629169940948490000e-002) (83, -6.74616172909736630000e-002) (84, 6.41754195094108580000e-002) (85, 6.65566101670265200000e-002) (86, -6.17688708007335660000e-002) (87, -1.57440714538097380000e-002) (88, 9.13680940866470340000e-002) (89, 4.45476882159709930000e-002) (90, 3.86391244828701020000e-002) (91, -6.62632584571838380000e-002) (92, 1.03804618120193480000e-002) (93, 3.12605276703834530000e-002) (94, -9.81106460094451900000e-002) (95, -5.88156990706920620000e-002) (96, -1.38608505949378010000e-002) (97, -7.85685926675796510000e-002) (98, -5.15647269785404210000e-002) (99, -6.49146363139152530000e-002) (100, -1.66465155780315400000e-002) (101, 5.04555515944957730000e-002) (102, 9.38434526324272160000e-003) (103, -1.82444546371698380000e-002) (104, 2.53760274499654770000e-002) (105, 1.49923539720475670000e-003) (106, 5.68190291523933410000e-002) (107, -7.26547613739967350000e-002) (108, -4.15191054344177250000e-002) (109, -2.11230684071779250000e-002) (110, -3.30344513058662410000e-002) (111, -4.17303964495658870000e-002) (112, -9.29535254836082460000e-002) (113, 3.44009771943092350000e-002) (114, 5.61255123466253280000e-003) (115, -7.16758072376251220000e-002) (116, 3.81329581141471860000e-002) (117, 9.91582032293081280000e-003) (118, 9.55530181527137760000e-002) (119, 2.07367558032274250000e-002) (120, 6.02638833224773410000e-002) (121, 8.60275551676750180000e-002) (122, -9.42979604005813600000e-002) (123, 7.77482688426971440000e-002) (124, -4.35809022746980190000e-004) (125, 5.15208877623081210000e-002) (0, 1.37058272957801820000e-002) (1, -8.77690091729164120000e-002) (2, -4.20990139245986940000e-002) (3, 2.08655148744583130000e-002) (4, 9.83439311385154720000e-002) (5, -6.90151005983352660000e-002) (6, -3.80374900996685030000e-002) (7, 5.70967569947242740000e-002) (8, -8.04644897580146790000e-002) (9, 9.19490307569503780000e-002) (10, -5.21510951220989230000e-002) (11, 8.14825110137462620000e-003) (12, 4.25298400223255160000e-002) (13, 4.80023287236690520000e-002) (14, -1.92078519612550740000e-002) (15, -2.95986048877239230000e-002) (16, 3.67434136569499970000e-002) (17, 7.95897915959358220000e-002) (18, 3.36135141551494600000e-002) (19, 3.91861684620380400000e-002) (20, -6.26857578754425050000e-002) (21, 5.15495873987674710000e-002) (22, -3.54177132248878480000e-002) (23, 6.24267719686031340000e-002) (24, -1.25501332804560660000e-002) (25, 3.66184152662754060000e-002) (26, 8.39692205190658570000e-002) (27, 9.01780202984809880000e-002) (28, 7.51822739839553830000e-002) (29, -9.27787870168685910000e-002) (30, -7.16884434223175050000e-002) (31, -1.17923459038138390000e-002) (32, -5.39901517331600190000e-002) (33, -1.76226347684860230000e-002) (34, -7.85810872912406920000e-002) (35, -9.54067036509513850000e-002) (36, 3.52307856082916260000e-002) (37, 8.73676016926765440000e-002) (38, -1.90944597125053410000e-002) (39, -5.08516617119312290000e-002) (40, -1.91738065332174300000e-002) (41, -5.66442124545574190000e-002) (42, 8.17961338907480240000e-003) (43, 1.56501065939664840000e-002) (44, -4.40912730991840360000e-002) (45, 2.30014808475971220000e-002) (46, -5.37438876926898960000e-002) (47, -3.89824211597442630000e-002) (48, -7.73363634943962100000e-002) (49, 8.74725356698036190000e-002) (50, -7.64919146895408630000e-002) (51, -9.84202623367309570000e-002) (52, -1.80170673411339520000e-003) (53, -1.95813868194818500000e-002) (54, 7.01962411403656010000e-002) (55, 1.72031410038471220000e-002) (56, 6.71516135334968570000e-002) (57, -5.50642199814319610000e-002) (58, -4.07672412693500520000e-002) (59, -7.21608474850654600000e-002) (60, 6.73561310395598410000e-003) (61, 7.33612999320030210000e-002) (62, -8.77343118190765380000e-002) (63, 6.77772313356399540000e-002) (64, -3.60600799322128300000e-002) (65, -7.00588077306747440000e-002) (66, -4.47137244045734410000e-002) (67, -2.73379795253276820000e-002) (68, 8.54281112551689150000e-002) (69, 6.20773434638977050000e-002) (70, 3.99387292563915250000e-002) (71, -5.98029755055904390000e-002) (72, -1.09506510198116300000e-002) (73, 7.51849114894866940000e-002) (74, 2.03354135155677800000e-002) (75, -4.47353273630142210000e-002) (76, 1.49889653548598290000e-002) (77, 3.42874750494956970000e-002) (78, 3.46733964979648590000e-002) (79, 4.32879738509655000000e-002) (80, -8.02089497447013850000e-002) (81, -9.17182043194770810000e-002) (82, 3.38771641254425050000e-002) (83, -2.30802148580551150000e-002) (84, -4.61709797382354740000e-002) (85, -9.90256574004888530000e-003) (86, -5.94710856676101680000e-002) (87, -4.55659180879592900000e-002) (88, 2.28702835738658910000e-002) (89, -8.66149663925170900000e-002) (90, -4.51869852840900420000e-002) (91, 4.20412048697471620000e-003) (92, -7.70100131630897520000e-002) (93, 3.89103405177593230000e-002) (94, -2.82616773620247840000e-003) (95, -8.73866900801658630000e-002) (96, -1.51826664805412290000e-002) (97, 7.44594708085060120000e-002) (98, 3.83302718400955200000e-002) (99, -6.48916512727737430000e-002) (100, -1.06106169521808620000e-001) (101, -5.98130151629447940000e-002) (102, -4.44579422473907470000e-002) (103, -8.09128805994987490000e-002) (104, -7.59713649749755860000e-002) (105, -7.78346881270408630000e-002) (106, 9.98909398913383480000e-002) (107, -4.93833124637603760000e-002) (108, -1.20129389688372610000e-002) (109, 2.32177805155515670000e-002) (110, -3.77463712356984620000e-003) (111, -1.36589445173740390000e-002) (112, -9.33441054075956340000e-003) (113, -6.26057060435414310000e-003) (114, 5.57639189064502720000e-002) (115, -3.37428934872150420000e-002) (116, -7.77213573455810550000e-002) (117, -1.45018135663121940000e-003) (118, -3.83069813251495360000e-002) (119, -3.73761393129825590000e-002) (120, -3.65749225020408630000e-002) (121, 3.75003926455974580000e-002) (122, 5.71691505610942840000e-002) (123, -1.00423775613307950000e-001) (124, -7.05782249569892880000e-002) (125, 3.89684513211250310000e-002) (0, 2.99127660691738130000e-002) (1, 5.30578270554542540000e-002) (2, -3.50975170731544490000e-002) (3, -9.67531371861696240000e-003) (4, 2.80644483864307400000e-002) (5, 7.70441070199012760000e-002) (6, 7.68175050616264340000e-002) (7, 2.07683816552162170000e-002) (8, 7.35831633210182190000e-002) (9, 2.82850414514541630000e-002) (10, 1.63629595190286640000e-002) (11, 6.55934214591979980000e-002) (12, 5.25122210383415220000e-002) (13, 2.91575063019990920000e-002) (14, -2.77640670537948610000e-002) (15, -4.26702387630939480000e-002) (16, 2.52103735692799090000e-003) (17, 2.46808547526597980000e-002) (18, 7.64887481927871700000e-002) (19, 9.94792804121971130000e-002) (20, -1.85674596577882770000e-002) (21, -3.35723906755447390000e-002) (22, -3.94053198397159580000e-002) (23, 7.71830007433891300000e-002) (24, 9.78844463825225830000e-002) (25, 5.96256880089640620000e-003) (26, 6.80481866002082820000e-002) (27, -7.38342627882957460000e-002) (28, 8.13497975468635560000e-002) (29, -5.28965443372726440000e-002) (30, 8.18780958652496340000e-002) (31, 4.53647039830684660000e-002) (32, 5.20262643694877620000e-002) (33, 1.14654339849948880000e-002) (34, 8.95566716790199280000e-002) (35, -1.51739045977592470000e-002) (36, 5.30278794467449190000e-002) (37, 5.29012009501457210000e-002) (38, -8.27940553426742550000e-002) (39, 6.96360133588314060000e-003) (40, -5.17217554152011870000e-002) (41, 5.63695542514324190000e-002) (42, -5.97648993134498600000e-002) (43, -7.20300599932670590000e-002) (44, -3.76263819634914400000e-002) (45, 2.42253020405769350000e-003) (46, -1.43678560853004460000e-002) (47, 2.18905694782733920000e-002) (48, -5.83548136055469510000e-002) (49, 4.61617112159729000000e-002) (50, -2.20159459859132770000e-002) (51, 7.70337730646133420000e-002) (52, 9.60403233766555790000e-002) (53, -3.38574908673763280000e-002) (54, 5.51398880779743190000e-002) (55, -6.78899660706520080000e-002) (56, 8.54817554354667660000e-002) (57, -8.24161618947982790000e-002) (58, 8.31384509801864620000e-002) (59, 9.29430946707725520000e-002) (60, -4.81695085763931270000e-002) (61, 2.79745869338512420000e-002) (62, -1.92082878202199940000e-002) (63, 3.46366874873638150000e-002) (64, 7.53352269530296330000e-002) (65, 1.26825394108891490000e-002) (66, -3.41532602906227110000e-002) (67, 7.37486779689788820000e-002) (68, -6.75113275647163390000e-002) (69, 6.27723336219787600000e-002) (70, 7.57928863167762760000e-002) (71, -1.44526839721947910000e-003) (72, -8.31176489591598510000e-002) (73, 5.73135539889335630000e-002) (74, -9.10937413573265080000e-003) (75, 8.46612975001335140000e-002) (76, -1.50568056851625440000e-002) (77, 3.90136502683162690000e-002) (78, -1.34811457246541980000e-002) (79, -1.02903519291430710000e-003) (80, -7.09905549883842470000e-002) (81, -1.49905467405915260000e-002) (82, -7.26809576153755190000e-002) (83, 9.28188562393188480000e-002) (84, -4.35993894934654240000e-002) (85, -4.33782488107681270000e-002) (86, -8.67325291037559510000e-002) (87, 7.56413340568542480000e-002) (88, 4.98590134084224700000e-002) (89, -2.35079918056726460000e-002) (90, 3.24762426316738130000e-002) (91, -5.25177456438541410000e-002) (92, 7.46599212288856510000e-002) (93, -1.32041610777378080000e-002) (94, -5.28566129505634310000e-002) (95, -7.23028108477592470000e-002) (96, 8.88314768671989440000e-002) (97, -7.42424502968788150000e-002) (98, 3.95810939371585850000e-002) (99, -2.42083296179771420000e-002) (100, -3.55535410344600680000e-002) (101, 5.84576576948165890000e-002) (102, -6.77789896726608280000e-002) (103, -9.09477248787879940000e-002) (104, 9.48287397623062130000e-002) (105, -6.05657473206520080000e-002) (106, 9.04732644557952880000e-002) (107, 4.98790806159377100000e-003) (108, -3.48463021218776700000e-002) (109, 6.12511001527309420000e-002) (110, 6.26764371991157530000e-002) (111, 7.17678219079971310000e-002) (112, 4.97529841959476470000e-002) (113, 3.96870560944080350000e-002) (114, -1.42799587920308110000e-002) (115, 1.82550493627786640000e-002) (116, -4.36065392568707470000e-003) (117, 7.33759850263595580000e-002) (118, -1.82097814977169040000e-002) (119, 2.42747254669666290000e-002) (120, 9.64471846818923950000e-002) (121, -8.64352583885192870000e-002) (122, -4.07281443476676940000e-002) (123, 1.36991543695330620000e-002) (124, -6.50906935334205630000e-002) (125, -1.08835920691490170000e-002) (0, 1.97648182511329650000e-002) (1, 1.85153335332870480000e-002) (2, 6.80488273501396180000e-002) (3, 7.55294412374496460000e-002) (4, -1.02321784943342210000e-002) (5, -9.92048755288124080000e-002) (6, -6.96852728724479680000e-002) (7, -4.61556538939476010000e-002) (8, -2.81491456553339960000e-003) (9, 6.03029243648052220000e-002) (10, -3.63203771412372590000e-002) (11, 6.88305497169494630000e-002) (12, -2.24328460171818730000e-003) (13, 6.41138255596160890000e-002) (14, 3.06264404207468030000e-002) (15, -6.71553388237953190000e-002) (16, 3.48557792603969570000e-002) (17, 3.60418632626533510000e-002) (18, -3.06506119668483730000e-002) (19, 6.68064132332801820000e-002) (20, 3.08426953852176670000e-002) (21, 3.23636606335639950000e-002) (22, -6.58027976751327510000e-002) (23, 7.58243445307016370000e-003) (24, 4.05395105481147770000e-002) (25, 8.60428586602211000000e-002) (26, -8.63394811749458310000e-002) (27, -7.85875692963600160000e-002) (28, -6.25747516751289370000e-002) (29, -7.66314193606376650000e-002) (30, 8.39615613222122190000e-002) (31, 9.50486063957214360000e-002) (32, 9.92298033088445660000e-003) (33, -5.18752494826912880000e-004) (34, -2.29617394506931300000e-002) (35, 3.42118367552757260000e-002) (36, -8.29080343246459960000e-002) (37, 5.79655310139060020000e-003) (38, 8.47318693995475770000e-002) (39, 2.59586423635482790000e-002) (40, -9.64888110756874080000e-002) (41, -2.87666209042072300000e-002) (42, 2.71014496684074400000e-002) (43, 6.02122433483600620000e-002) (44, -8.99111926555633540000e-002) (45, -6.49885907769203190000e-002) (46, -1.83758139610290530000e-002) (47, -8.59983712434768680000e-002) (48, 4.73021082580089570000e-002) (49, 1.00521773099899290000e-001) (50, -7.37593322992324830000e-002) (51, -2.97874379903078080000e-002) (52, 1.17098484188318250000e-002) (53, 1.27720907330513000000e-002) (54, -1.93329416215419770000e-002) (55, -1.86603784095495940000e-003) (56, -8.40541254729032520000e-003) (57, 1.51586793363094330000e-002) (58, -3.67547422647476200000e-002) (59, 5.61164021492004390000e-002) (60, 6.30448237061500550000e-002) (61, 5.88393304497003560000e-003) (62, -5.22878626361489300000e-003) (63, -9.16585698723793030000e-002) (64, 1.42072299495339390000e-002) (65, -2.86177415400743480000e-002) (66, -5.62670566141605380000e-002) (67, 6.13126382231712340000e-002) (68, -3.74861918389797210000e-002) (69, -9.15694534778594970000e-002) (70, -3.42085622251033780000e-002) (71, 9.08164232969284060000e-002) (72, 4.65455837547779080000e-002) (73, -2.51168087124824520000e-002) (74, -7.55611062049865720000e-002) (75, -1.34566128253936770000e-002) (76, 3.82969044148921970000e-002) (77, 2.71748900413513180000e-002) (78, -9.29341018199920650000e-002) (79, -2.38628648221492770000e-002) (80, -2.28438172489404680000e-002) (81, 6.25658705830574040000e-002) (82, -2.97081954777240750000e-002) (83, -8.26229453086853030000e-002) (84, 6.35332167148590090000e-002) (85, -5.48506490886211400000e-002) (86, 7.11709354072809220000e-003) (87, 7.06249177455902100000e-002) (88, 7.56919831037521360000e-002) (89, -7.29926973581314090000e-002) (90, 8.99979397654533390000e-002) (91, 1.24411443248391150000e-002) (92, 9.47185829281806950000e-002) (93, -9.58686247467994690000e-002) (94, -2.37230788916349410000e-002) (95, -7.25996643304824830000e-002) (96, 7.80921801924705510000e-002) (97, 6.48437365889549260000e-002) (98, 9.03827771544456480000e-002) (99, 3.35168316960334780000e-002) (100, 8.87406170368194580000e-002) (101, -5.01963458955287930000e-002) (102, 1.64319407194852830000e-002) (103, -6.63211494684219360000e-002) (104, -8.63662585616111760000e-002) (105, 1.99748692102730270000e-003) (106, 9.34386849403381350000e-002) (107, 8.19350592792034150000e-004) (108, 3.79834212362766270000e-002) (109, 1.76287386566400530000e-002) (110, -3.12666669487953190000e-002) (111, 6.34099319577217100000e-002) (112, 5.72136640548706050000e-002) (113, -6.08136691153049470000e-002) (114, 9.39500257372856140000e-002) (115, -7.58955553174018860000e-002) (116, -3.03526483476161960000e-002) (117, -5.44272176921367650000e-002) (118, -1.94456726312637330000e-002) (119, -3.19061167538166050000e-002) (120, 5.68131543695926670000e-002) (121, -3.94363664090633390000e-002) (122, -5.57762123644351960000e-002) (123, -4.52443808317184450000e-002) (124, -1.68941095471382140000e-002) (125, -7.13649764657020570000e-002) (0, 3.84103544056415560000e-002) (1, -1.16766896098852160000e-003) (2, -1.36905377730727200000e-002) (3, -1.93345025181770320000e-002) (4, -8.15791860222816470000e-002) (5, 1.02088332176208500000e-001) (6, -8.11145529150962830000e-002) (7, -1.42875993624329570000e-002) (8, -7.55806937813758850000e-002) (9, 9.50961634516716000000e-002) (10, -5.80312907695770260000e-002) (11, 1.84746924787759780000e-002) (12, -3.83857451379299160000e-002) (13, 7.57610201835632320000e-002) (14, -5.28509775176644330000e-003) (15, -9.13503766059875490000e-002) (16, 3.86709682643413540000e-002) (17, 8.55675041675567630000e-002) (18, 1.43492901697754860000e-002) (19, -4.73692938685417180000e-002) (20, 8.99484381079673770000e-002) (21, 9.09074693918228150000e-002) (22, -4.66781258583068850000e-002) (23, -8.97485064342617990000e-004) (24, -5.23611269891262050000e-002) (25, 8.65571945905685420000e-003) (26, 5.88016510009765630000e-002) (27, 6.90194666385650630000e-002) (28, -8.00277590751647950000e-002) (29, -9.83759164810180660000e-002) (30, -7.13491588830947880000e-002) (31, 4.72665876150131230000e-002) (32, 7.04097002744674680000e-002) (33, 7.93584361672401430000e-002) (34, 3.90046089887619020000e-002) (35, 4.01681661605834960000e-002) (36, -9.01155620813369750000e-002) (37, 7.23219960927963260000e-002) (38, 6.08346424996852870000e-002) (39, -3.76599021255970000000e-002) (40, 7.43783712387084960000e-002) (41, 6.77417144179344180000e-002) (42, 9.73870381712913510000e-002) (43, -5.01730702817440030000e-002) (44, -7.81169831752777100000e-002) (45, 5.58908209204673770000e-002) (46, 2.16370727866888050000e-002) (47, 5.28813200071454050000e-003) (48, 2.34530232846736910000e-002) (49, 9.22163948416709900000e-002) (50, -7.66714215278625490000e-002) (51, -7.23080858588218690000e-002) (52, -7.12309926748275760000e-002) (53, -7.20069929957389830000e-002) (54, 5.32055683434009550000e-002) (55, 1.46737853065133090000e-002) (56, 3.35683301091194150000e-002) (57, 6.36035352945327760000e-002) (58, 9.00743305683135990000e-002) (59, -3.54167004115879540000e-003) (60, 1.09262280166149140000e-002) (61, -7.32520520687103270000e-002) (62, -3.94907668232917790000e-002) (63, -9.62702631950378420000e-002) (64, 4.25935387611389160000e-002) (65, -8.57900753617286680000e-002) (66, 8.83461385965347290000e-002) (67, -2.53264792263507840000e-002) (68, -7.49090015888214110000e-002) (69, 5.91753795742988590000e-003) (70, -1.33779691532254220000e-002) (71, -4.74027805030345920000e-002) (72, -6.60575628280639650000e-002) (73, -9.80483070015907290000e-002) (74, 7.71176666021347050000e-002) (75, -3.87502871453762050000e-002) (76, -3.13156507909297940000e-002) (77, 4.38810065388679500000e-002) (78, 6.38549476861953740000e-002) (79, -8.03857222199440000000e-002) (80, -5.58645427227020260000e-002) (81, -9.01936143636703490000e-002) (82, -9.43938083946704860000e-003) (83, 9.57940667867660520000e-002) (84, -3.68179306387901310000e-002) (85, 3.55417020618915560000e-002) (86, -4.04802598059177400000e-002) (87, 6.33431831374764440000e-003) (88, 4.42524552345275880000e-002) (89, -3.87128703296184540000e-002) (90, -7.60488659143447880000e-002) (91, -8.68134275078773500000e-002) (92, -1.02675873786211010000e-002) (93, -4.20655831694602970000e-002) (94, -6.03818818926811220000e-002) (95, 3.87666770257055760000e-003) (96, 1.60097219049930570000e-002) (97, -7.53628555685281750000e-003) (98, 9.92595031857490540000e-002) (99, -8.19210484623909000000e-002) (100, 9.95576940476894380000e-003) (101, 2.98485048115253450000e-002) (102, -1.37626733630895610000e-002) (103, -8.27815607190132140000e-002) (104, 4.97140064835548400000e-002) (105, 6.81856181472539900000e-003) (106, -8.02523419260978700000e-002) (107, 1.01399719715118410000e-002) (108, 5.97438663244247440000e-002) (109, -3.71638941578567030000e-003) (110, 1.00373245775699620000e-001) (111, -2.03352048993110660000e-002) (112, 8.93886014819145200000e-002) (113, -9.73749384284019470000e-002) (114, -4.77013289928436280000e-002) (115, 9.72299352288246150000e-002) (116, -6.41670972108840940000e-002) (117, 5.55485859513282780000e-002) (118, -2.47321110218763350000e-002) (119, 9.37452912330627440000e-002) (120, 6.94833546876907350000e-002) (121, 9.46917459368705750000e-002) (122, 5.08195981383323670000e-002) (123, -2.23826039582490920000e-002) (124, 1.03565296158194540000e-002) (125, -1.93085696082562210000e-003) (0, -4.98689934611320500000e-002) (1, -8.65636616945266720000e-002) (2, -9.74884033203125000000e-002) (3, -3.89426909387111660000e-002) (4, -2.47534178197383880000e-002) (5, 3.52455023676157000000e-003) (6, -1.68620534241199490000e-002) (7, -1.02302543818950650000e-001) (8, -1.64167229086160660000e-002) (9, -6.99597820639610290000e-002) (10, 4.18912358582019810000e-002) (11, -6.16751648485660550000e-002) (12, -3.63500230014324190000e-002) (13, 6.31750524044036870000e-002) (14, -5.99559135735034940000e-002) (15, -8.18880349397659300000e-002) (16, -6.73050507903099060000e-002) (17, -1.13083515316247940000e-002) (18, 3.20504717528820040000e-002) (19, -2.19256454147398470000e-003) (20, 6.81363567709922790000e-002) (21, -2.95780897140502930000e-002) (22, -5.87465018033981320000e-002) (23, 8.99152681231498720000e-002) (24, 4.21822555363178250000e-002) (25, -1.04471042752265930000e-001) (26, 7.29415193200111390000e-002) (27, -1.58192384988069530000e-002) (28, 9.59571748971939090000e-002) (29, -3.78774702548980710000e-002) (30, 7.77968205511569980000e-004) (31, 3.58410552144050600000e-002) (32, -5.58657273650169370000e-002) (33, -8.37439745664596560000e-002) (34, -3.55331450700759890000e-002) (35, 2.22257189452648160000e-002) (36, -5.25672547519207000000e-002) (37, 7.21388915553689000000e-003) (38, 5.65388128161430360000e-002) (39, 8.72290953993797300000e-002) (40, -6.89363777637481690000e-002) (41, -2.96911224722862240000e-002) (42, 4.92621362209320070000e-002) (43, 2.18254365026950840000e-002) (44, -5.21186776459217070000e-002) (45, -1.09134130179882050000e-001) (46, -6.41639232635498050000e-002) (47, -9.16953161358833310000e-002) (48, 6.19827257469296460000e-003) (49, -7.45877772569656370000e-002) (50, 2.31534540653228760000e-002) (51, 7.80112519860267640000e-002) (52, -3.35456691682338710000e-002) (53, -2.77087092399597170000e-002) (54, -7.67088830471038820000e-002) (55, -1.07296973466873170000e-001) (56, -6.91992491483688350000e-002) (57, -2.71336399018764500000e-002) (58, -8.87829959392547610000e-002) (59, -2.58871875703334810000e-002) (60, 1.10745988786220550000e-002) (61, 4.15986999869346620000e-002) (62, -9.37964692711830140000e-002) (63, 2.30737645179033280000e-002) (64, 7.45365396142005920000e-002) (65, -1.57869681715965270000e-002) (66, 4.80645298957824710000e-002) (67, -3.94759811460971830000e-002) (68, -1.55996931716799740000e-002) (69, 8.09742808341979980000e-002) (70, 4.58045909181237220000e-003) (71, 3.64778228104114530000e-002) (72, 4.07233349978923800000e-002) (73, -7.47085660696029660000e-002) (74, 6.10347837209701540000e-002) (75, -8.05025398731231690000e-002) (76, 4.58638779819011690000e-002) (77, -1.02309994399547580000e-001) (78, -4.40700687468051910000e-002) (79, 9.09559801220893860000e-002) (80, -2.19637248665094380000e-002) (81, -2.24218443036079410000e-002) (82, 2.38234624266624450000e-002) (83, -1.59815717488527300000e-002) (84, -2.45682019740343090000e-002) (85, -5.39400391280651090000e-002) (86, -8.99976566433906560000e-002) (87, -9.55691710114479060000e-002) (88, 4.63383533060550690000e-002) (89, -3.76290082931518550000e-002) (90, -9.77144539356231690000e-002) (91, 6.81842565536499020000e-002) (92, -8.95240157842636110000e-002) (93, 2.23372923210263250000e-003) (94, 2.25001052021980290000e-002) (95, -1.15555018186569210000e-001) (96, 9.40974354743957520000e-002) (97, 3.65646257996559140000e-002) (98, -5.04943914711475370000e-002) (99, 9.28674936294555660000e-002) (100, -3.06490268558263780000e-002) (101, -4.83118779957294460000e-002) (102, 2.48528029769659040000e-002) (103, -9.22251418232917790000e-002) (104, -6.95309564471244810000e-002) (105, -2.55159717053174970000e-002) (106, -8.42019319534301760000e-002) (107, -1.07678137719631200000e-001) (108, 3.07404324412345890000e-002) (109, 6.93773925304412840000e-002) (110, 7.70780071616172790000e-002) (111, 1.46133257076144220000e-002) (112, -2.05586068332195280000e-002) (113, -9.16475877165794370000e-002) (114, 5.04964105784893040000e-002) (115, -1.00033789873123170000e-001) (116, -7.57249966263771060000e-002) (117, -1.50870662182569500000e-002) (118, -1.96443926542997360000e-002) (119, -4.85519832000136380000e-003) (120, 1.17459846660494800000e-002) (121, -2.28383876383304600000e-002) (122, -1.10841684043407440000e-001) (123, 9.59250777959823610000e-002) (124, 1.24983405694365500000e-002) (125, -2.25851908326148990000e-002) (0, -4.67226421460509300000e-003) (1, 7.39950835704803470000e-002) (2, 4.05923239886760710000e-002) (3, 6.44518733024597170000e-002) (4, -6.86391517519950870000e-002) (5, 5.92864789068698880000e-002) (6, -2.64858268201351170000e-002) (7, 6.15990906953811650000e-003) (8, 6.15851953625679020000e-002) (9, -9.56274569034576420000e-002) (10, 1.68243125081062320000e-002) (11, 6.04078248143196110000e-002) (12, -1.17029286921024320000e-002) (13, -7.72450417280197140000e-002) (14, -7.90522992610931400000e-003) (15, -3.45123521983623500000e-002) (16, 1.27887083217501640000e-002) (17, -6.09989799559116360000e-002) (18, -6.18065372109413150000e-002) (19, -2.80106905847787860000e-002) (20, -3.10821738094091420000e-002) (21, 2.05241367220878600000e-002) (22, 2.60698199272155760000e-002) (23, -4.67959232628345490000e-002) (24, -2.14065071195364000000e-002) (25, 5.88958524167537690000e-002) (26, -6.45346790552139280000e-002) (27, 8.81908386945724490000e-002) (28, -3.89640927314758300000e-002) (29, 2.71065793931484220000e-002) (30, 3.40240262448787690000e-002) (31, -5.97942806780338290000e-002) (32, -9.04556736350059510000e-002) (33, 1.22348098084330560000e-002) (34, -3.54480668902397160000e-002) (35, -5.08331507444381710000e-002) (36, -7.25845471024513240000e-002) (37, -8.61159488558769230000e-002) (38, -9.05343592166900630000e-002) (39, 1.87784880399703980000e-002) (40, 2.30071749538183210000e-002) (41, 7.75272995233535770000e-002) (42, 5.09293470531702040000e-003) (43, -5.85602112114429470000e-002) (44, -8.50860327482223510000e-002) (45, -6.85516521334648130000e-002) (46, -5.90852051973342900000e-002) (47, 8.81229713559150700000e-003) (48, -3.17432656884193420000e-002) (49, -3.94322387874126430000e-002) (50, -5.65493013709783550000e-003) (51, -8.15123170614242550000e-002) (52, -1.70591752976179120000e-002) (53, 8.18849354982376100000e-003) (54, 7.17526953667402270000e-003) (55, -9.79828014969825740000e-002) (56, -7.98358619213104250000e-002) (57, -9.63362529873847960000e-002) (58, 6.89549222588539120000e-002) (59, 5.55753335356712340000e-002) (60, 6.87774568796157840000e-002) (61, -2.23539657890796660000e-002) (62, 8.15947055816650390000e-002) (63, -8.71471837162971500000e-002) (64, 4.70752362161874770000e-003) (65, 3.81622128188610080000e-002) (66, -5.92864863574504850000e-002) (67, -8.78313481807708740000e-002) (68, -3.87268997728824620000e-002) (69, 4.04132157564163210000e-002) (70, 8.27789157629013060000e-002) (71, -3.65432575345039370000e-002) (72, 3.45460586249828340000e-002) (73, -5.90203218162059780000e-002) (74, 5.62417879700660710000e-003) (75, -5.60211390256881710000e-002) (76, 7.11109861731529240000e-003) (77, 3.25503870844841000000e-002) (78, 2.70329918712377550000e-002) (79, 2.28454521857202050000e-003) (80, -8.12075007706880570000e-003) (81, 2.53636594861745830000e-002) (82, -4.21431101858615880000e-002) (83, 1.29369646310806270000e-002) (84, -4.87030074000358580000e-002) (85, -5.74798807501792910000e-002) (86, -8.20295810699462890000e-002) (87, -7.17117711901664730000e-002) (88, 1.09203234314918520000e-002) (89, -3.32309380173683170000e-002) (90, -4.45099100470542910000e-002) (91, -6.24390579760074620000e-002) (92, 8.41155201196670530000e-002) (93, 2.91814263910055160000e-002) (94, -3.43728587031364440000e-002) (95, -3.63739244639873500000e-002) (96, -1.00001484155654910000e-001) (97, -6.69996887445449830000e-002) (98, 8.37443917989730830000e-002) (99, 7.01462849974632260000e-002) (100, -6.61834850907325740000e-002) (101, -2.21215877681970600000e-002) (102, -8.28900635242462160000e-002) (103, 2.91239991784095760000e-002) (104, -9.43220593035221100000e-003) (105, 6.18438571691513060000e-002) (106, -4.16957139968872070000e-002) (107, 8.76445695757865910000e-002) (108, 6.58736303448677060000e-002) (109, 8.35294574499130250000e-002) (110, -7.07916393876075740000e-002) (111, -4.56068180501461030000e-002) (112, -1.00369364023208620000e-001) (113, -5.50584755837917330000e-002) (114, 5.61202280223369600000e-002) (115, 2.38433554768562320000e-002) (116, 1.41620906069874760000e-002) (117, 4.69918288290500640000e-002) (118, -5.03069981932640080000e-002) (119, -7.92169049382209780000e-002) (120, 3.46587933599948880000e-002) (121, -5.79392202198505400000e-002) (122, -4.24414388835430150000e-002) (123, -9.09640491008758540000e-002) (124, -5.44941462576389310000e-002) (125, 1.53920985758304600000e-002) (0, 2.86261867731809620000e-002) (1, -8.86935293674468990000e-002) (2, 4.65204380452632900000e-003) (3, -6.85166269540786740000e-002) (4, -6.35430365800857540000e-002) (5, 4.25544120371341710000e-002) (6, 3.23690995573997500000e-002) (7, 2.94090937823057170000e-002) (8, -3.59599553048610690000e-002) (9, 6.76311273127794270000e-003) (10, -3.68401184678077700000e-002) (11, 6.90136104822158810000e-002) (12, 4.31119240820407870000e-002) (13, 9.49164107441902160000e-002) (14, -3.03211808204650880000e-002) (15, 9.39154922962188720000e-002) (16, 6.09739720821380620000e-002) (17, 8.70902165770530700000e-002) (18, 8.57859402894973750000e-002) (19, -1.80379524827003480000e-002) (20, -5.62859177589416500000e-002) (21, 2.90141720324754710000e-002) (22, -1.05733738746494050000e-003) (23, 9.75258946418762210000e-002) (24, 1.94306056946516040000e-002) (25, -2.93572098016738890000e-002) (26, -4.04398515820503230000e-002) (27, -1.43126007169485090000e-002) (28, 6.49261549115180970000e-002) (29, 4.61824722588062290000e-002) (30, 6.92328810691833500000e-002) (31, -6.78348839282989500000e-002) (32, -5.10728508234024050000e-002) (33, -2.66996584832668300000e-002) (34, -9.68691259622573850000e-002) (35, -7.50725418329238890000e-002) (36, 7.10967853665351870000e-002) (37, -3.99082489311695100000e-002) (38, -8.20536315441131590000e-002) (39, 4.89167049527168270000e-002) (40, -9.32121947407722470000e-002) (41, 9.36038643121719360000e-002) (42, 1.12498290836811070000e-002) (43, 3.96080799400806430000e-002) (44, 6.51471465826034550000e-002) (45, -5.14456350356340410000e-003) (46, 7.78664499521255490000e-002) (47, 3.63563857972621920000e-002) (48, -3.94499786198139190000e-002) (49, 2.35157255083322530000e-002) (50, -7.39800110459327700000e-002) (51, 5.63369989395141600000e-002) (52, -8.65561738610267640000e-002) (53, 6.47618575021624570000e-003) (54, 1.00246286019682880000e-002) (55, 2.65204738825559620000e-002) (56, -2.34624240547418590000e-002) (57, -1.78517736494541170000e-002) (58, -7.08993673324584960000e-002) (59, -9.42676067352294920000e-002) (60, 9.87616777420043950000e-002) (61, -6.91978633403778080000e-002) (62, -4.09418120980262760000e-002) (63, -7.86880031228065490000e-002) (64, -6.61376118659973140000e-002) (65, -2.14409511536359790000e-002) (66, -3.78456227481365200000e-002) (67, 6.20217546820640560000e-002) (68, 9.35603156685829160000e-002) (69, 5.71537874639034270000e-002) (70, -6.20415322482585910000e-002) (71, 4.74620498716831210000e-002) (72, -3.88478189706802370000e-002) (73, 9.41595509648323060000e-002) (74, -2.78920736163854600000e-002) (75, -8.77861678600311280000e-002) (76, 6.18836432695388790000e-002) (77, -7.57846757769584660000e-002) (78, 3.23669202625751500000e-002) (79, 3.59821915626525880000e-002) (80, -9.76921692490577700000e-002) (81, -6.14689011126756670000e-003) (82, -2.11490597575902940000e-002) (83, -5.52217997610569000000e-002) (84, 8.55359509587287900000e-002) (85, 4.51728217303752900000e-002) (86, 3.36598940193653110000e-002) (87, -7.55542889237403870000e-002) (88, 2.25365790538489820000e-003) (89, 6.20629452168941500000e-002) (90, 7.26935714483261110000e-002) (91, -3.28257679939270020000e-002) (92, -8.64987298846244810000e-002) (93, 5.28963766992092130000e-002) (94, -3.35887214168906210000e-003) (95, 8.86420533061027530000e-002) (96, -7.86202475428581240000e-002) (97, -3.89568358659744260000e-002) (98, -6.91458210349082950000e-002) (99, -5.22690378129482270000e-002) (100, 4.00885902345180510000e-002) (101, 7.38765373826026920000e-002) (102, -7.99935683608055110000e-002) (103, -6.44962629303336140000e-003) (104, 7.40417167544364930000e-002) (105, 1.86286289244890210000e-002) (106, 6.36477693915367130000e-002) (107, 8.06799829006195070000e-002) (108, -9.68977957963943480000e-002) (109, -7.42302015423774720000e-002) (110, -4.42925095558166500000e-002) (111, -2.61583290994167330000e-002) (112, 9.07938852906227110000e-002) (113, 3.57553549110889430000e-002) (114, -1.62866655737161640000e-002) (115, 7.98041597008705140000e-002) (116, 1.12330913543701170000e-002) (117, -6.06295764446258540000e-002) (118, -6.14404641091823580000e-002) (119, 3.75799350440502170000e-002) (120, 8.63717403262853620000e-003) (121, -7.68330618739128110000e-002) (122, -1.00022427737712860000e-001) (123, 9.24191325902938840000e-002) (124, -5.73916221037507060000e-003) (125, 7.88734108209609990000e-003) (0, 4.44527380168437960000e-002) (1, 9.40551161766052250000e-002) (2, -1.77427791059017180000e-002) (3, -3.97422574460506440000e-002) (4, -6.16164281964302060000e-002) (5, 4.19808141887187960000e-002) (6, -2.17968896031379700000e-002) (7, 5.81776723265647890000e-002) (8, -2.76744309812784190000e-002) (9, 1.06081767007708550000e-002) (10, -7.75931552052497860000e-002) (11, 8.36926400661468510000e-002) (12, 8.68632271885871890000e-002) (13, -5.37034124135971070000e-003) (14, 8.88125747442245480000e-002) (15, -5.25931566953659060000e-002) (16, 5.18200956284999850000e-002) (17, 8.89526233077049260000e-002) (18, 6.14653676748275760000e-002) (19, -7.87950120866298680000e-003) (20, 6.01570829749107360000e-002) (21, -4.97571304440498350000e-002) (22, 7.45830610394477840000e-002) (23, -1.08545115217566490000e-002) (24, 7.37546905875205990000e-002) (25, -3.28116603195667270000e-002) (26, 3.89354266226291660000e-002) (27, 8.60362499952316280000e-002) (28, -9.87357795238494870000e-002) (29, 5.91616965830326080000e-002) (30, 5.61775900423526760000e-002) (31, 9.75922867655754090000e-002) (32, 4.83329594135284420000e-002) (33, -4.55363281071186070000e-002) (34, -8.32587853074073790000e-002) (35, 2.41219252347946170000e-002) (36, 9.68433916568756100000e-002) (37, 6.30903914570808410000e-002) (38, 7.47416447848081590000e-003) (39, -3.76388393342494960000e-002) (40, 8.57796519994735720000e-002) (41, -1.98604837059974670000e-002) (42, -8.34880173206329350000e-002) (43, -8.71384814381599430000e-002) (44, 2.18890979886054990000e-002) (45, -3.94339747726917270000e-002) (46, -4.84413951635360720000e-002) (47, 4.52593863010406490000e-002) (48, 6.45241420716047290000e-003) (49, -2.53673251718282700000e-002) (50, 8.13423916697502140000e-002) (51, -8.72635543346405030000e-002) (52, -8.89744833111763000000e-002) (53, -9.80067849159240720000e-002) (54, 8.91367569565773010000e-002) (55, 1.19102129247039560000e-003) (56, 6.97396472096443180000e-002) (57, 7.30737075209617610000e-002) (58, 6.86661154031753540000e-002) (59, 7.59254470467567440000e-002) (60, -5.06522394716739650000e-002) (61, -9.82567965984344480000e-002) (62, 4.79332916438579560000e-002) (63, -6.91346973180770870000e-002) (64, 3.27755697071552280000e-002) (65, 4.19136732816696170000e-002) (66, 5.83316460251808170000e-002) (67, 4.11078101024031640000e-003) (68, 9.81363356113433840000e-002) (69, -1.71515103429555890000e-002) (70, 5.73982931673526760000e-002) (71, 4.72084097564220430000e-002) (72, -6.89927116036415100000e-002) (73, -6.17357753217220310000e-002) (74, -4.88070072606205940000e-003) (75, -6.52457475662231450000e-002) (76, 3.26246395707130430000e-002) (77, -5.90742267668247220000e-002) (78, 5.37423864006996150000e-002) (79, -2.12633926421403880000e-002) (80, -1.42203550785779950000e-002) (81, -1.73104498535394670000e-002) (82, -5.11722415685653690000e-002) (83, 5.32929562032222750000e-002) (84, 1.72853618860244750000e-002) (85, -6.42874911427497860000e-002) (86, -9.84652414917945860000e-002) (87, 8.85531604290008540000e-002) (88, 3.87308225035667420000e-002) (89, 6.79885298013687130000e-002) (90, 2.69858911633491520000e-003) (91, 2.53474768251180650000e-002) (92, 9.70350578427314760000e-002) (93, -8.89710262417793270000e-002) (94, -5.38831055164337160000e-002) (95, 2.05635763704776760000e-002) (96, -9.46146324276924130000e-002) (97, 8.55922624468803410000e-002) (98, 7.08237215876579280000e-002) (99, -4.20094840228557590000e-002) (100, 1.47042041644454000000e-002) (101, 3.17180231213569640000e-002) (102, 8.99581015110015870000e-002) (103, 7.88358598947525020000e-002) (104, 5.92800602316856380000e-002) (105, 7.70149976015090940000e-002) (106, 3.08106411248445510000e-002) (107, -1.47122386842966080000e-002) (108, 6.30589947104454040000e-002) (109, -4.67415638267993930000e-002) (110, -1.03263128548860550000e-002) (111, 1.70499738305807110000e-002) (112, 3.77787202596664430000e-002) (113, 2.05459184944629670000e-002) (114, -7.85983446985483170000e-003) (115, 7.58370235562324520000e-002) (116, 4.50571477413177490000e-002) (117, -9.01613011956214900000e-002) (118, -1.05374148115515710000e-002) (119, 6.89113512635231020000e-002) (120, -2.65494547784328460000e-002) (121, 2.48732753098011020000e-002) (122, 7.92336538434028630000e-002) (123, 7.38754048943519590000e-002) (124, -2.25425772368907930000e-002) (125, 3.39122675359249110000e-002) (0, -3.60038951039314270000e-002) (1, -1.11101465299725530000e-002) (2, 5.64309097826480870000e-002) (3, -2.92107630521059040000e-002) (4, -5.09960353374481200000e-002) (5, -4.60502803325653080000e-002) (6, -9.71106439828872680000e-002) (7, 9.70566645264625550000e-002) (8, 9.77465286850929260000e-002) (9, -7.14901834726333620000e-002) (10, -9.31266993284225460000e-002) (11, -5.32007999718189240000e-002) (12, 2.78340280055999760000e-002) (13, -9.40983518958091740000e-002) (14, 3.69709953665733340000e-002) (15, 7.41950795054435730000e-002) (16, -1.48540856316685680000e-002) (17, -6.53302967548370360000e-002) (18, 9.12236720323562620000e-002) (19, -5.07152453064918520000e-002) (20, 7.36396610736846920000e-002) (21, 4.87583838403224950000e-002) (22, 4.03168648481369020000e-002) (23, -6.21202923357486720000e-002) (24, 5.93503378331661220000e-002) (25, 6.97456151247024540000e-002) (26, -5.14089912176132200000e-002) (27, -2.84359995275735860000e-002) (28, 6.63323253393173220000e-002) (29, -3.48630845546722410000e-002) (30, 9.08276997506618500000e-003) (31, 7.21675828099250790000e-002) (32, -6.11377581954002380000e-002) (33, -3.84359471499919890000e-002) (34, -4.84297610819339750000e-002) (35, -6.37443810701370240000e-002) (36, 1.81085560470819470000e-002) (37, 5.99436275660991670000e-002) (38, -2.43969121947884560000e-003) (39, -8.29044654965400700000e-002) (40, -9.71000939607620240000e-002) (41, -2.58235726505517960000e-002) (42, -1.42179466784000400000e-002) (43, 5.19625879824161530000e-002) (44, -8.36141854524612430000e-002) (45, -5.66459856927394870000e-002) (46, 6.08476027846336360000e-002) (47, 3.28187942504882810000e-002) (48, 9.62331891059875490000e-002) (49, 7.70571781322360040000e-003) (50, -4.47014048695564270000e-002) (51, -1.04645481333136560000e-002) (52, -1.68510992079973220000e-002) (53, 4.57948818802833560000e-002) (54, 2.57271006703376770000e-002) (55, -1.09489671885967250000e-002) (56, 5.18783591687679290000e-002) (57, -7.99149870872497560000e-002) (58, -8.12586843967437740000e-002) (59, 8.72817039489746090000e-002) (60, 6.22382797300815580000e-002) (61, 5.05859404802322390000e-002) (62, -1.41912875697016720000e-002) (63, 8.56753364205360410000e-002) (64, -5.66827207803726200000e-002) (65, -2.87163034081459050000e-002) (66, -5.53022213280200960000e-002) (67, -1.82157326489686970000e-002) (68, -6.35932311415672300000e-002) (69, -4.61836121976375580000e-002) (70, -8.42155665159225460000e-002) (71, 9.32644680142402650000e-002) (72, -3.79512198269367220000e-002) (73, -9.86904427409172060000e-002) (74, 9.22751873731613160000e-002) (75, 5.38398437201976780000e-002) (76, -3.50611321628093720000e-002) (77, -4.73064370453357700000e-002) (78, 2.31636147946119310000e-002) (79, 1.65496356785297390000e-002) (80, 1.05659244582057000000e-002) (81, 2.59928088635206220000e-002) (82, -7.77621492743492130000e-002) (83, -8.26838836073875430000e-002) (84, 4.40209880471229550000e-002) (85, -5.21049685776233670000e-002) (86, 1.32861090824007990000e-002) (87, 9.04973372817039490000e-002) (88, -6.22182786464691160000e-002) (89, -4.19047027826309200000e-002) (90, -7.87346139550209050000e-002) (91, -8.33001062273979190000e-002) (92, 9.90647971630096440000e-002) (93, 8.74704793095588680000e-002) (94, 8.64137709140777590000e-002) (95, -9.58788394927978520000e-003) (96, 8.43112319707870480000e-002) (97, -4.22723814845085140000e-002) (98, 6.68986812233924870000e-002) (99, 5.98871111869812010000e-002) (100, 9.30061116814613340000e-002) (101, -7.74833410978317260000e-002) (102, 5.62166832387447360000e-002) (103, 7.87761658430099490000e-002) (104, -3.95890362560749050000e-002) (105, 1.00739270448684690000e-001) (106, -9.32873636484146120000e-002) (107, -2.95308623462915420000e-002) (108, -3.14497351646423340000e-002) (109, -6.87765330076217650000e-003) (110, -8.47704336047172550000e-003) (111, 7.12731778621673580000e-002) (112, 4.75939251482486720000e-002) (113, 7.98644348978996280000e-002) (114, -3.64017263054847720000e-002) (115, 6.30805715918540950000e-002) (116, -8.75803977251052860000e-002) (117, 4.17275540530681610000e-002) (118, -1.02736279368400570000e-002) (119, -7.60174989700317380000e-002) (120, -8.17863717675209050000e-002) (121, 2.95528806746006010000e-002) (122, 7.35203176736831670000e-002) (123, -4.70860563218593600000e-002) (124, -6.19316697120666500000e-002) (125, 6.37785568833351140000e-002) (0, 8.11256766319274900000e-002) (1, -4.38500642776489260000e-002) (2, 1.01196348667144780000e-001) (3, -3.19288372993469240000e-002) (4, 2.94556841254234310000e-002) (5, 9.17213708162307740000e-002) (6, 5.93129033222794530000e-003) (7, 6.07398450374603270000e-002) (8, -1.04652554000495000000e-005) (9, -1.63425225764513020000e-002) (10, 2.73170955479145050000e-002) (11, 6.80059790611267090000e-002) (12, -7.48147536069154740000e-003) (13, -2.26857867091894150000e-002) (14, 5.45920170843601230000e-002) (15, -5.62217012047767640000e-002) (16, 1.56229482963681220000e-002) (17, 1.02276265621185300000e-001) (18, -4.09795269370079040000e-002) (19, -3.17145846784114840000e-002) (20, -5.41526116430759430000e-002) (21, -8.49816724658012390000e-002) (22, -2.02339105308055880000e-002) (23, 2.18209438025951390000e-002) (24, -7.48224481940269470000e-002) (25, 4.03297916054725650000e-002) (26, 2.60488148778676990000e-002) (27, 9.05550196766853330000e-002) (28, -2.39262040704488750000e-002) (29, 4.68926057219505310000e-002) (30, 8.40797722339630130000e-002) (31, 7.37996324896812440000e-002) (32, 8.95667150616645810000e-002) (33, 1.45297469571232800000e-002) (34, -6.35078325867652890000e-002) (35, -4.12803068757057190000e-002) (36, 3.21900211274623870000e-002) (37, -7.79231116175651550000e-002) (38, -7.00426697731018070000e-002) (39, 4.17289324104785920000e-002) (40, -8.64829197525978090000e-002) (41, -2.21388023346662520000e-002) (42, 8.95934775471687320000e-002) (43, 9.84054710716009140000e-003) (44, -3.36166098713874820000e-002) (45, 1.00685646757483480000e-002) (46, 8.48053917288780210000e-002) (47, 5.47131076455116270000e-002) (48, -7.02882334589958190000e-002) (49, 4.22376543283462520000e-002) (50, -6.76902011036872860000e-002) (51, -1.48808548692613840000e-003) (52, -1.87322534620761870000e-002) (53, -7.98016786575317380000e-002) (54, -6.06259740889072420000e-002) (55, -6.16678409278392790000e-003) (56, -2.55261771380901340000e-002) (57, 1.23513601720333100000e-002) (58, -7.14333206415176390000e-002) (59, -2.59799119085073470000e-002) (60, -8.39499682188034060000e-002) (61, 1.18790976703166960000e-002) (62, -6.01247660815715790000e-002) (63, -2.87414938211441040000e-002) (64, 3.69311496615409850000e-002) (65, 5.45509830117225650000e-002) (66, 1.51952430605888370000e-002) (67, -2.73328796029090880000e-002) (68, -5.26029095053672790000e-002) (69, -2.30184383690357210000e-002) (70, 5.26222698390483860000e-002) (71, -4.72604157403111460000e-003) (72, -7.68184736371040340000e-002) (73, 8.29176232218742370000e-002) (74, -6.90167620778083800000e-002) (75, 4.11232486367225650000e-002) (76, -2.32932306826114650000e-002) (77, -6.04655034840106960000e-002) (78, 4.78248298168182370000e-002) (79, 9.01308562606573100000e-003) (80, -4.84031066298484800000e-002) (81, -6.90954625606536870000e-002) (82, -3.58270369470119480000e-002) (83, -1.98432654142379760000e-002) (84, 9.05949175357818600000e-002) (85, 8.48671197891235350000e-002) (86, 6.68210089206695560000e-002) (87, 4.68290075659751890000e-002) (88, 6.83806389570236210000e-002) (89, 9.56535413861274720000e-002) (90, -7.27683231234550480000e-002) (91, 7.02601820230484010000e-002) (92, 3.81814390420913700000e-002) (93, 9.72181186079978940000e-003) (94, 6.53896480798721310000e-002) (95, -8.08310732245445250000e-002) (96, 4.49697673320770260000e-002) (97, -1.21049422887153920000e-004) (98, -4.52080555260181430000e-002) (99, -2.40344628691673280000e-002) (100, -5.98716065287590030000e-002) (101, 5.36269098520278930000e-002) (102, 7.05027282238006590000e-002) (103, 1.91695466637611390000e-002) (104, -4.55501489341259000000e-002) (105, -1.39670763164758680000e-002) (106, -1.83744765818119050000e-002) (107, -3.95969077944755550000e-002) (108, 1.48663669824600220000e-002) (109, 1.04470737278461460000e-002) (110, 7.23060965538024900000e-002) (111, -8.93511623144149780000e-002) (112, 5.77512979507446290000e-002) (113, 2.56121233105659480000e-002) (114, -9.90794971585273740000e-002) (115, 3.74245196580886840000e-002) (116, -1.07253435999155040000e-002) (117, -5.17584718763828280000e-002) (118, -7.00393095612525940000e-002) (119, 9.49517488479614260000e-002) (120, -7.21396654844284060000e-002) (121, 1.53486160561442380000e-002) (122, -6.87002465128898620000e-002) (123, 3.67273688316345210000e-002) (124, -1.22631611302495000000e-002) (125, -1.20258526876568790000e-002) (0, -3.57668139040470120000e-002) (1, 8.06763693690299990000e-002) (2, -1.53915537521243100000e-002) (3, 5.03408126533031460000e-002) (4, 1.31704900413751600000e-002) (5, 5.56333251297473910000e-002) (6, 2.32572481036186220000e-002) (7, 7.36255645751953130000e-002) (8, 3.19736003875732420000e-002) (9, 2.66871154308319090000e-002) (10, -7.14723840355873110000e-002) (11, -2.67447158694267270000e-003) (12, 7.03952684998512270000e-002) (13, 9.32643115520477290000e-002) (14, -3.74419949948787690000e-002) (15, 3.83969955146312710000e-002) (16, -1.40074109658598900000e-002) (17, 3.77172753214836120000e-002) (18, 2.67432350665330890000e-002) (19, 4.95711527764797210000e-002) (20, 3.45151610672473910000e-002) (21, -3.05781457573175430000e-002) (22, 4.34911698102951050000e-002) (23, 2.71218046545982360000e-002) (24, 3.80862578749656680000e-002) (25, 7.31382146477699280000e-002) (26, 2.37549506127834320000e-002) (27, -7.71200880408287050000e-002) (28, -9.72786992788314820000e-002) (29, 4.73535731434822080000e-002) (30, -9.42201837897300720000e-002) (31, -5.99068962037563320000e-002) (32, 4.54362183809280400000e-002) (33, 7.73402452468872070000e-002) (34, -7.37287178635597230000e-002) (35, 7.39011541008949280000e-002) (36, 8.42384025454521180000e-002) (37, -2.08946671336889270000e-002) (38, -5.68002611398696900000e-002) (39, -6.70733153820037840000e-002) (40, -7.21681863069534300000e-002) (41, -5.78043907880783080000e-002) (42, -7.79635608196258540000e-002) (43, -6.42617121338844300000e-002) (44, 7.60214403271675110000e-002) (45, 8.26108753681182860000e-002) (46, -1.21885994449257850000e-002) (47, -3.06775458157062530000e-002) (48, -3.75654431991279130000e-004) (49, 9.29480567574501040000e-002) (50, 2.93027665466070180000e-002) (51, -1.32830552756786350000e-002) (52, 6.21971115469932560000e-002) (53, -6.73256367444992070000e-002) (54, -8.19308832287788390000e-002) (55, 5.22439554333686830000e-003) (56, 3.55003587901592250000e-002) (57, 9.62246283888816830000e-002) (58, 5.92755228281021120000e-002) (59, 4.29977886378765110000e-002) (60, 4.52878661453723910000e-002) (61, -1.39644360169768330000e-002) (62, -1.18288826197385790000e-002) (63, -1.44827831536531450000e-002) (64, 6.00959025323390960000e-002) (65, -9.87550988793373110000e-002) (66, -8.68604853749275210000e-002) (67, -2.81215254217386250000e-002) (68, 8.97020921111106870000e-002) (69, 3.08418869972229000000e-002) (70, 9.17539373040199280000e-002) (71, 7.53085017204284670000e-002) (72, 5.79805672168731690000e-002) (73, 9.23267379403114320000e-002) (74, 3.63948009908199310000e-003) (75, 4.05149161815643310000e-002) (76, 9.98251512646675110000e-002) (77, 5.55410347878932950000e-002) (78, -6.43093511462211610000e-002) (79, -8.38250815868377690000e-002) (80, 1.93906556814908980000e-002) (81, -2.34179217368364330000e-002) (82, -4.45115519687533380000e-003) (83, 7.34410509467124940000e-002) (84, -7.67705664038658140000e-002) (85, -4.58864457905292510000e-002) (86, -4.95843924582004550000e-002) (87, -9.91424992680549620000e-002) (88, 9.45974662899971010000e-002) (89, 9.62619930505752560000e-002) (90, 8.29465687274932860000e-002) (91, 4.78879548609256740000e-002) (92, -2.75325737893581390000e-002) (93, 3.99340018630027770000e-002) (94, -7.69684612751007080000e-002) (95, 8.46982747316360470000e-002) (96, 8.59424769878387450000e-002) (97, -3.97446751594543460000e-002) (98, -2.50531546771526340000e-002) (99, -8.94643291831016540000e-002) (100, -1.72792635858058930000e-002) (101, -2.96235410496592520000e-003) (102, -4.83207516372203830000e-002) (103, -9.38306078314781190000e-002) (104, 6.18516094982624050000e-002) (105, 1.06931468471884730000e-002) (106, 1.86613220721483230000e-002) (107, 1.69000253081321720000e-002) (108, 7.98962861299514770000e-002) (109, 5.36629892885684970000e-002) (110, -6.63088113069534300000e-002) (111, -5.62602765858173370000e-002) (112, 9.25720706582069400000e-002) (113, 8.73825629241764550000e-004) (114, 4.49791848659515380000e-002) (115, 3.60086071304976940000e-003) (116, -1.59838888794183730000e-002) (117, -2.29180287569761280000e-002) (118, -3.47822569310665130000e-002) (119, 9.65394303202629090000e-002) (120, -8.01820978522300720000e-002) (121, 7.52646476030349730000e-003) (122, -6.51245787739753720000e-002) (123, 7.23060518503189090000e-002) (124, -6.31273612380027770000e-002) (125, -1.12279914319515230000e-001) (0, 7.48496577143669130000e-002) (1, -1.48056196048855780000e-002) (2, -6.27846345305442810000e-002) (3, 6.68927803635597230000e-002) (4, -7.82211720943450930000e-002) (5, -9.19533222913742070000e-002) (6, -5.02601154148578640000e-002) (7, -2.46845800429582600000e-002) (8, 8.55089500546455380000e-002) (9, -1.42434909939765930000e-002) (10, -9.42238345742225650000e-002) (11, 3.89781668782234190000e-002) (12, -1.04290246963500980000e-003) (13, 2.50184852629899980000e-002) (14, -1.58754494041204450000e-002) (15, 2.03269403427839280000e-002) (16, -8.30305460840463640000e-003) (17, 7.81034156680107120000e-002) (18, -3.58898798003792760000e-003) (19, 8.27243328094482420000e-002) (20, 7.38730952143669130000e-002) (21, -7.19018056988716130000e-002) (22, 4.67678718268871310000e-002) (23, 4.97548058629035950000e-002) (24, 6.67927935719490050000e-002) (25, -7.32887759804725650000e-002) (26, -5.20976334810256960000e-002) (27, -2.50847935676574710000e-002) (28, 3.48351709544658660000e-002) (29, -9.42882448434829710000e-002) (30, 1.81113649159669880000e-002) (31, -2.31697689741849900000e-002) (32, 9.70368608832359310000e-002) (33, -1.27592459321022030000e-002) (34, -4.18854616582393650000e-002) (35, 4.19089756906032560000e-002) (36, -5.67427128553390500000e-002) (37, 4.65839244425296780000e-002) (38, 4.97253751382231710000e-003) (39, -3.18324081599712370000e-002) (40, -6.18874095380306240000e-002) (41, 3.02099864929914470000e-002) (42, 9.52458456158638000000e-002) (43, -7.83314034342765810000e-002) (44, -4.39178049564361570000e-002) (45, 8.17771479487419130000e-002) (46, 1.10230566933751110000e-002) (47, 1.33112529292702670000e-002) (48, -2.21450184471905230000e-003) (49, -9.98063087463378910000e-002) (50, 3.93821187317371370000e-002) (51, -5.56790046393871310000e-002) (52, -3.20300534367561340000e-002) (53, 5.14341853559017180000e-002) (54, -5.61271570622920990000e-002) (55, -7.37709552049636840000e-002) (56, 3.92466746270656590000e-002) (57, 9.01322290301322940000e-002) (58, -5.58706223964691160000e-002) (59, -5.12441247701644900000e-002) (60, -1.62331163883209230000e-002) (61, -8.14885552972555160000e-003) (62, -6.50009065866470340000e-002) (63, -3.37333232164382930000e-002) (64, -8.15134048461914060000e-002) (65, -5.04494234919548030000e-002) (66, 2.12382357567548750000e-002) (67, -8.89388099312782290000e-002) (68, 1.21113359928131100000e-002) (69, 5.86130209267139430000e-002) (70, -4.31905314326286320000e-003) (71, 8.16994160413742070000e-002) (72, 3.57217192649841310000e-002) (73, -8.79312977194786070000e-002) (74, 6.09958954155445100000e-002) (75, 1.12937381491065030000e-002) (76, 8.05581733584403990000e-002) (77, 6.12960383296012880000e-002) (78, -9.20559745281934740000e-003) (79, -9.77008696645498280000e-003) (80, -7.66640156507492070000e-002) (81, -5.52016422152519230000e-002) (82, 6.30258098244667050000e-002) (83, -8.46901461482048030000e-002) (84, -1.23330261558294300000e-002) (85, 3.57688367366790770000e-002) (86, -6.35745376348495480000e-002) (87, 6.92131891846656800000e-002) (88, -5.01301102340221410000e-002) (89, 3.53387109935283660000e-002) (90, 6.24002888798713680000e-003) (91, 8.24836567044258120000e-002) (92, -3.40941175818443300000e-002) (93, 3.31496112048625950000e-002) (94, 3.12038529664278030000e-002) (95, 8.34739208221435550000e-002) (96, -5.03886304795742030000e-002) (97, 8.83008092641830440000e-002) (98, -6.58219456672668460000e-002) (99, -9.39329490065574650000e-002) (100, 8.01658183336257930000e-002) (101, -6.64638280868530270000e-002) (102, 2.23006610758602620000e-003) (103, -6.79235532879829410000e-002) (104, -1.53008559718728070000e-002) (105, 5.88462315499782560000e-002) (106, -3.44733223319053650000e-002) (107, 6.85136467218399050000e-002) (108, -5.24810850620269780000e-002) (109, 9.24096181988716130000e-002) (110, -1.57997664064168930000e-002) (111, 1.63596943020820620000e-002) (112, 2.22605802118778230000e-002) (113, -9.33471247553825380000e-002) (114, 3.80485095083713530000e-002) (115, -6.95839375257492070000e-002) (116, -2.34980098903179170000e-002) (117, 1.65733089670538900000e-003) (118, -7.94309899210929870000e-002) (119, 4.52227964997291560000e-002) (120, -5.43678775429725650000e-002) (121, -3.11640594154596330000e-002) (122, -3.43159958720207210000e-002) (123, -5.97064606845378880000e-002) (124, -5.56248985230922700000e-002) (125, -1.17228375747799870000e-002) (0, 8.25145542621612550000e-002) (1, 5.00627122819423680000e-002) (2, 8.47228020429611210000e-002) (3, -2.77563836425542830000e-002) (4, 3.44246588647365570000e-002) (5, 6.41307681798934940000e-002) (6, 8.43872576951980590000e-002) (7, -8.08314010500907900000e-002) (8, -6.77833184599876400000e-002) (9, 3.93468067049980160000e-002) (10, 7.18883275985717770000e-002) (11, 5.82319013774394990000e-002) (12, -9.49616432189941410000e-002) (13, 5.61718828976154330000e-002) (14, -8.87039229273796080000e-002) (15, -4.10450026392936710000e-002) (16, 8.58053267002105710000e-002) (17, 6.44561797380447390000e-002) (18, 2.61053871363401410000e-002) (19, 3.39314565062522890000e-002) (20, 6.52049779891967770000e-002) (21, -6.69016987085342410000e-002) (22, -4.01410423219203950000e-002) (23, -7.82406851649284360000e-002) (24, 2.09498088806867600000e-002) (25, -7.40528106689453130000e-002) (26, 5.72338141500949860000e-002) (27, 5.42233996093273160000e-002) (28, -1.91440824419260030000e-002) (29, 9.00115743279457090000e-002) (30, 6.28551319241523740000e-002) (31, 6.76846280694007870000e-002) (32, -9.98254343867301940000e-002) (33, 8.83384719491004940000e-002) (34, 1.00430905818939210000e-001) (35, -7.01892897486686710000e-002) (36, -1.20871542021632190000e-002) (37, 3.31637449562549590000e-002) (38, -6.24307356774806980000e-002) (39, -7.91833996772766110000e-002) (40, -7.23682418465614320000e-002) (41, 2.91980393230915070000e-002) (42, 7.01652765274047850000e-002) (43, 4.86119613051414490000e-002) (44, -9.19806882739067080000e-002) (45, -5.34168295562267300000e-002) (46, -9.33654755353927610000e-002) (47, -9.32634323835372920000e-002) (48, 1.68403293937444690000e-002) (49, 1.53285702690482140000e-002) (50, -4.94434386491775510000e-002) (51, -6.89194574952125550000e-002) (52, -1.76255293190479280000e-002) (53, 6.87160640954971310000e-002) (54, -5.34363202750682830000e-002) (55, 2.77904402464628220000e-002) (56, -6.83276122435927390000e-003) (57, 9.51119512319564820000e-002) (58, -7.63951707631349560000e-003) (59, 1.33487097918987270000e-002) (60, -5.59436827898025510000e-002) (61, -9.56673026084899900000e-002) (62, 5.14667667448520660000e-002) (63, -5.58433346450328830000e-002) (64, -7.63944163918495180000e-002) (65, -6.92493468523025510000e-002) (66, 4.74749132990837100000e-002) (67, 4.50734421610832210000e-002) (68, -3.91762191429734230000e-003) (69, 6.40341192483901980000e-002) (70, -6.25232756137847900000e-002) (71, 9.29920226335525510000e-002) (72, -3.82531546056270600000e-002) (73, 3.55442762374877930000e-002) (74, 3.02147604525089260000e-002) (75, -7.17762038111686710000e-002) (76, -7.27454274892807010000e-002) (77, -8.17626863718032840000e-002) (78, 5.16924113035202030000e-002) (79, 3.37325632572174070000e-002) (80, -6.67774230241775510000e-002) (81, 4.89015951752662660000e-002) (82, 9.28608700633049010000e-002) (83, -3.94961126148700710000e-002) (84, -4.56179976463317870000e-002) (85, 9.20726582407951350000e-002) (86, -8.05310755968093870000e-002) (87, 8.40357970446348190000e-003) (88, 2.61261221021413800000e-002) (89, 3.84167879819870000000e-002) (90, -5.68592101335525510000e-002) (91, -8.27905908226966860000e-002) (92, 7.98547938466072080000e-002) (93, -3.47551926970481870000e-002) (94, 1.76822580397129060000e-002) (95, -5.68592101335525510000e-002) (96, 1.98085159063339230000e-002) (97, 1.65048241615295410000e-002) (98, 6.51979818940162660000e-002) (99, -4.16909828782081600000e-002) (100, -1.08936363831162450000e-002) (101, 1.03350523859262470000e-002) (102, -3.61303873360157010000e-002) (103, 5.37829846143722530000e-002) (104, 3.85721176862716670000e-002) (105, 9.70531255006790160000e-002) (106, 8.02320688962936400000e-002) (107, -4.74827885627746580000e-002) (108, 5.40178082883358000000e-002) (109, -4.45567332208156590000e-002) (110, 4.44713570177555080000e-002) (111, 9.06506851315498350000e-002) (112, 2.29532569646835330000e-002) (113, 5.86528331041336060000e-002) (114, 3.08349672704935070000e-002) (115, 3.96617874503135680000e-002) (116, 7.42447599768638610000e-002) (117, -3.46764996647834780000e-002) (118, 5.00635951757431030000e-002) (119, 7.60747445747256280000e-003) (120, -6.13147765398025510000e-002) (121, -5.50881475210189820000e-002) (122, -1.59940812736749650000e-002) (123, 3.31234419718384740000e-004) (124, -5.70445880293846130000e-002) (125, 5.03333285450935360000e-002) (0, 4.72279824316501620000e-002) (1, 5.05051426589488980000e-002) (2, 9.37054455280303960000e-002) (3, 9.04540643095970150000e-002) (4, -2.65356544405221940000e-002) (5, 6.20656237006187440000e-002) (6, 3.23676653206348420000e-002) (7, -6.15845695137977600000e-002) (8, 7.66769498586654660000e-002) (9, 7.67499506473541260000e-002) (10, -1.04258256033062930000e-002) (11, -3.73225510120391850000e-002) (12, 3.65771055221557620000e-002) (13, -6.83052912354469300000e-002) (14, -8.99475291371345520000e-002) (15, 4.49452660977840420000e-002) (16, -3.21009829640388490000e-002) (17, 9.12533327937126160000e-002) (18, -9.62702333927154540000e-002) (19, 4.31816875934600830000e-002) (20, 1.97133310139179230000e-002) (21, 4.56585586071014400000e-002) (22, -2.75721941143274310000e-002) (23, 5.50710186362266540000e-002) (24, 8.95533114671707150000e-002) (25, 2.17152833938598630000e-002) (26, -1.57585348933935170000e-002) (27, -8.41798707842826840000e-002) (28, 6.89820870757102970000e-002) (29, 5.19354455173015590000e-002) (30, 1.53676299378275870000e-002) (31, -1.70303825289011000000e-002) (32, 1.29658309742808340000e-002) (33, -9.96244475245475770000e-002) (34, 7.84998312592506410000e-002) (35, -2.49125575646758080000e-003) (36, 6.76179006695747380000e-002) (37, -8.89735966920852660000e-002) (38, -8.56311470270156860000e-002) (39, -8.18880721926689150000e-002) (40, -8.78611207008361820000e-002) (41, 8.57811868190765380000e-002) (42, 8.32704901695251460000e-002) (43, 7.92655423283576970000e-002) (44, -6.07093796133995060000e-003) (45, 2.84169446676969530000e-002) (46, 4.28843609988689420000e-002) (47, -1.44921960309147830000e-002) (48, 7.81893655657768250000e-002) (49, -9.74288880825042720000e-002) (50, 2.12758313864469530000e-002) (51, -9.71263721585273740000e-002) (52, 1.85702065937221050000e-003) (53, 3.87536338530480860000e-003) (54, 7.96033535152673720000e-003) (55, -6.87265992164611820000e-002) (56, -3.31766754388809200000e-002) (57, -9.05713140964508060000e-002) (58, 3.95250320434570310000e-002) (59, -4.40835654735565190000e-002) (60, 3.00099626183509830000e-002) (61, 1.42011074349284170000e-002) (62, -8.34348276257514950000e-002) (63, -6.97525367140769960000e-002) (64, -3.34942378103733060000e-002) (65, -9.99857950955629350000e-003) (66, -6.19811899960041050000e-002) (67, 9.85289886593818660000e-002) (68, -7.00970441102981570000e-002) (69, 1.38576524332165720000e-002) (70, -3.78245078027248380000e-002) (71, 2.46891267597675320000e-002) (72, 9.56622809171676640000e-002) (73, 6.70058578252792360000e-002) (74, 1.70954260975122450000e-002) (75, 7.25605804473161700000e-003) (76, -7.29486942291259770000e-002) (77, -3.21550890803337100000e-002) (78, -6.32646158337593080000e-002) (79, -1.98456440120935440000e-002) (80, 1.96095705032348630000e-002) (81, 4.72106151282787320000e-002) (82, 5.79279251396656040000e-002) (83, 4.84851524233818050000e-002) (84, -1.01429526694118980000e-003) (85, -9.64548736810684200000e-002) (86, 7.06531405448913570000e-002) (87, -2.49275378882884980000e-002) (88, -4.91328816860914230000e-003) (89, -1.64250843226909640000e-002) (90, 2.02443376183509830000e-002) (91, -2.34578307718038560000e-002) (92, -1.41510246321558950000e-002) (93, -1.17662176489830020000e-002) (94, -4.83745383098721500000e-003) (95, -8.98996964097023010000e-002) (96, -5.93963079154491420000e-002) (97, 7.08494409918785100000e-002) (98, 6.74198046326637270000e-002) (99, 5.61161935329437260000e-002) (100, 2.28505376726388930000e-002) (101, 3.46150286495685580000e-002) (102, 3.14190685749053960000e-002) (103, -6.04242198169231410000e-002) (104, 3.04286088794469830000e-002) (105, 6.16994127631187440000e-002) (106, -8.07735249400138850000e-002) (107, 1.07226204127073290000e-002) (108, 9.24344658851623540000e-002) (109, 2.87584085017442700000e-002) (110, 5.31514035537838940000e-003) (111, 3.64782959222793580000e-002) (112, 1.57531816512346270000e-002) (113, -9.64868739247322080000e-002) (114, -7.48152285814285280000e-002) (115, -4.09037712961435320000e-003) (116, -8.81175324320793150000e-002) (117, 8.69740396738052370000e-002) (118, -1.92759502679109570000e-002) (119, -2.78179626911878590000e-002) (120, 6.83461427688598630000e-002) (121, 1.13135818392038350000e-002) (122, 6.99738487601280210000e-002) (123, -6.48481585085392000000e-003) (124, -6.54171854257583620000e-002) (125, 2.97435801476240160000e-002) (0, -7.20099881291389470000e-002) (1, -6.58210664987564090000e-002) (2, -5.27501367032527920000e-002) (3, -4.87076900899410250000e-002) (4, 9.53273624181747440000e-002) (5, 3.70781421661376950000e-002) (6, 8.92829596996307370000e-002) (7, -7.41873076185584070000e-003) (8, -9.00311022996902470000e-002) (9, -4.61903214454650880000e-002) (10, 9.90959554910659790000e-002) (11, -3.36936190724372860000e-002) (12, -5.24294264614582060000e-002) (13, 6.07543364167213440000e-002) (14, 3.08680329471826550000e-002) (15, 4.51897159218788150000e-002) (16, -5.68597204983234410000e-003) (17, -3.15251685678958890000e-002) (18, 7.17142447829246520000e-002) (19, -8.95748510956764220000e-002) (20, -3.52057926356792450000e-002) (21, -3.18267717957496640000e-002) (22, -7.65858292579650880000e-002) (23, 5.37791661918163300000e-002) (24, 9.38631147146224980000e-002) (25, -8.69391858577728270000e-002) (26, 6.25289678573608400000e-002) (27, 1.65637452155351640000e-002) (28, -3.51859666407108310000e-002) (29, -6.74054846167564390000e-002) (30, -4.64850887656211850000e-002) (31, -4.29194681346416470000e-002) (32, -7.22994133830070500000e-002) (33, 1.94366294890642170000e-002) (34, -1.41497487202286720000e-002) (35, 9.33830663561820980000e-002) (36, 7.83841535449028020000e-002) (37, -8.16713646054267880000e-002) (38, -4.78888452053070070000e-002) (39, 6.89725801348686220000e-002) (40, -8.52912366390228270000e-002) (41, -4.04367372393608090000e-002) (42, 6.85914084315299990000e-002) (43, -6.75279423594474790000e-002) (44, 9.74126085638999940000e-002) (45, 3.30620296299457550000e-002) (46, -4.05693463981151580000e-002) (47, 8.86346027255058290000e-003) (48, -2.16168947517871860000e-002) (49, 1.47346116136759520000e-003) (50, -2.73627713322639470000e-002) (51, -4.28450778126716610000e-002) (52, -4.89985458552837370000e-002) (53, 9.19149816036224370000e-002) (54, -9.76041182875633240000e-002) (55, 5.85319995880126950000e-002) (56, 9.17193442583084110000e-002) (57, -3.72315454296767710000e-003) (58, 3.21918725967407230000e-002) (59, 8.43208283185958860000e-002) (60, -8.95514935255050660000e-002) (61, 2.23830193281173710000e-002) (62, 3.94431687891483310000e-003) (63, -6.65317848324775700000e-002) (64, -6.28551989793777470000e-002) (65, -8.35643056780099870000e-003) (66, 2.99202054738998410000e-002) (67, 1.85514390468597410000e-002) (68, -9.35386121273040770000e-002) (69, 8.26493278145790100000e-002) (70, -8.16840603947639470000e-002) (71, -6.04919856414198880000e-003) (72, 9.62095484137535100000e-002) (73, 5.86152933537960050000e-002) (74, 8.72266516089439390000e-002) (75, -2.91388947516679760000e-002) (76, -1.25081865116953850000e-002) (77, -8.88027772307395940000e-002) (78, -2.03351657837629320000e-002) (79, 6.91249445080757140000e-002) (80, -3.39179523289203640000e-002) (81, -4.05372753739356990000e-002) (82, 8.59857797622680660000e-002) (83, -7.45212566107511520000e-003) (84, 9.08402204513549800000e-002) (85, 3.13038681633770470000e-003) (86, -8.68499930948019030000e-003) (87, -8.70689153671264650000e-002) (88, -1.01156821474432950000e-002) (89, 2.77070030570030210000e-002) (90, 1.62834618240594860000e-002) (91, -5.14420941472053530000e-002) (92, -5.48062250018119810000e-002) (93, -9.80082200840115550000e-004) (94, -7.10341557860374450000e-002) (95, 8.76091420650482180000e-002) (96, 2.68821064382791520000e-002) (97, 8.08092430233955380000e-002) (98, 3.75295765697956090000e-002) (99, -9.52380895614624020000e-002) (100, -9.88227277994155880000e-002) (101, 1.49166351184248920000e-002) (102, -2.62041129171848300000e-002) (103, 5.73846176266670230000e-002) (104, 3.69873791933059690000e-002) (105, -4.08088192343711850000e-002) (106, 8.04102793335914610000e-002) (107, -5.38790002465248110000e-002) (108, 7.17588514089584350000e-002) (109, -1.39346225187182430000e-002) (110, 7.42546468973159790000e-002) (111, -7.35732540488243100000e-002) (112, 9.56519991159439090000e-002) (113, 7.65169560909271240000e-002) (114, -3.81092019379138950000e-002) (115, 2.19658352434635160000e-002) (116, 1.73270180821418760000e-002) (117, 4.19133827090263370000e-002) (118, 1.78822688758373260000e-002) (119, -1.35048897936940190000e-002) (120, -6.43439739942550660000e-002) (121, 1.46281421184539790000e-002) (122, 3.28044295310974120000e-002) (123, 3.04955290630459790000e-003) (124, -6.00416846573352810000e-002) (125, -1.12772971391677860000e-001) (0, 4.90738227963447570000e-002) (1, -9.87571626901626590000e-002) (2, 2.91435210965573790000e-003) (3, -7.34669044613838200000e-002) (4, -5.13742938637733460000e-002) (5, -1.73507332801818850000e-002) (6, 1.44871016964316370000e-002) (7, -8.89837145805358890000e-002) (8, -1.08893485739827160000e-002) (9, -9.30804833769798280000e-002) (10, 4.73587363958358760000e-002) (11, -2.53380555659532550000e-002) (12, -4.06585223972797390000e-002) (13, -1.74838956445455550000e-002) (14, 3.66662852466106410000e-002) (15, 5.18631301820278170000e-002) (16, -9.31957438588142400000e-002) (17, 4.30752784013748170000e-002) (18, 3.93527634441852570000e-002) (19, -5.29731344431638720000e-003) (20, -7.12020471692085270000e-002) (21, -9.36201214790344240000e-002) (22, 3.95813054637983440000e-004) (23, 5.76604269444942470000e-002) (24, 9.25251320004463200000e-002) (25, 1.94858328904956580000e-003) (26, 7.14080408215522770000e-003) (27, -2.42289081215858460000e-002) (28, 8.40181410312652590000e-002) (29, 9.89970937371253970000e-002) (30, -6.45595788955688480000e-003) (31, 9.13805142045021060000e-002) (32, -3.26360911130905150000e-002) (33, 1.20681058615446090000e-002) (34, -2.26674950681626800000e-003) (35, -3.17977517843246460000e-002) (36, 8.44649225473403930000e-002) (37, -5.99437095224857330000e-002) (38, 2.90752053260803220000e-002) (39, 6.81412220001220700000e-002) (40, -8.97933617234230040000e-002) (41, -5.60443662106990810000e-002) (42, -3.05393971502780910000e-002) (43, 2.41786185652017590000e-002) (44, 1.17661245167255400000e-002) (45, 5.46890571713447570000e-002) (46, -2.34030396677553650000e-003) (47, 8.62396322190761570000e-003) (48, 2.11674142628908160000e-002) (49, 3.22336181998252870000e-002) (50, -4.50283288955688480000e-003) (51, -4.04094643890857700000e-002) (52, 9.58815962076187130000e-002) (53, -3.79582904279232030000e-002) (54, -6.41274228692054750000e-002) (55, 1.21616141404956580000e-003) (56, 4.68699075281620030000e-003) (57, 3.78585048019886020000e-002) (58, 1.25272609293460850000e-002) (59, -6.89217224717140200000e-002) (60, -5.10421320796012880000e-002) (61, -5.72120957076549530000e-002) (62, 3.61663736402988430000e-002) (63, 1.02621456608176230000e-002) (64, -3.08815706521272660000e-002) (65, 1.51932127773761750000e-002) (66, 8.34939852356910710000e-002) (67, 5.59550821781158450000e-002) (68, -5.48479184508323670000e-002) (69, -7.76170864701271060000e-002) (70, -3.95736284554004670000e-002) (71, 9.79781150817871090000e-002) (72, -3.22425551712512970000e-002) (73, -7.33454152941703800000e-002) (74, -2.18932144343853000000e-002) (75, 3.49563919007778170000e-002) (76, -8.53715613484382630000e-002) (77, -2.96057178638875480000e-003) (78, -9.84093025326728820000e-002) (79, 6.48060590028762820000e-002) (80, 4.42093200981616970000e-002) (81, 7.14938640594482420000e-002) (82, 9.62868779897689820000e-002) (83, 2.32029203325510030000e-002) (84, -4.40741255879402160000e-002) (85, -3.64730469882488250000e-002) (86, -4.10999841988086700000e-002) (87, -6.84595480561256410000e-002) (88, 2.47852988541126250000e-002) (89, -6.86430409550666810000e-002) (90, 9.33426097035408020000e-002) (91, -8.53536054491996770000e-002) (92, -1.07690226286649700000e-002) (93, 9.57174897193908690000e-002) (94, 3.12474258244037630000e-002) (95, 2.46109385043382640000e-002) (96, 2.45851334184408190000e-002) (97, 5.90252280235290530000e-002) (98, 5.49704208970069890000e-002) (99, 4.52694110572338100000e-002) (100, 1.49185545742511750000e-002) (101, -6.53608366847038270000e-002) (102, 5.18072023987770080000e-002) (103, -9.01056155562400820000e-002) (104, 7.35109969973564150000e-002) (105, -2.89168953895568850000e-002) (106, -1.67518518865108490000e-002) (107, -6.34024068713188170000e-002) (108, -8.20332840085029600000e-002) (109, -9.99889969825744630000e-002) (110, -7.17574730515480040000e-002) (111, -6.14482127130031590000e-002) (112, 8.05013552308082580000e-002) (113, 8.63486304879188540000e-002) (114, 5.52724953740835190000e-003) (115, 4.55643013119697570000e-002) (116, -1.41594437882304190000e-002) (117, -6.23642988502979280000e-002) (118, 2.75229308754205700000e-002) (119, 1.45829152315855030000e-002) (120, -9.37911644577980040000e-002) (121, 7.85937383770942690000e-002) (122, -8.15680474042892460000e-002) (123, -4.14258353412151340000e-002) (124, -5.11914081871509550000e-002) (125, -2.33407691121101380000e-002) (0, -2.32470091432332990000e-002) (1, -1.34003942366689440000e-003) (2, -2.16337814927101140000e-002) (3, 5.25937639176845550000e-002) (4, 4.14100326597690580000e-002) (5, 1.88116263598203660000e-003) (6, -4.53139543533325200000e-002) (7, 3.15400473773479460000e-002) (8, -1.77531968802213670000e-002) (9, -7.68359750509262080000e-002) (10, 2.41223722696304320000e-002) (11, -5.53864315152168270000e-002) (12, 1.86451300978660580000e-002) (13, 6.95609077811241150000e-002) (14, 5.60306832194328310000e-002) (15, -8.60399827361106870000e-002) (16, 8.41163545846939090000e-002) (17, 4.72199805080890660000e-002) (18, -7.98515677452087400000e-002) (19, -3.83609160780906680000e-002) (20, -7.81115218997001650000e-002) (21, 8.86000618338584900000e-002) (22, 3.75700555741786960000e-002) (23, -2.80692037194967270000e-002) (24, -6.56082183122634890000e-002) (25, -7.35033676028251650000e-002) (26, 7.97003358602523800000e-002) (27, 2.59520914405584340000e-002) (28, 9.24087166786193850000e-002) (29, -9.54415276646614070000e-002) (30, -4.31871972978115080000e-002) (31, 5.94125278294086460000e-002) (32, 9.39607918262481690000e-002) (33, -9.03934240341186520000e-002) (34, -4.08670417964458470000e-002) (35, 5.76795041561126710000e-002) (36, -9.57743823528289790000e-002) (37, -1.01591004058718680000e-002) (38, 1.32495574653148650000e-002) (39, -7.32644870877265930000e-002) (40, 5.93030340969562530000e-002) (41, 6.31689280271530150000e-002) (42, 8.98456051945686340000e-002) (43, 7.79835209250450130000e-002) (44, 5.26259131729602810000e-002) (45, -2.16051619499921800000e-002) (46, -5.47313503921031950000e-002) (47, 3.78773249685764310000e-002) (48, 1.37901594862341880000e-002) (49, -8.26311483979225160000e-002) (50, 3.28259877860546110000e-002) (51, -6.02725073695182800000e-002) (52, -3.24801430106163020000e-002) (53, 2.69389953464269640000e-002) (54, -5.33442869782447810000e-002) (55, 8.77203233540058140000e-003) (56, -9.54833030700683590000e-002) (57, 4.12815585732460020000e-002) (58, 6.33021816611289980000e-002) (59, 7.81145542860031130000e-002) (60, -5.05724474787712100000e-002) (61, 1.72715750522911550000e-003) (62, -8.48895460367202760000e-002) (63, 7.64990225434303280000e-002) (64, 4.04947325587272640000e-002) (65, 3.61890234053134920000e-002) (66, -2.11067460477352140000e-002) (67, 9.46317911148071290000e-002) (68, 3.48755642771720890000e-002) (69, 8.46947655081748960000e-002) (70, 1.62732508033514020000e-002) (71, -7.85164628177881240000e-003) (72, 2.27585062384605410000e-002) (73, -3.84594947099685670000e-002) (74, 2.71471291780471800000e-002) (75, -4.62450571358203890000e-002) (76, -1.35238962247967720000e-002) (77, 1.39377880841493610000e-002) (78, -1.74328498542308810000e-002) (79, -6.78647682070732120000e-002) (80, -1.14977424964308740000e-002) (81, -1.60168278962373730000e-002) (82, -3.11591755598783490000e-002) (83, 1.77545901387929920000e-002) (84, 1.22029462363570930000e-003) (85, -6.24376870691776280000e-002) (86, -6.75337240099906920000e-002) (87, 4.57113832235336300000e-002) (88, -7.60806724429130550000e-003) (89, 4.49743233621120450000e-002) (90, 5.27112409472465520000e-002) (91, 9.92600172758102420000e-002) (92, -4.57907021045684810000e-002) (93, -9.65602397918701170000e-002) (94, -8.72874408960342410000e-002) (95, 1.56018650159239770000e-002) (96, -9.37362909317016600000e-002) (97, -3.59639786183834080000e-002) (98, -7.22998157143592830000e-002) (99, -6.12867362797260280000e-002) (100, -4.26561906933784480000e-002) (101, -3.12517173588275910000e-002) (102, -2.91998721659183500000e-002) (103, 5.25912009179592130000e-002) (104, 4.31336537003517150000e-002) (105, -4.31933030486106870000e-002) (106, 7.45980516076087950000e-002) (107, -8.92532989382743840000e-002) (108, 4.96047213673591610000e-002) (109, -6.67926296591758730000e-002) (110, -5.38073107600212100000e-002) (111, -8.65757092833518980000e-002) (112, -8.88825654983520510000e-002) (113, -1.55825950205326080000e-002) (114, -3.98778840899467470000e-002) (115, -5.05114123225212100000e-002) (116, 1.25336311757564540000e-002) (117, -9.68520864844322200000e-002) (118, -8.61633103340864180000e-003) (119, -6.27191513776779170000e-002) (120, 8.45715925097465520000e-002) (121, -7.07378685474395750000e-002) (122, -7.60042816400527950000e-002) (123, -9.51249524950981140000e-002) (124, -9.66626033186912540000e-002) (125, 7.12928548455238340000e-002) (0, 3.41681651771068570000e-002) (1, 