FANN_FLO_2.1
num_layers=5
learning_rate=0.700000
connection_rate=1.000000
network_type=0
learning_momentum=0.000000
training_algorithm=2
train_error_function=0
train_stop_function=1
cascade_output_change_fraction=0.010000
quickprop_decay=-0.000100
quickprop_mu=1.750000
rprop_increase_factor=1.200000
rprop_decrease_factor=0.500000
rprop_delta_min=0.000000
rprop_delta_max=50.000000
rprop_delta_zero=0.100000
cascade_output_stagnation_epochs=12
cascade_candidate_change_fraction=0.010000
cascade_candidate_stagnation_epochs=12
cascade_max_out_epochs=150
cascade_min_out_epochs=50
cascade_max_cand_epochs=150
cascade_min_cand_epochs=50
cascade_num_candidate_groups=2
bit_fail_limit=3.49999994039535520000e-001
cascade_candidate_limit=1.00000000000000000000e+003
cascade_weight_multiplier=4.00000005960464480000e-001
cascade_activation_functions_count=10
cascade_activation_functions=3 5 7 8 10 11 14 15 16 17 
cascade_activation_steepnesses_count=4
cascade_activation_steepnesses=2.50000000000000000000e-001 5.00000000000000000000e-001 7.50000000000000000000e-001 1.00000000000000000000e+000 
layer_sizes=8 11 8 6 4 
scale_included=0
neurons (num_inputs, activation_function, activation_steepness)=(0, 0, 0.00000000000000000000e+000) (0, 0, 0.00000000000000000000e+000) (0, 0, 0.00000000000000000000e+000) (0, 0, 0.00000000000000000000e+000) (0, 0, 0.00000000000000000000e+000) (0, 0, 0.00000000000000000000e+000) (0, 0, 0.00000000000000000000e+000) (0, 0, 0.00000000000000000000e+000) (8, 11, 1.00000000000000000000e+000) (8, 11, 1.00000000000000000000e+000) (8, 11, 1.00000000000000000000e+000) (8, 11, 1.00000000000000000000e+000) (8, 11, 1.00000000000000000000e+000) (8, 11, 1.00000000000000000000e+000) (8, 11, 1.00000000000000000000e+000) (8, 11, 1.00000000000000000000e+000) (8, 11, 1.00000000000000000000e+000) (8, 11, 1.00000000000000000000e+000) (0, 11, 1.00000000000000000000e+000) (11, 11, 1.00000000000000000000e+000) (11, 11, 1.00000000000000000000e+000) (11, 11, 1.00000000000000000000e+000) (11, 11, 1.00000000000000000000e+000) (11, 11, 1.00000000000000000000e+000) (11, 11, 1.00000000000000000000e+000) (11, 11, 1.00000000000000000000e+000) (0, 11, 1.00000000000000000000e+000) (8, 11, 1.00000000000000000000e+000) (8, 11, 1.00000000000000000000e+000) (8, 11, 1.00000000000000000000e+000) (8, 11, 1.00000000000000000000e+000) (8, 11, 1.00000000000000000000e+000) (0, 11, 1.00000000000000000000e+000) (6, 8, 1.00000000000000000000e+000) (6, 8, 1.00000000000000000000e+000) (6, 8, 1.00000000000000000000e+000) (0, 8, 1.00000000000000000000e+000) 
connections (connected_to_neuron, weight)=(0, 2.39431834220886230000e+000) (1, -5.45865476131439210000e-001) (2, 3.61865353584289550000e+000) (3, 5.05733680725097660000e+001) (4, -8.49111795425415040000e-001) (5, 1.26230612397193910000e-001) (6, 1.57959178090095520000e-001) (7, 1.32389056682586670000e+000) (0, 5.80959975719451900000e-001) (1, -2.37872552871704100000e+000) (2, 8.14082920551300050000e-001) (3, 1.24614953994750980000e+000) (4, -3.60955685377120970000e-001) (5, -6.46303147077560420000e-002) (6, 3.19980353116989140000e-001) (7, -1.27843523025512700000e+000) (0, 8.23861002922058110000e-001) (1, 6.37953519821166990000e-001) (2, 3.65794986486434940000e-001) (3, 8.78062605857849120000e-001) (4, 4.93578612804412840000e-001) (5, 1.17372564971446990000e-001) (6, 1.05547487735748290000e+000) (7, -1.44538640975952150000e+000) (0, 9.98110175132751460000e-002) (1, 1.34940969944000240000e+000) (2, 2.94269979000091550000e-001) (3, -1.89783319830894470000e-001) (4, 1.72984957695007320000e-001) (5, 6.78307354450225830000e-001) (6, 3.42720717191696170000e-001) (7, -4.48819547891616820000e-001) (0, -4.61428910493850710000e-001) (1, 4.39527225494384770000e+000) (2, 9.89531874656677250000e-001) (3, 1.19835305213928220000e+000) (4, -5.94953656196594240000e-001) (5, 2.08580422401428220000e+000) (6, 1.82564723491668700000e+000) (7, -2.05704253166913990000e-002) (0, -4.92624431848526000000e-001) (1, 1.28414463996887210000e+000) (2, -1.12405622005462650000e+000) (3, -1.53830528259277340000e-001) (4, -7.31659054756164550000e-001) (5, -1.00538790225982670000e-001) (6, -3.50020140409469600000e-001) (7, -1.47278964519500730000e+000) (0, 9.32182669639587400000e-002) (1, 3.24070930480957030000e-001) (2, 4.61580067873001100000e-001) (3, 8.12223553657531740000e-001) (4, 1.49493813514709470000e+000) (5, 9.63425695896148680000e-001) (6, 1.92678734660148620000e-001) (7, -1.69804286956787110000e+000) (0, 1.38957006856799130000e-002) (1, -4.70829099416732790000e-001) (2, 1.10055553913116460000e+000) (3, 2.10872158408164980000e-001) (4, 1.37051808834075930000e+000) (5, -8.49776625633239750000e-001) (6, 1.56506085395812990000e+000) (7, -2.19554528594017030000e-001) (0, -5.87542712688446040000e-001) (1, 7.87230968475341800000e-001) (2, 7.39900320768356320000e-002) (3, 4.18506443500518800000e-001) (4, 1.16316027939319610000e-001) (5, 1.08110681176185610000e-001) (6, 1.10247480869293210000e+000) (7, -2.08640083670616150000e-001) (0, 1.96703478693962100000e-001) (1, 3.66624295711517330000e-001) (2, 7.11759507656097410000e-001) (3, 1.52934885025024410000e+000) (4, -1.19489572942256930000e-001) (5, 5.62827028334140780000e-002) (6, 8.67550540715456010000e-003) (7, -3.43796521425247190000e-001) (8, 1.01642668247222900000e+000) (9, 6.77542746067047120000e-001) (10, 1.83474794030189510000e-001) (11, 1.23508408665657040000e-001) (12, 1.28773093223571780000e+000) (13, 4.32340472936630250000e-001) (14, 1.01136863231658940000e+000) (15, 1.01696264743804930000e+000) (16, 1.01351290941238400000e-002) (17, 5.94118297100067140000e-001) (18, 5.88642014190554620000e-003) (8, 7.18065321445465090000e-001) (9, 1.04756760597229000000e+000) (10, 1.26686656475067140000e+000) (11, 6.45454466342926030000e-001) (12, 6.46166324615478520000e-001) (13, -1.79413795471191410000e-001) (14, -7.75502026081085210000e-001) (15, 5.04931747913360600000e-001) (16, 8.99311780929565430000e-001) (17, -2.60506272315979000000e-001) (18, -3.07696521282196040000e-001) (8, 6.73314869403839110000e-001) (9, -4.62355315685272220000e-001) (10, 5.53256928920745850000e-001) (11, 1.00536239147186280000e+000) (12, 1.68574586510658260000e-001) (13, 1.16754055023193360000e+000) (14, 7.64071643352508540000e-001) (15, 2.48732581734657290000e-001) (16, 4.62087064981460570000e-001) (17, 3.88434022665023800000e-001) (18, 3.73827308416366580000e-001) (8, 2.77073979377746580000e-001) (9, 3.87288093566894530000e-001) (10, 5.67957997322082520000e-001) (11, 1.16407656669616700000e+000) (12, -5.71467459201812740000e-001) (13, 2.57949501276016240000e-001) (14, -4.34709519147872920000e-001) (15, 9.80633124709129330000e-002) (16, 4.69773471355438230000e-001) (17, -7.08130836486816410000e-001) (18, -2.25592702627182010000e-001) (8, -5.60532994568347930000e-002) (9, -8.77831041812896730000e-001) (10, -9.13003861904144290000e-001) (11, -1.08403289318084720000e+000) (12, -1.12784661352634430000e-001) (13, 2.94646203517913820000e-001) (14, 2.50409334897995000000e-001) (15, -3.27265202999114990000e-001) (16, 4.79945629835128780000e-001) (17, -5.51407575607299800000e-001) (18, 4.56316351890563960000e-001) (8, -3.89709502458572390000e-001) (9, -2.16162323951721190000e-001) (10, 1.00743114948272710000e+000) (11, 4.75300341844558720000e-001) (12, -5.43669164180755620000e-001) (13, 1.37103760242462160000e+000) (14, 1.14864122867584230000e+000) (15, -6.54527425765991210000e-001) (16, 9.51935127377510070000e-002) (17, 9.98955130577087400000e-001) (18, 1.35417088866233830000e-001) (8, -6.87214359641075130000e-002) (9, -1.13855779170989990000e+000) (10, 2.13250532746315000000e-001) (11, -4.39063221216201780000e-001) (12, 1.02407515048980710000e+000) (13, 1.26079487800598140000e+000) (14, -1.33484244346618650000e+000) (15, 1.28249669075012210000e+000) (16, 1.13640773296356200000e+000) (17, 5.58219969272613530000e-001) (18, 1.77844583988189700000e-001) (19, 1.07678079605102540000e+000) (20, 1.03229153156280520000e+000) (21, -3.52394253015518190000e-001) (22, 2.20308795571327210000e-001) (23, 2.63637065887451170000e-001) (24, 1.02993197739124300000e-001) (25, 2.56339937448501590000e-001) (26, -1.58862531185150150000e+000) (19, 1.05251014232635500000e+000) (20, 7.70398080348968510000e-001) (21, -1.96200951933860780000e-001) (22, 4.99071717262268070000e-001) (23, 5.54232478141784670000e-001) (24, 7.22615957260131840000e-001) (25, 6.14930093288421630000e-001) (26, -2.52425134181976320000e-001) (19, 7.11296617984771730000e-001) (20, 5.00201225280761720000e-001) (21, -3.30000042915344240000e-001) (22, -1.02832373231649400000e-002) (23, 8.50781977176666260000e-001) (24, -4.53260600566864010000e-001) (25, 8.10124158859252930000e-001) (26, 2.38422140479087830000e-001) (19, 5.22130072116851810000e-001) (20, 1.35901615023612980000e-001) (21, 5.50348520278930660000e-001) (22, 3.02107959985733030000e-001) (23, 9.94479715824127200000e-001) (24, 5.69986999034881590000e-001) (25, 6.60920321941375730000e-001) (26, -4.64733660221099850000e-001) (19, 4.66676503419876100000e-001) (20, 1.01610887050628660000e+000) (21, -1.88369408249855040000e-001) (22, -3.14354658126831050000e-001) (23, 6.30389332771301270000e-001) (24, 3.26662451028823850000e-001) (25, 9.12394225597381590000e-002) (26, -1.26708185672760010000e+000) (27, 8.03692102432250980000e-001) (28, 1.00254452228546140000e+000) (29, -4.11140590906143190000e-001) (30, 3.46423000097274780000e-001) (31, 4.94216740131378170000e-001) (32, -5.53044855594635010000e-001) (27, 7.18916475772857670000e-001) (28, -6.03310286998748780000e-001) (29, 1.14606702327728270000e+000) (30, -5.33966779708862300000e-001) (31, 6.10461592674255370000e-001) (32, -4.49531167745590210000e-001) (27, 5.08594036102294920000e-001) (28, 1.37930500507354740000e+000) (29, 8.60707163810729980000e-001) (30, -4.72209393978118900000e-001) (31, 1.04426765441894530000e+000) (32, 1.55388996005058290000e-001) 
