FANN_FLO_2.1
num_layers=3
learning_rate=0.890000
connection_rate=1.000000
network_type=1
learning_momentum=0.740000
training_algorithm=2
train_error_function=0
train_stop_function=0
cascade_output_change_fraction=0.010000
quickprop_decay=-0.000100
quickprop_mu=1.750000
rprop_increase_factor=0.500100
rprop_decrease_factor=0.055300
rprop_delta_min=0.000000
rprop_delta_max=50.000000
rprop_delta_zero=0.100000
cascade_output_stagnation_epochs=12
cascade_candidate_change_fraction=0.010000
cascade_candidate_stagnation_epochs=12
cascade_max_out_epochs=150
cascade_min_out_epochs=50
cascade_max_cand_epochs=150
cascade_min_cand_epochs=50
cascade_num_candidate_groups=2
bit_fail_limit=3.49999999999999980000e-001
cascade_candidate_limit=1.00000000000000000000e+003
cascade_weight_multiplier=4.00000000000000020000e-001
cascade_activation_functions_count=10
cascade_activation_functions=3 5 7 8 10 11 14 15 16 17 
cascade_activation_steepnesses_count=4
cascade_activation_steepnesses=2.50000000000000000000e-001 5.00000000000000000000e-001 7.50000000000000000000e-001 1.00000000000000000000e+000 
layer_sizes=126 29 3 
scale_included=0
neurons (num_inputs, activation_function, activation_steepness)=(0, 0, 0.00000000000000000000e+000) (0, 0, 0.00000000000000000000e+000) (0, 0, 0.00000000000000000000e+000) (0, 0, 0.00000000000000000000e+000) (0, 0, 0.00000000000000000000e+000) (0, 0, 0.00000000000000000000e+000) (0, 0, 0.00000000000000000000e+000) (0, 0, 0.00000000000000000000e+000) (0, 0, 0.00000000000000000000e+000) (0, 0, 0.00000000000000000000e+000) (0, 0, 0.00000000000000000000e+000) (0, 0, 0.00000000000000000000e+000) (0, 0, 0.00000000000000000000e+000) (0, 0, 0.00000000000000000000e+000) (0, 0, 0.00000000000000000000e+000) (0, 0, 0.00000000000000000000e+000) (0, 0, 0.00000000000000000000e+000) (0, 0, 0.00000000000000000000e+000) (0, 0, 0.00000000000000000000e+000) (0, 0, 0.00000000000000000000e+000) (0, 0, 0.00000000000000000000e+000) (0, 0, 0.00000000000000000000e+000) (0, 0, 0.00000000000000000000e+000) (0, 0, 0.00000000000000000000e+000) (0, 0, 0.00000000000000000000e+000) (0, 0, 0.00000000000000000000e+000) (0, 0, 0.00000000000000000000e+000) (0, 0, 0.00000000000000000000e+000) (0, 0, 0.00000000000000000000e+000) (0, 0, 0.00000000000000000000e+000) (0, 0, 0.00000000000000000000e+000) (0, 0, 0.00000000000000000000e+000) (0, 0, 0.00000000000000000000e+000) (0, 0, 0.00000000000000000000e+000) (0, 0, 0.00000000000000000000e+000) (0, 0, 0.00000000000000000000e+000) (0, 0, 0.00000000000000000000e+000) (0, 0, 0.00000000000000000000e+000) (0, 0, 0.00000000000000000000e+000) (0, 0, 0.00000000000000000000e+000) (0, 0, 0.00000000000000000000e+000) (0, 0, 0.00000000000000000000e+000) (0, 0, 0.00000000000000000000e+000) (0, 0, 0.00000000000000000000e+000) (0, 0, 0.00000000000000000000e+000) (0, 0, 0.00000000000000000000e+000) (0, 0, 0.00000000000000000000e+000) (0, 0, 0.00000000000000000000e+000) (0, 0, 0.00000000000000000000e+000) (0, 0, 0.00000000000000000000e+000) (0, 0, 0.00000000000000000000e+000) (0, 0, 0.00000000000000000000e+000) (0, 0, 0.00000000000000000000e+000) (0, 0, 0.00000000000000000000e+000) (0, 0, 0.00000000000000000000e+000) (0, 0, 0.00000000000000000000e+000) (0, 0, 0.00000000000000000000e+000) (0, 0, 0.00000000000000000000e+000) (0, 0, 0.00000000000000000000e+000) (0, 0, 0.00000000000000000000e+000) (0, 0, 0.00000000000000000000e+000) (0, 0, 0.00000000000000000000e+000) (0, 0, 0.00000000000000000000e+000) (0, 0, 0.00000000000000000000e+000) (0, 0, 0.00000000000000000000e+000) (0, 0, 0.00000000000000000000e+000) (0, 0, 0.00000000000000000000e+000) (0, 0, 0.00000000000000000000e+000) (0, 0, 0.00000000000000000000e+000) (0, 0, 0.00000000000000000000e+000) (0, 0, 0.00000000000000000000e+000) (0, 0, 0.00000000000000000000e+000) (0, 0, 0.00000000000000000000e+000) (0, 0, 0.00000000000000000000e+000) (0, 0, 0.00000000000000000000e+000) (0, 0, 0.00000000000000000000e+000) (0, 0, 0.00000000000000000000e+000) (0, 0, 0.00000000000000000000e+000) (0, 0, 0.00000000000000000000e+000) (0, 0, 0.00000000000000000000e+000) (0, 0, 0.00000000000000000000e+000) (0, 0, 0.00000000000000000000e+000) (0, 0, 0.00000000000000000000e+000) (0, 0, 0.00000000000000000000e+000) (0, 0, 0.00000000000000000000e+000) (0, 0, 0.00000000000000000000e+000) (0, 0, 0.00000000000000000000e+000) (0, 0, 0.00000000000000000000e+000) (0, 0, 0.00000000000000000000e+000) (0, 0, 0.00000000000000000000e+000) (0, 0, 0.00000000000000000000e+000) (0, 0, 0.00000000000000000000e+000) (0, 0, 0.00000000000000000000e+000) (0, 0, 0.00000000000000000000e+000) (0, 0, 0.00000000000000000000e+000) (0, 0, 0.00000000000000000000e+000) (0, 0, 0.00000000000000000000e+000) (0, 0, 0.00000000000000000000e+000) (0, 0, 0.00000000000000000000e+000) (0, 0, 0.00000000000000000000e+000) (0, 0, 0.00000000000000000000e+000) (0, 0, 0.00000000000000000000e+000) (0, 0, 0.00000000000000000000e+000) (0, 0, 0.00000000000000000000e+000) (0, 0, 0.00000000000000000000e+000) (0, 0, 0.00000000000000000000e+000) (0, 0, 0.00000000000000000000e+000) (0, 0, 0.00000000000000000000e+000) (0, 0, 0.00000000000000000000e+000) (0, 0, 0.00000000000000000000e+000) (0, 0, 0.00000000000000000000e+000) (0, 0, 0.00000000000000000000e+000) (0, 0, 0.00000000000000000000e+000) (0, 0, 0.00000000000000000000e+000) (0, 0, 0.00000000000000000000e+000) (0, 0, 0.00000000000000000000e+000) (0, 0, 0.00000000000000000000e+000) (0, 0, 0.00000000000000000000e+000) (0, 0, 0.00000000000000000000e+000) (0, 0, 0.00000000000000000000e+000) (0, 0, 0.00000000000000000000e+000) (0, 0, 0.00000000000000000000e+000) (0, 0, 0.00000000000000000000e+000) (0, 0, 0.00000000000000000000e+000) (0, 0, 0.00000000000000000000e+000) (0, 0, 0.00000000000000000000e+000) (126, 5, 1.00000000000000000000e+000) (126, 5, 1.00000000000000000000e+000) (126, 5, 1.00000000000000000000e+000) (126, 5, 1.00000000000000000000e+000) (126, 5, 1.00000000000000000000e+000) (126, 5, 1.00000000000000000000e+000) (126, 5, 1.00000000000000000000e+000) (126, 5, 1.00000000000000000000e+000) (126, 5, 1.00000000000000000000e+000) (126, 5, 1.00000000000000000000e+000) (126, 5, 1.00000000000000000000e+000) (126, 5, 1.00000000000000000000e+000) (126, 5, 1.00000000000000000000e+000) (126, 5, 1.00000000000000000000e+000) (126, 5, 1.00000000000000000000e+000) (126, 5, 1.00000000000000000000e+000) (126, 5, 1.00000000000000000000e+000) (126, 5, 1.00000000000000000000e+000) (126, 5, 1.00000000000000000000e+000) (126, 5, 1.00000000000000000000e+000) (126, 5, 1.00000000000000000000e+000) (126, 5, 1.00000000000000000000e+000) (126, 5, 1.00000000000000000000e+000) (126, 5, 1.00000000000000000000e+000) (126, 5, 1.00000000000000000000e+000) (126, 5, 1.00000000000000000000e+000) (126, 5, 1.00000000000000000000e+000) (126, 5, 1.00000000000000000000e+000) (126, 5, 1.00000000000000000000e+000) (155, 6, 1.00000000000000000000e+000) (155, 6, 1.00000000000000000000e+000) (155, 6, 1.00000000000000000000e+000) 
connections (connected_to_neuron, weight)=(0, -6.60646556603642920000e+002) (1, -1.49958571358671820000e+003) (2, -4.86943191739391750000e+002) (3, 1.49193900373897010000e+000) (4, -5.97535836027109380000e+000) (5, -1.43996106566608660000e+000) (6, 8.15997087198482630000e+002) (7, -1.49939608305607820000e+003) (8, -4.84051465868398340000e+002) (9, 7.09973091269851330000e+000) (10, 8.17049370538949220000e-001) (11, -1.49596560417360890000e+000) (12, -1.21353787435944540000e+003) (13, -1.49960112221076040000e+003) (14, 1.00872049568664930000e+003) (15, 8.39409959121974580000e+000) (16, -4.08513641894445990000e+000) (17, 1.62859506158823600000e+001) (18, -6.87783345251701120000e+002) (19, -1.49699478054689690000e+003) (20, -1.49857172353773060000e+003) (21, 7.13322897181712980000e+000) (22, 2.05268440574911610000e+002) (23, -1.49954555541316840000e+003) (24, -4.21975156808154910000e+002) (25, -1.48803297037509670000e+003) (26, -1.06342303148572840000e+003) (27, 5.34410127802754880000e+000) (28, -1.57340938092473570000e+001) (29, -1.49495809025979520000e+003) (30, 5.64746759995487540000e+002) (31, -1.47057876718495140000e+003) (32, 1.08276141121283880000e+003) (33, 6.73850490080738940000e+000) (34, 7.60847357001896400000e+002) (35, -1.49937939242793820000e+003) (36, -6.53045264177110650000e+002) (37, -1.36389423883584750000e+003) (38, 1.00861277729811550000e+003) (39, -1.03606108931590870000e+003) (40, -1.49382321002590660000e+002) (41, -1.49954817640209310000e+003) (42, 5.92116839404486430000e+002) (43, -1.47701438289579210000e+003) (44, 1.06810965019185960000e+003) (45, -1.29524116988240530000e+003) (46, -5.48960231672535170000e+001) (47, -1.49960333351830290000e+003) (48, 3.21139953986365530000e+002) (49, -5.05708688515327250000e+002) (50, -4.35384653271313310000e+002) (51, -1.49951035235319820000e+003) (52, -2.02433642276361700000e+002) (53, -1.49094518715259850000e+003) (54, -7.20106850500524160000e+002) (55, -1.49264096011913170000e+003) (56, 9.62739518657425610000e+002) (57, -1.49360392669320120000e+003) (58, 9.68676253961061380000e+000) (59, -1.11266022002701130000e+003) (60, -5.77141084581287260000e+002) (61, -1.47765042730477240000e+003) (62, -5.29768260168957110000e+002) (63, -1.29689056078284600000e+003) (64, -1.21340971820281740000e+003) (65, -1.40908030613346360000e+003) (66, -4.88646926075287690000e+002) (67, -1.47826170193199250000e+003) (68, -5.80631362202862310000e+002) (69, -1.47791782096890320000e+003) (70, -4.86335676349556590000e+002) (71, -9.54646972383742310000e+002) (72, -6.60712494916722450000e+002) (73, -1.20012350878796000000e+003) (74, -3.06722895527191100000e+002) (75, -1.39089619333985710000e+003) (76, -3.02655943118478720000e+002) (77, -3.75801535181880180000e+002) (78, -7.96166479018649510000e+002) (79, -1.23437382743253220000e+003) (80, 1.08469987741792560000e+003) (81, -1.49872072361697750000e+003) (82, -2.29762309112168590000e+002) (83, -1.49373556836269150000e+003) (84, 5.76145577717863030000e+002) (85, -8.00101322625738020000e+002) (86, 8.54753320318963010000e+001) (87, -8.06277085711823390000e+001) (88, 2.84742952420483810000e+001) (89, -1.49946277238004720000e+003) (90, 5.89628706459977590000e+002) (91, -1.36855615940034800000e+003) (92, -6.71705501279578810000e+001) (93, -3.83726957360420540000e+001) (94, -7.68800413883006260000e+001) (95, -1.36816677391041120000e+003) (96, 8.30630904373308110000e+002) (97, -7.33308801496193720000e+002) (98, -9.99308794295811030000e+002) (99, -7.00786438180789900000e+002) (100, -1.00703226538421580000e+001) (101, -1.49405930468763970000e+003) (102, -2.15749668591296170000e+002) (103, -8.39753484320917780000e+002) (104, 4.13448872479295350000e+002) (105, -1.07075229645581270000e+003) (106, -7.83396306533705470000e+000) (107, -1.24401714706748980000e+003) (108, 4.82566502160227910000e+002) (109, -8.23659738686865010000e+002) (110, 7.39453588565657010000e+002) (111, -1.47318343397620470000e+003) (112, -1.49957832573220890000e+003) (113, -6.71988821028590560000e+002) (114, 3.74287059241045030000e+002) (115, -5.15111218864014120000e+000) (116, 4.89267847555225500000e+002) (117, -1.48439175726878440000e+003) (118, -1.49584973951886240000e+003) (119, -1.24189171560642190000e+003) (120, -8.94422915201421010000e+002) (121, 1.12301864605419810000e+003) (122, -3.98696014690344100000e+002) (123, -1.27595488676264970000e+003) (124, -7.27774110849211300000e+002) (125, 6.92246854336968230000e+002) (0, 1.22133134657933580000e+003) (1, -6.28793045607452970000e+001) (2, 8.21868821334387080000e+000) (3, 2.10790657041799000000e+000) (4, 1.49999835657988110000e+003) (5, 3.82118964690128350000e+001) (6, 1.49965999876698990000e+003) (7, -4.38007084671369460000e+002) (8, 4.93404116791971430000e+000) (9, -1.25304195419178410000e+001) (10, 1.49821622303492650000e+003) (11, 2.73906297543079760000e+000) (12, 1.38673612476735520000e+003) (13, -4.74013785553809780000e+002) (14, -8.76478068144079200000e+002) (15, -4.58314046754307130000e+002) (16, 1.49839813485438140000e+003) (17, 5.93210304388904750000e+001) (18, 1.24425139865867980000e+003) (19, -6.31227985292601600000e+002) (20, 6.04089582302757930000e+001) (21, -3.88739882338936910000e+001) (22, 1.49975398949965140000e+003) (23, 3.11065006781670150000e+002) (24, 1.26059756311747810000e+003) (25, -1.38933604238130560000e+002) (26, -4.17193350303645260000e+001) (27, 2.82170706331316010000e+002) (28, 1.49967561967852000000e+003) (29, 1.82862241951139910000e+002) (30, 1.49949964885859370000e+003) (31, -7.64642659294453670000e+002) (32, -1.25799585060887840000e+002) (33, -6.56640857098587960000e+002) (34, 1.49999418974980090000e+003) (35, 2.53390564075001550000e+002) (36, 1.38096266456108950000e+003) (37, -1.23562781329042080000e+003) (38, -1.26946434632071710000e+002) (39, -3.97245156712276810000e+002) (40, -7.35306895429087490000e+002) (41, 4.37974960706531650000e+002) (42, 1.49976496628527230000e+003) (43, -2.49535068445015750000e+002) (44, -3.10090708121332970000e+002) (45, -1.49043413203245000000e+003) (46, -8.46277077475665750000e+001) (47, 1.66825736923035520000e+002) (48, 1.02698922058242370000e+003) (49, -1.69224273500450350000e+002) (50, -4.39581253248111580000e+002) (51, -9.41639977958650770000e+002) (52, -1.17177545168995110000e+003) (53, 3.34985327276321360000e+002) (54, 1.47516348407378290000e+003) (55, -1.19717953967082830000e+003) (56, 1.42177280086567550000e+002) (57, -1.45676529021828610000e+003) (58, 5.93722998226451410000e+002) (59, 2.23462442527020670000e+002) (60, 1.49911521000503880000e+003) (61, -2.40739874742324250000e+002) (62, -1.04307404076220800000e+001) (63, -1.37764247505262260000e+003) (64, 7.49592786189610790000e+001) (65, -6.47739011710682010000e+002) (66, 1.25688682061845040000e+003) (67, -6.20804845838228740000e+002) (68, 3.57030645192890920000e+002) (69, 1.49831064067414420000e+003) (70, 1.49999961537608940000e+003) (71, -5.11331894192399830000e+002) (72, 1.47221355699229160000e+003) (73, -3.69352517306151920000e+001) (74, 2.35918640271170630000e+002) (75, 1.49984633624578460000e+003) (76, 1.49882157890205190000e+003) (77, 6.92302779749899600000e+001) (78, 1.35225637568023560000e+003) (79, -2.45220810019622550000e+002) (80, -5.98315493350351180000e+002) (81, 1.49987499143671430000e+003) (82, 1.49999098750974420000e+003) (83, -1.34173295782588340000e+003) (84, 1.30281478117861750000e+003) (85, -9.16164777451559190000e+002) (86, -7.75942474063081140000e+002) (87, 8.67218241143188830000e+002) (88, -2.92550708308648150000e+002) (89, -9.25521496863650100000e+002) (90, 1.38966555685671160000e+003) (91, -1.02756564007424210000e+003) (92, 1.48032247774761250000e+003) (93, 2.64637390746050300000e+002) (94, -5.00208300947894810000e+001) (95, 4.56704457464754800000e+002) (96, 1.49947380488265430000e+003) (97, -7.15611158781067050000e+002) (98, 1.85572591299419680000e+002) (99, -1.49963911079633730000e+003) (100, 7.63868399639332890000e+002) (101, 8.90176883324682540000e+002) (102, 1.49884244454277110000e+003) (103, 4.21863572484031290000e+002) (104, 2.42082789074436220000e+002) (105, -4.12750409956545750000e+002) (106, 7.06334205569316960000e+002) (107, 1.49999411154979020000e+003) (108, 1.49964499294670710000e+003) (109, 2.49877680118197190000e+002) (110, 4.80517580685611160000e+002) (111, -1.39295397406397800000e+003) (112, -1.31769711110818300000e+003) (113, 7.72972880687827800000e+002) (114, 1.49986522158537880000e+003) (115, 1.23214517356444000000e+003) (116, 3.91812279686645650000e+001) (117, -1.01434656464696470000e+002) (118, 5.46441070762864110000e+002) (119, -1.02157512024149840000e+003) (120, 1.49959837978975590000e+003) (121, 1.13824107454585670000e+003) (122, 1.49941231068114260000e+003) (123, -1.49873656476795100000e+003) (124, 1.49999465422973230000e+003) (125, 1.49968442761168690000e+003) (0, -1.49938383737437880000e+003) (1, -1.49959472333067270000e+003) (2, -7.76080419359462180000e+001) (3, 1.49868615897295990000e+003) (4, -1.11299743422757680000e+003) (5, 4.02357581344246910000e+002) (6, -1.49935781082534120000e+003) (7, -1.49980340571814960000e+003) (8, -9.15204104773990140000e+002) (9, -7.99157049939668240000e+002) (10, 1.33510977507860230000e+003) (11, 2.03274975335192350000e+002) (12, -1.49960663869223210000e+003) (13, -1.49984122126149900000e+003) (14, -3.46742363128581020000e+002) (15, -1.49393547325228560000e+003) (16, -4.15006677038546630000e+002) (17, 9.25971497115515720000e+002) (18, -1.49960964345034220000e+003) (19, 6.03399415560164270000e+001) (20, -1.04830506486917850000e+003) (21, -1.49980095749531070000e+003) (22, -1.49995916321642880000e+003) (23, -2.90591140359085110000e+001) (24, -1.49933845366474880000e+003) (25, -1.49932105842264560000e+003) (26, 1.46740178427837720000e+002) (27, -1.38837032212691950000e+003) (28, 2.88909353832239160000e+002) (29, 1.49049955180454140000e+003) (30, -1.49925573783317690000e+003) (31, -1.26166077714158250000e+003) (32, -1.20712150337967800000e+002) (33, -9.42901181909220100000e+002) (34, 3.68540735784960820000e+002) (35, 1.49723474369404580000e+003) (36, -1.49924698136806770000e+003) (37, -1.49884166166895310000e+003) (38, 2.05612993223646240000e+002) (39, -4.71726729676276020000e+002) (40, -1.49925673058900750000e+003) (41, -1.03159153361923360000e+003) (42, -1.49863517451598390000e+003) (43, -3.05798507016783330000e+002) (44, -1.49848802940819040000e+003) (45, -1.01893273518787810000e+003) (46, -1.49966076028864090000e+003) (47, -1.49968446384394000000e+003) (48, -1.49959398186763450000e+003) (49, -1.49884875011416580000e+003) (50, -3.83426345624912240000e+002) (51, -1.10354303216989590000e+003) (52, -1.49976119159403560000e+003) (53, -8.78247998523337740000e+002) (54, -1.49936219440120520000e+003) (55, -1.49134169375609190000e+003) (56, -1.49954696722518590000e+003) (57, 2.78295636893497200000e+002) (58, 1.12076606927222590000e+003) (59, -1.49989027135609880000e+003) (60, -1.49928821593848560000e+003) (61, -1.29227024984172270000e+003) (62, -7.94104522418791930000e+002) (63, -1.16880430474306170000e+003) (64, -1.49122675284795350000e+003) (65, -1.49987935256258630000e+003) (66, -1.49928923276794440000e+003) (67, -7.32809711702174010000e+002) (68, 5.00846304502238350000e+002) (69, -5.16943391274892520000e+002) (70, -1.49978353842198180000e+003) (71, -1.49984897535329490000e+003) (72, -1.49949350876707720000e+003) (73, -1.37066694896025820000e+003) (74, 1.48337521903641710000e+003) (75, -1.22462285285224860000e+003) (76, 9.35352604451070140000e+001) (77, -1.49990776153665050000e+003) (78, -1.49981870945703190000e+003) (79, -1.49885762387013710000e+003) (80, -1.49876111825661750000e+003) (81, -1.16644494166759800000e+003) (82, 1.44261616527490490000e+003) (83, -1.49986090680837830000e+003) (84, -1.49931175262796460000e+003) (85, -1.48147494913537530000e+003) (86, -1.49860951823244140000e+003) (87, 8.15167316121023650000e+002) (88, -1.49975580194864820000e+003) (89, -9.64395756767205850000e+002) (90, -1.49953813523360030000e+003) (91, -1.46424021110128300000e+003) (92, -1.49947007042251610000e+003) (93, 1.49761277549774220000e+003) (94, -1.49176775535373050000e+003) (95, -9.11001314141230750000e+002) (96, -1.49883303284625230000e+003) (97, -1.23156000817132940000e+003) (98, -1.49801822909572270000e+003) (99, 3.45352440009784290000e+002) (100, 1.41057503739554250000e+003) (101, -1.48438704768618660000e+003) (102, -1.49878928099552810000e+003) (103, -1.49313915562536110000e+003) (104, -1.49953802372508520000e+003) (105, 1.45994423928168820000e+003) (106, -1.49449774316849490000e+003) (107, -1.49909433993478750000e+003) (108, -1.49869404890015330000e+003) (109, -1.49260505124120910000e+003) (110, -1.49956386146436630000e+003) (111, -1.49911418132129620000e+003) (112, 6.87116265077743490000e+002) (113, -1.34234554444939090000e+003) (114, -1.49738777000099180000e+003) (115, -1.49912177981892840000e+003) (116, -1.49855202960614950000e+003) (117, 1.28035288372206880000e+003) (118, -1.48955895141564720000e+003) (119, -1.49955675253189470000e+003) (120, -1.49778599429748510000e+003) (121, -1.07065918663907720000e+003) (122, 8.79390851274738910000e+002) (123, -3.94122810831074160000e+002) (124, -1.41921364581772830000e+003) (125, 1.49590309266871100000e+003) (0, -1.48816488187931400000e+003) (1, -1.41855496591861880000e+003) (2, 3.35159305959752880000e+002) (3, 9.85036628537565520000e+001) (4, -1.43617916816991940000e+003) (5, 1.42690353656151840000e+003) (6, -1.48805838827990350000e+003) (7, -1.46596700403032580000e+003) (8, -1.36440656082531650000e+003) (9, 1.21530229616566130000e+003) (10, -3.25821424284571090000e+002) (11, -1.20365137680686490000e+002) (12, -1.49993461492234360000e+003) (13, -1.48415702450482690000e+003) (14, -1.49964732165337430000e+003) (15, -1.49923351121616590000e+003) (16, -2.97625771833689500000e+002) (17, -1.49288463579526800000e+003) (18, -1.48809832307990200000e+003) (19, -9.56590548444078880000e+002) (20, -1.49996522546358320000e+003) (21, -7.82789301113110920000e+002) (22, 8.78523944254823960000e+002) (23, -1.49211922529117810000e+003) (24, -1.49995644911915090000e+003) (25, -1.46572033440172120000e+003) (26, -1.49997473595874270000e+003) (27, -1.49749949336617280000e+003) (28, -1.07979795545704610000e+003) (29, -1.49200244247313640000e+003) (30, -1.49952002633001350000e+003) (31, -1.48797965007773750000e+003) (32, -1.49989203829828260000e+003) (33, 1.32929751810122020000e+003) (34, 1.41930803040418640000e+003) (35, -1.49203751945023050000e+003) (36, -1.49992038451145800000e+003) (37, -1.48904945570637550000e+003) (38, -1.49949227503672140000e+003) (39, -1.49283429631212080000e+003) (40, 1.41937572992539820000e+003) (41, -1.41843809090668470000e+003) (42, -1.48810319894364190000e+003) (43, -1.48573624577316900000e+003) (44, -1.49997840821622070000e+003) (45, -1.13303201573886640000e+003) (46, 6.55055449936919670000e+002) (47, -1.41855767831695880000e+003) (48, -1.49371966668357370000e+003) (49, -9.26664946137331530000e+002) (50, -1.49998004821329100000e+003) (51, 1.33757057387922190000e+003) (52, 1.49988590477266050000e+003) (53, -1.00610989470520040000e+003) (54, -1.48804786215022860000e+003) (55, -1.48871554578518070000e+003) (56, -1.49997467055577200000e+003) (57, 1.49991838686549140000e+003) (58, 7.97097016806521990000e+002) (59, -1.41853321250157050000e+003) (60, -1.49994505641910910000e+003) (61, -1.38199989913528160000e+003) (62, -1.49989668831304810000e+003) (63, -1.49058895210342120000e+003) (64, 1.49894941412173310000e+003) (65, -1.45101800386252650000e+003) (66, -1.49993817180832530000e+003) (67, -1.44949437051556740000e+003) (68, -1.49996310334162330000e+003) (69, 1.49576463312070630000e+003) (70, 1.49345116139966010000e+003) (71, -2.74735250500040820000e+002) (72, -1.49993803475553750000e+003) (73, -1.00156561523830950000e+003) (74, -1.49992255820441280000e+003) (75, -1.42636624434142570000e+003) (76, 1.12168510511425420000e+003) (77, -1.48843614625729240000e+003) (78, -1.48801707527354260000e+003) (79, -1.48194836777190060000e+003) (80, 8.66569367181515080000e+002) (81, 7.93639314682107740000e+002) (82, 6.14357066837659770000e+002) (83, -1.44147295011974480000e+003) (84, -1.49993824187019780000e+003) (85, -1.46667843139693920000e+003) (86, 6.52564608857008810000e+002) (87, 1.44933319909412580000e+003) (88, 1.49999951456995090000e+003) (89, -9.26465644956454180000e+002) (90, -1.49993808728608470000e+003) (91, -1.47413310069734370000e+003) (92, -1.49590454517519580000e+003) (93, -1.45878486339447610000e+003) (94, 1.49999628411981420000e+003) (95, -1.48564412903451400000e+003) (96, -1.49993318068309490000e+003) (97, -1.47283458823025790000e+003) (98, -1.49932663350586090000e+003) (99, -4.79515521400053900000e+002) (100, -1.46817557415941450000e+003) (101, -1.48899186170182380000e+003) (102, -1.49992768736766830000e+003) (103, -1.37097696387237490000e+003) (104, -1.49958673056410410000e+003) (105, -1.45872309921357100000e+003) (106, 1.49874063657606510000e+003) (107, -8.74629289262450020000e+002) (108, -1.49993546179106060000e+003) (109, -1.01163511062343100000e+003) (110, -1.49871836459985910000e+003) (111, 1.49579755646860370000e+003) (112, -1.49815683131038690000e+003) (113, -1.07449558919314290000e+003) (114, -1.48812457353708100000e+003) (115, -1.44048866801447090000e+003) (116, 8.74084254518823400000e+002) (117, -1.49242030776549060000e+003) (118, -1.49932508974864160000e+003) (119, -1.22026412299357890000e+003) (120, -1.49993389818708560000e+003) (121, -9.11860288646992100000e+002) (122, -8.07564224537886590000e+001) (123, 1.49574670751344230000e+003) (124, -8.57500602342474510000e+002) (125, -1.18306554350113970000e+003) (0, 1.45486785355350710000e+003) (1, -1.49839006191008930000e+003) (2, 5.91588681381029120000e+002) (3, 3.62749778553223790000e+002) (4, 7.77982854988526240000e+002) (5, 4.42165670183661460000e+002) (6, -9.20470056800365230000e+002) (7, -1.49815551690029040000e+003) (8, 1.16996313760362610000e+003) (9, -1.49508474524435040000e+003) (10, 1.49967272621510780000e+003) (11, 7.76462392238520120000e+002) (12, -1.49994906987489250000e+003) (13, -1.49842512890523950000e+003) (14, 1.49758587127915010000e+003) (15, -6.37146633984389950000e+002) (16, 1.49994047625586240000e+003) (17, -6.56093505875599130000e+002) (18, 1.25007865102921730000e+003) (19, -1.49851577583347970000e+003) (20, 1.49771378610964760000e+003) (21, 1.31783295965108210000e+003) (22, 1.30266861128468330000e+003) (23, -1.48723474496399330000e+003) (24, -1.49925665494681650000e+003) (25, -1.49849713182015630000e+003) (26, 1.49766459116774400000e+003) (27, -1.13278073472687540000e+003) (28, 6.38869893667521640000e+002) (29, -1.49555801861957090000e+003) (30, 1.45242708114585230000e+003) (31, -1.49893147351394800000e+003) (32, 1.49731451458281480000e+003) (33, 1.49899303178552780000e+003) (34, -3.32626111664519100000e+002) (35, -1.49358248820330980000e+003) (36, -1.49728638482049130000e+003) (37, -1.49979424477640050000e+003) (38, 1.21311859779740640000e+003) (39, -1.47734818939848950000e+003) (40, 1.47635950360872130000e+003) (41, -1.49360707640488700000e+003) (42, -1.49729421272040460000e+003) (43, -1.49992140028720660000e+003) (44, 1.45754817775702030000e+003) (45, 1.46513958484279960000e+003) (46, 1.49911071857009690000e+003) (47, -1.49361616970540540000e+003) (48, -1.14065053709122280000e+003) (49, -1.49944998258980970000e+003) (50, 1.49772403324032580000e+003) (51, 2.21994380819483720000e+001) (52, -1.31395216223703870000e+002) (53, -1.49361348668665350000e+003) (54, 1.45236065579671300000e+003) (55, -1.49981257837028850000e+003) (56, 8.58632372857216860000e+002) (57, -1.49366034322054610000e+003) (58, -1.50693033332710140000e+002) (59, -1.49370450414841820000e+003) (60, 5.26859942505143290000e+002) (61, -1.49941674226412690000e+003) (62, 1.49968314106525670000e+003) (63, -1.13925569470300550000e+003) (64, -7.15006156819370060000e+002) (65, -1.49969761931579800000e+003) (66, 1.24772336303080690000e+003) (67, -1.49992778381378500000e+003) (68, -4.57877356331689100000e+002) (69, -1.32366072103980630000e+003) (70, 1.49903686442541170000e+003) (71, -1.49985917444454320000e+003) (72, 1.44808056911774590000e+003) (73, -1.49984199645712030000e+003) (74, -1.45671453548937710000e+003) (75, -1.58128285376675240000e+001) (76, -5.59189773272374850000e+002) (77, -1.36133175006867830000e+003) (78, 1.45210418197692140000e+003) (79, -1.49790644919242910000e+003) (80, -1.37523883386389230000e+003) (81, 8.22962776414632910000e+001) (82, -1.42979844931166890000e+003) (83, -1.49930862721292010000e+003) (84, 6.50624400583571860000e+002) (85, -1.49984181573515980000e+003) (86, -7.74120408825919530000e+002) (87, -1.49888934278824240000e+003) (88, -1.49480164613208010000e+003) (89, -1.49061619222507940000e+003) (90, 1.05416160037631610000e+002) (91, -1.49835445022815950000e+003) (92, -1.07951191444460520000e+002) (93, 1.11976156247483690000e+002) (94, 1.49611623464717850000e+003) (95, -1.49772488603200080000e+003) (96, -1.49984839810976290000e+003) (97, -1.49813903043641540000e+003) (98, -1.36774612960071110000e+003) (99, 1.42708423053813820000e+002) (100, -4.29529495760581990000e+002) (101, -1.38334664110423480000e+003) (102, 1.40938417681627070000e+002) (103, -1.49898127524256820000e+003) (104, 2.99059188982966480000e+002) (105, -1.40879360493790560000e+002) (106, -1.49061218774184930000e+003) (107, -1.49974032996382040000e+003) (108, -1.49988674526086770000e+003) (109, -1.49813636194212720000e+003) (110, 1.49745232814183370000e+003) (111, 1.17938337147547420000e+003) (112, 1.49890496615040050000e+003) (113, -1.45472832065334660000e+003) (114, 1.44795479688874050000e+003) (115, -1.49808213793792700000e+003) (116, 1.49842645229144250000e+003) (117, -7.57244551008142930000e+002) (118, 1.49936945367167140000e+003) (119, -1.46269058256451630000e+003) (120, 1.43416826395147090000e+003) (121, -1.48730365771603810000e+003) (122, 1.49963869023691290000e+003) (123, 6.93573097128064430000e+002) (124, 1.49939342163613490000e+003) (125, -1.49988343042406130000e+003) (0, -7.43289644016228980000e+002) (1, -1.49992941653344910000e+003) (2, 1.00205509088587390000e+003) (3, 1.49902820519320080000e+003) (4, 1.48991777377382710000e+003) (5, 6.15119245270560550000e+002) (6, -1.49610898315609780000e+003) (7, -1.25171458843740970000e+003) (8, -3.34982406575582440000e+002) (9, -1.36363921404616920000e+003) (10, -3.14597085447381460000e+002) (11, 4.23673725152577730000e+002) (12, -1.49991691097733340000e+003) (13, -1.49994408924233650000e+003) (14, 1.45975345045311610000e+003) (15, -1.48034520300056740000e+003) (16, 1.68567540979528450000e+002) (17, -9.01974827049509490000e+002) (18, -1.49645542952559410000e+003) (19, -1.49995058816457230000e+003) (20, 1.08420802589042770000e+003) (21, 1.49905487682125570000e+003) (22, 1.49851333385642280000e+003) (23, -1.42615902219311490000e+003) (24, -1.49871305117445220000e+003) (25, -1.49992305448044500000e+003) (26, 7.47143569409323730000e+002) (27, -1.41270037569854320000e+003) (28, -1.48248640584837770000e+003) (29, 1.84488321229308610000e+002) (30, -1.13775313997646120000e+003) (31, -1.49724522527967720000e+003) (32, 1.49891408894011990000e+003) (33, 1.42543931604848940000e+003) (34, -1.48671491527048310000e+003) (35, -8.14509656036951950000e+001) (36, 1.01826020244503820000e+002) (37, -1.49724598359493580000e+003) (38, 1.08479401011475190000e+003) (39, -1.47078484227897770000e+003) (40, 1.15078244223180720000e+003) (41, -1.29946215130694690000e+003) (42, -4.85344703967457120000e+002) (43, -1.49723987031932870000e+003) (44, 1.49926918317764720000e+003) (45, 1.15834939982847750000e+003) (46, 5.18636440411312040000e+002) (47, -1.36201988769708460000e+003) (48, -6.97476216041825520000e+002) (49, -1.49724319341346900000e+003) (50, 1.49902323969933760000e+003) (51, 1.49585452824144910000e+003) (52, -1.49984953273923930000e+003) (53, -1.49998016034249420000e+003) (54, -1.49691860720855520000e+003) (55, -1.49724439227350290000e+003) (56, -7.72456886896512630000e+002) (57, -1.49555619336844050000e+003) (58, -1.49926485401553600000e+003) (59, -1.49995165195801110000e+003) (60, 1.46203049901710190000e+002) (61, -1.49722866867247260000e+003) (62, 1.08427837103175470000e+003) (63, -1.48310517707869800000e+003) (64, -1.49687857574294210000e+003) (65, -1.49994158927262520000e+003) (66, -1.49993712456680120000e+003) (67, -1.49723624581249150000e+003) (68, -1.18307423205766580000e+003) (69, -1.49199171730119110000e+003) (70, -2.48132307710710480000e+002) (71, -1.49993787225801320000e+003) (72, -1.49957685687801340000e+003) (73, -1.49724521665319050000e+003) (74, 1.01014315387151830000e+003) (75, 3.83304887832217840000e+002) (76, -1.26929262926202640000e+003) (77, -1.49993341450318210000e+003) (78, -3.30796303726206300000e+002) (79, -1.49725547187035820000e+003) (80, 1.37841501727420880000e+003) (81, 1.49135177456265140000e+003) (82, -2.69635049444669110000e+002) (83, -1.49995355065650120000e+003) (84, -1.14310568250701070000e+003) (85, -1.49708255898232710000e+003) (86, 7.90214393187326780000e+002) (87, -1.22524089254912310000e+003) (88, -1.25313267173972050000e+003) (89, -1.49992945033049340000e+003) (90, -1.49644772804234370000e+003) (91, -1.49708825130904670000e+003) (92, -1.49441118794209500000e+003) (93, 1.48616247235365380000e+003) (94, 9.20552662362552070000e+001) (95, -1.49722543663224270000e+003) (96, -1.44879484939737180000e+003) (97, -1.49706374969325040000e+003) (98, -1.49589009880041200000e+003) (99, 1.48627180592314310000e+003) (100, -1.49977331734997210000e+003) (101, -1.49724193410245450000e+003) (102, 1.21515713817353180000e+003) (103, -1.49259170882097080000e+003) (104, 1.08467855470360680000e+003) (105, -1.49198955090106030000e+003) (106, -1.49999348252372190000e+003) (107, -1.49725056029037820000e+003) (108, -1.45250404971406900000e+003) (109, -1.49259807066475330000e+003) (110, -1.49443273100054440000e+003) (111, 8.99458519037554540000e+002) (112, -1.45738810572910170000e+003) (113, -1.49729280620417940000e+003) (114, -1.49992807933041380000e+003) (115, -1.49260839224467050000e+003) (116, 1.08472843915882710000e+003) (117, 6.92078490415667720000e+002) (118, -1.49999998894000050000e+003) (119, -1.49730806984970600000e+003) (120, 3.51559674264936860000e+002) (121, -1.49574400608625230000e+003) (122, 8.08704572851100920000e+002) (123, -1.49988072481101470000e+003) (124, -6.97362372519291400000e+002) (125, 1.49815696169942270000e+003) (0, -1.09083539405568940000e+003) (1, -1.14511881134066470000e+003) (2, 6.06822991553785530000e+002) (3, -1.49759974927651410000e+003) (4, 8.19073353346528730000e+002) (5, 1.44618454708840070000e+003) (6, -5.44354608085183370000e+002) (7, -1.13931263658830270000e+003) (8, 2.23692987754540580000e+002) (9, 1.48729969249671560000e+003) (10, 1.47925644537878200000e+003) (11, 1.49873420269616350000e+003) (12, -1.15032250237662030000e+002) (13, -8.04582811781436590000e+002) (14, 9.17629980418383750000e+002) (15, 1.48336801494727000000e+003) (16, -9.96207976263613090000e+002) (17, 1.49984774456369970000e+003) (18, 3.58963768731095120000e+002) (19, -5.60953194447436320000e+002) (20, -1.24411804434913260000e+003) (21, -7.62402144313134390000e+002) (22, -1.49994562722166780000e+003) (23, 1.49768514249692090000e+003) (24, 1.16436172380287920000e+003) (25, -8.66325623877339240000e+002) (26, 8.40527142985184100000e+001) (27, 1.12449499136150940000e+003) (28, 1.49536317943428780000e+003) (29, 1.49774092076478880000e+003) (30, 3.89866539039144360000e+002) (31, -3.90486521942965680000e+002) (32, -1.49991214350189600000e+003) (33, -1.25281871110773610000e+003) (34, 1.60921334542451830000e+002) (35, 1.49957611922765270000e+003) (36, -2.81047662660146670000e+002) (37, 5.45074334375476950000e+002) (38, -1.49664939676444560000e+003) (39, 1.49674039284150650000e+003) (40, -1.49966857098811080000e+003) (41, 9.66338002642664260000e+002) (42, -6.87003525578160180000e+002) (43, 1.14655656285433880000e+003) (44, -1.49977468028728500000e+003) (45, -1.47686322137899470000e+003) (46, -1.49968853942350350000e+003) (47, -7.55503475367077390000e+002) (48, -1.14805273134748470000e+003) (49, -1.49489211125103410000e+003) (50, -1.47898611058025060000e+003) (51, -1.47076598325653140000e+003) (52, -1.16563425892890060000e+003) (53, -1.14209125157117980000e+003) (54, -4.75003345402382190000e+002) (55, -6.62357785250757270000e+002) (56, 6.74797609029111640000e+002) (57, -9.35527581686458800000e+002) (58, 1.46685084551303860000e+003) (59, -1.13590766084634470000e+003) (60, -3.44954225917219620000e+002) (61, -4.98015293544856600000e+002) (62, 1.29198196750821650000e+003) (63, -6.42172707930128580000e+002) (64, 1.49611175545204380000e+003) (65, -1.12488083911246890000e+003) (66, -2.70977400721790670000e+002) (67, 3.59932686909273000000e+002) (68, 9.16128386722215740000e+002) (69, 1.49931127009515510000e+003) (70, -1.46620676671672890000e+003) (71, -5.56147051720322220000e+002) (72, -3.07333536947160780000e+002) (73, 3.82041752947785200000e+002) (74, -6.13548369239336470000e+002) (75, 1.49793472618109650000e+003) (76, 1.48331323999659280000e+003) (77, 7.29158455598993670000e+002) (78, -3.93146218563123850000e+002) (79, -1.41510108020311090000e+002) (80, -9.82890173963353500000e+002) (81, -9.98416399991085310000e+002) (82, 1.49995216022820090000e+003) (83, 7.95852009786074520000e+002) (84, -1.72547935879056420000e+001) (85, -9.41330636631528710000e+002) (86, -5.95013019836359040000e+002) (87, 1.12517470257847250000e+003) (88, 1.47213951478839040000e+003) (89, 1.35743153212538370000e+003) (90, 2.05047032946169950000e+001) (91, -1.04968379675712250000e+003) (92, -1.45544271024181130000e+003) (93, -1.31780506336934310000e+003) (94, -1.46066420033634650000e+003) (95, -1.53914771484934020000e+002) (96, 3.24282699311932730000e+002) (97, -8.00122204112917530000e+002) (98, 1.47469565338105100000e+003) (99, -1.31684941970983160000e+003) (100, 1.49994661067316880000e+003) (101, -1.26074156229268810000e+003) (102, -8.75899798669747500000e+002) (103, -2.48698899645818390000e+002) (104, 1.47389103690518870000e+003) (105, 1.49693191240904070000e+003) (106, 1.49993323904666390000e+003) (107, 6.41898356784611450000e+002) (108, -1.49090015017555950000e+003) (109, 4.62624615295049920000e+002) (110, 1.29140719011137090000e+003) (111, -1.21476613946300630000e+003) (112, 1.49913816654958960000e+003) (113, 1.05766334374820990000e+003) (114, 1.36553656110096510000e+002) (115, 1.19015526320502360000e+003) (116, -1.49998527554304660000e+003) (117, 1.49918339438176190000e+003) (118, 1.49976016094063430000e+003) (119, 2.09617447533400450000e+002) (120, -1.27733489307656200000e+002) (121, 6.11074231309410040000e+002) (122, -1.46065724189226170000e+003) (123, -1.21645012680279230000e+003) (124, -1.25730809066991880000e+003) (125, -1.49860699170474030000e+003) (0, -9.30907211432673080000e+002) (1, -1.34648540782746840000e+003) (2, -1.49998489994081890000e+003) (3, 8.29669441674446380000e+002) (4, -5.69222345590256400000e+002) (5, 5.87848413512980530000e+002) (6, -1.13393907915400020000e+003) (7, -1.34108220154485000000e+003) (8, -1.03508599028406250000e+003) (9, 1.32540175697872860000e+003) (10, -8.89567057871833750000e+002) (11, -2.71582083305623770000e+002) (12, -1.50271677422389250000e+002) (13, -1.34652747554261210000e+003) (14, 1.32484807452272210000e+003) (15, -9.07046208065375710000e+002) (16, 1.42542356919092120000e+003) (17, -1.49746021518175280000e+003) (18, -1.13334729018548140000e+003) (19, -1.34160839077328640000e+003) (20, 1.19493459987889830000e+003) (21, 6.11360977320170260000e+002) (22, 3.30019677215418770000e+002) (23, -1.49645927479960640000e+003) (24, -1.49730556182753180000e+003) (25, -1.35406340314057710000e+003) (26, 1.32519954986378710000e+003) (27, -1.05390746025813790000e+003) (28, -1.49963158589354910000e+003) (29, -1.48957195484197400000e+003) (30, -1.00216229431971360000e+003) (31, -7.35681163095635500000e+002) (32, 1.15519151677746210000e+003) (33, 1.18797040045863150000e+003) (34, 6.81955599937690980000e+002) (35, -1.47217505296139850000e+003) (36, -1.08103110842018300000e+003) (37, -1.34429598558057090000e+003) (38, -7.46506383650418460000e+002) (39, -1.49990717226498050000e+003) (40, 6.19738867747169250000e+002) (41, -1.47287848923574370000e+003) (42, -1.08094355870050300000e+003) (43, -1.34132867255747690000e+003) (44, 6.53469718387084410000e+002) (45, 1.49910692189940280000e+003) (46, 1.26935121653583840000e+003) (47, -1.43278387521617360000e+003) (48, -1.13387151836755810000e+003) (49, -1.49641734528071880000e+003) (50, 1.48776374353221380000e+003) (51, 1.13078799772858430000e+003) (52, -1.49759863287613010000e+003) (53, -1.43281267660433950000e+003) (54, -1.49734479456139640000e+003) (55, -1.49860187082190010000e+003) (56, 9.94949206886910250000e+002) (57, 1.49956764132084280000e+003) (58, -1.12442513436614260000e+003) (59, -1.30758033495777340000e+003) (60, -1.08160513536702620000e+003) (61, -1.49863572381351040000e+003) (62, -1.49990999799313070000e+003) (63, 5.07715744732919920000e+002) (64, -1.45123749668204870000e+003) (65, -1.30665195649863060000e+003) (66, 1.49600309533523570000e+003) (67, -1.49947704567818850000e+003) (68, 1.48494238557019090000e+003) (69, 4.19970686749796530000e+002) (70, -1.59692542114155990000e+001) (71, -1.30685485484847620000e+003) (72, -1.08089292063187740000e+003) (73, -1.49946105466423860000e+003) (74, -1.49656905252691060000e+003) (75, -1.49869140956576280000e+003) (76, -1.34550156517635400000e+003) (77, -1.30791143038592620000e+003) (78, -9.80049577759281530000e+002) (79, -1.49947054413082200000e+003) (80, -1.47796935310317580000e+003) (81, 1.17257763017514820000e+003) (82, -1.43184355924953180000e+003) (83, -1.33757449766493300000e+003) (84, 1.49871313883301670000e+003) (85, -1.49644457006682590000e+003) (86, -1.09411562363621150000e+003) (87, 6.93372493141152860000e+002) (88, -1.43559087531432370000e+003) (89, -1.34662479758213730000e+003) (90, -1.17077664636706530000e+003) (91, -1.49527353889458300000e+003) (92, -1.35161267589880690000e+003) (93, 1.48404449661359600000e+003) (94, -4.63606719690249180000e+002) (95, -1.39866921532087440000e+003) (96, -1.49982238543952800000e+003) (97, -1.49943412734618440000e+003) (98, -2.77449424869767750000e+001) (99, 1.49674948863254350000e+003) (100, -9.85575701752112990000e+002) (101, -1.40384880892229400000e+003) (102, -9.28979627955246430000e+002) (103, -1.46718849161672050000e+003) (104, -1.14832510621294570000e+003) (105, -1.13198189069722500000e+003) (106, -1.26825539413122010000e+003) (107, -1.47011301961299750000e+003) (108, -1.49695094803784240000e+003) (109, -1.49993139696916660000e+003) (110, -1.49995604236706660000e+003) (111, 1.49972506949075660000e+003) (112, 1.49747789135721520000e+003) (113, -1.46455863751240280000e+003) (114, -1.05527280441802030000e+003) (115, -1.49822149621689820000e+003) (116, -1.49997272546980530000e+003) (117, 9.10863858987953680000e+002) (118, 1.49998224939559400000e+003) (119, -1.46558267890067150000e+003) (120, -1.00306281967820880000e+003) (121, -1.49831003179213390000e+003) (122, -1.49648653541039830000e+003) (123, 9.20653840853024920000e+002) (124, -3.48157020084299570000e+002) (125, 9.62500704116835550000e+002) (0, -1.49892867878746670000e+003) (1, -1.49866473383302490000e+003) (2, -1.47750593972348750000e+003) (3, 1.39549828518567010000e+003) (4, -6.13177091040996170000e+002) (5, 1.18578013793532230000e+003) (6, -1.32171540880351040000e+003) (7, -1.49945655876199520000e+003) (8, -1.49711843240715460000e+003) (9, 1.22646976755469400000e+003) (10, -4.98083997794793670000e+002) (11, 1.06803621478733820000e+003) (12, -9.34337868485035190000e+002) (13, -1.49944252500310090000e+003) (14, 5.50654951815141590000e+001) (15, 2.00100259614485510000e+002) (16, -1.18948728862671060000e+003) (17, -1.19393512578216450000e+003) (18, -1.49998375046812340000e+003) (19, -1.49933794690892660000e+003) (20, 5.88249947845206520000e+002) (21, -1.29430005687156980000e+002) (22, -8.01108835501178310000e+002) (23, 3.58427448786333400000e+002) (24, -8.01031427379854450000e+002) (25, -1.49997671054376970000e+003) (26, -4.61025462045660160000e+002) (27, 1.27770960403687380000e+002) (28, -1.14372275617223950000e+003) (29, 1.49902707165642850000e+003) (30, -1.34396821695441800000e+003) (31, -1.49991847868113770000e+003) (32, -6.72001780335168750000e+002) (33, -1.47616275921336750000e+003) (34, -6.63528032767905190000e+002) (35, 7.85667407414461990000e+002) (36, -1.49990056895611630000e+003) (37, -1.49650425802395260000e+003) (38, -1.11260533670932020000e+002) (39, 1.06972838180587770000e+003) (40, -7.11331537441256840000e+002) (41, -1.03116869146981390000e+003) (42, -1.27265715127167500000e+003) (43, -1.49981782112701900000e+003) (44, -7.13245229834645670000e+002) (45, 7.68122841177897160000e+002) (46, 6.73854037716280100000e+000) (47, -1.49997673680688240000e+003) (48, -1.06433654920464890000e+003) (49, -1.49981517993121340000e+003) (50, -6.02793538625687920000e+002) (51, 1.36757229693849880000e+003) (52, -1.49994277273155760000e+003) (53, -1.49995669981151220000e+003) (54, -1.49996399380538130000e+003) (55, -1.49982503894366000000e+003) (56, -1.02136281913370110000e+003) (57, 1.37072598653274100000e+003) (58, -2.59581913433747730000e+002) (59, -7.85170896564615650000e+002) (60, -1.49152331191922550000e+003) (61, -1.48373432582608530000e+003) (62, -1.46771286328053410000e+003) (63, -3.01344934884894540000e+002) (64, -1.56737328423606730000e+002) (65, -4.82440030564796640000e+002) (66, -1.48419674711460020000e+003) (67, -1.48372116631671360000e+003) (68, -1.49132806737190980000e+003) (69, 1.14156633116149620000e+003) (70, 1.36778582973324680000e+003) (71, -1.05476576359345270000e+003) (72, -1.35419212861928640000e+003) (73, -1.19227823840734320000e+003) (74, -1.47294213162955410000e+003) (75, -7.48240171327213830000e+002) (76, -6.99169575049073390000e+002) (77, -1.49992800634968670000e+003) (78, -1.49989321770591000000e+003) (79, -1.20048016375324660000e+003) (80, -1.35595461997263900000e+003) (81, 5.37462501437626430000e+002) (82, -1.48652747617837920000e+003) (83, -1.49916678449740110000e+003) (84, -1.13246742472178970000e+003) (85, -1.11967601289633280000e+003) (86, -1.35011023705307960000e+003) (87, -1.48125929975399890000e+003) (88, -1.30129605289845880000e+003) (89, -1.49970467427097760000e+003) (90, -3.54981781747270700000e+002) (91, -1.14321044051066980000e+002) (92, -1.49663026812910380000e+003) (93, -5.13093621745978910000e+002) (94, 1.49998877658316060000e+003) (95, -1.49987926204808400000e+003) (96, -1.41415068619973450000e+003) (97, -1.49929275876687760000e+003) (98, 4.04918142014773760000e+002) (99, -5.95878030432467940000e+001) (100, -7.83075988685410490000e+002) (101, -1.49824050717916020000e+003) (102, -1.42814150098372510000e+003) (103, -8.13031856293769350000e+002) (104, 1.49771496802483470000e+003) (105, -1.35468046708888910000e+003) (106, -1.59555157098430980000e+002) (107, -1.49970577124910320000e+003) (108, -1.49896743625855860000e+003) (109, -1.29551334969678710000e+003) (110, -5.87667168248651710000e+002) (111, 1.03558320739908780000e+003) (112, -1.49675770092460450000e+003) (113, -1.49938157285423130000e+003) (114, 1.76840642224371720000e+002) (115, 1.71102781424399840000e+002) (116, -1.37966935209233130000e+003) (117, -9.97134119179095360000e+002) (118, -1.49873499481831390000e+003) (119, -1.49913811464332980000e+003) (120, -1.39034980434256730000e+003) (121, 8.25877993753418880000e+002) (122, -1.49634589051082840000e+003) (123, 1.49596752000517770000e+003) (124, 1.49971203309856450000e+003) (125, -1.48976176062034070000e+003) (0, 1.49795457244455200000e+003) (1, 1.47088947880046450000e+003) (2, -5.75579851745288350000e+002) (3, -1.49517252857680730000e+003) (4, 8.41985823339212170000e+002) (5, -1.49496979913367180000e+003) (6, -1.44601642039486770000e+003) (7, 1.47089573667100220000e+003) (8, -2.80764579468319880000e+002) (9, -3.97502117771565910000e+002) (10, 1.02081066203957570000e+003) (11, -1.29552832470290470000e+002) (12, -1.32995634913919500000e+003) (13, 1.47078498015652990000e+003) (14, -1.03909131218100220000e+003) (15, 1.31135893844722800000e+003) (16, -1.49776838580529080000e+003) (17, -1.03754491222778890000e+003) (18, 1.49811793422944330000e+003) (19, 1.46946777681358480000e+003) (20, -1.03139534742819160000e+003) (21, -2.73305228260687390000e+002) (22, -1.49938363084188860000e+003) (23, -6.00862257830908110000e+001) (24, -8.52188760263419790000e+002) (25, 1.46932622191915080000e+003) (26, -2.63129899315835930000e+002) (27, -9.66107946214745430000e+002) (28, 1.18201598083870520000e+003) (29, -2.83589913124626950000e+002) (30, 8.73782819760238680000e+002) (31, 1.37152454084145640000e+003) (32, 7.27315622524748960000e+002) (33, 1.48597569419958860000e+003) (34, 3.29493327283052740000e+002) (35, -1.02193794407515400000e+003) (36, -6.96664990028533420000e+001) (37, 1.23503768716851320000e+003) (38, 9.69802872035590300000e+001) (39, 7.01894183441692800000e+002) (40, 1.82476770016586670000e+002) (41, -5.76519664856625350000e+002) (42, 6.19987687595324700000e+002) (43, 1.09801617891982730000e+003) (44, 2.23403540530299920000e+002) (45, -2.22284280648288790000e+002) (46, -6.81524286645124110000e+002) (47, 1.47117951209711330000e+003) (48, -8.44678482366357230000e+002) (49, 6.01823410040992260000e+002) (50, -9.73530640337924410000e+002) (51, -1.47968121667911690000e+003) (52, 1.49859945019173510000e+003) (53, 1.47118940273225080000e+003) (54, -5.19856273896516650000e+002) (55, 1.08486113231315560000e+003) (56, -8.46858612229488700000e+002) (57, -8.09490853577515850000e+002) (58, 1.46575690719435060000e+003) (59, 1.06418007506248230000e+003) (60, 9.70574706375586090000e+001) (61, -3.57072496385353650000e+002) (62, 1.89590785254413990000e+002) (63, -1.47718583930923340000e+003) (64, -8.82678428159445500000e+002) (65, 1.47095265631610100000e+003) (66, 3.10863835609064950000e+002) (67, 4.25178752352411550000e+002) (68, -6.11830550617442100000e+002) (69, -1.49520441116142390000e+003) (70, -1.46244175691414670000e+003) (71, 1.27031067364154360000e+003) (72, -2.32837998010588310000e+002) (73, -1.03879882399104080000e+003) (74, 2.13813736080045260000e+002) (75, 7.71904387681915980000e+002) (76, 1.20114497993155190000e+003) (77, 1.47065350734603130000e+003) (78, -4.87128770753550500000e+002) (79, -1.13532775532242200000e+003) (80, 4.45956280857705680000e+002) (81, -1.49305234161287690000e+003) (82, -2.27964248833549730000e+002) (83, 1.01360815128841580000e+003) (84, -7.43216860027441440000e+001) (85, -9.78861949502379960000e+002) (86, 1.45488139108183600000e+003) (87, -3.21972464991930960000e+002) (88, 6.11534729655949150000e+001) (89, 3.33597010258206520000e+002) (90, -1.55083158802164430000e+002) (91, -2.46945729368145410000e+001) (92, 6.26157049686219010000e+002) (93, -1.49954761826751910000e+003) (94, -1.49986982655993440000e+003) (95, -5.49392251300049220000e+002) (96, 1.49809611934426630000e+003) (97, 9.78356769965993180000e+002) (98, -1.42404820891567710000e+002) (99, -1.49956329624132330000e+003) (100, 3.34191891198291050000e+002) (101, -5.46110302946068940000e+002) (102, -5.41128275859450580000e+002) (103, 1.09040182460469600000e+003) (104, 4.22053749343269320000e+002) (105, -1.13717789619070890000e+003) (106, 1.47976596888145470000e+003) (107, -1.81119631480131940000e+002) (108, 1.38509705117620050000e+003) (109, 9.85105375744769730000e+002) (110, -1.47323729824511320000e+003) (111, -2.55622876118885710000e+001) (112, 1.49748436018841990000e+003) (113, -3.51423560598018920000e+002) (114, -2.02134512049556780000e+002) (115, 9.54339988001404320000e+002) (116, -1.02258885957644270000e+003) (117, 1.33953387928131810000e+003) (118, 1.49974766376811570000e+003) (119, 1.47128822192452180000e+003) (120, 6.31473359299056260000e+002) (121, 1.04351948448727400000e+003) (122, -1.62925723721324490000e+002) (123, 1.48415986273009410000e+003) (124, -7.24499365977229900000e+002) (125, -1.49651818792369000000e+003) (0, 1.49814387353104420000e+003) (1, 1.07259978476208350000e+002) (2, 1.49974930251752810000e+003) (3, -8.75849003795983320000e+002) (4, -1.49188239595657570000e+003) (5, -1.49722758147306440000e+003) (6, 1.49981154370817760000e+003) (7, 2.47248652385875060000e+002) (8, 1.49994321650952680000e+003) (9, 5.02709565195249980000e+002) (10, 1.80650947670360550000e+002) (11, -1.49753670723047500000e+003) (12, 1.49864820288305690000e+003) (13, 5.52072298369498980000e+002) (14, 1.49996655363423020000e+003) (15, 1.49998040214872660000e+003) (16, -2.74424154956870890000e+002) (17, 9.15138108926912080000e+002) (18, 1.49740378272568730000e+003) (19, 1.49970774088649730000e+003) (20, 1.49943597789217100000e+003) (21, -1.49277409037514240000e+003) (22, -5.09931481617264690000e+002) (23, 1.49750427344694480000e+003) (24, 1.49871141324501420000e+003) (25, 1.44823611063559220000e+003) (26, 1.49898673993564080000e+003) (27, 1.49802759474559410000e+003) (28, 1.34286718058628980000e+003) (29, 1.49638512122269960000e+003) (30, 1.49982260806905580000e+003) (31, 1.49973957345085500000e+003) (32, 1.49938056457557170000e+003) (33, -1.49355233480438960000e+003) (34, 1.49265440885037200000e+003) (35, 1.49970957795410820000e+003) (36, 1.49976144917004420000e+003) (37, 1.26227749650828010000e+003) (38, 1.49940220247183470000e+003) (39, 1.49545734650871650000e+003) (40, -1.49157225666362460000e+003) (41, 1.49976339168464480000e+003) (42, 1.49977314325624370000e+003) (43, 1.45763382788414760000e+003) (44, 1.49946642939928570000e+003) (45, -4.93558308621433640000e+002) (46, 5.07456386265821830000e+002) (47, 9.92447920262478760000e+002) (48, 8.19479014383501520000e+002) (49, 1.48862036789356630000e+003) (50, 1.49993700805174580000e+003) (51, -1.49332227593885180000e+003) (52, 5.27399542799290880000e+002) (53, 1.49802125918854860000e+003) (54, 1.38407432917585040000e+003) (55, 1.47967746850139880000e+003) (56, 1.49997034185176720000e+003) (57, -3.24070653504987940000e+002) (58, 3.62232151858075890000e+002) (59, -2.86340437449217920000e+002) (60, 1.49985218038720290000e+003) (61, 1.43739071065433220000e+003) (62, 1.49848556338666570000e+003) (63, 9.39238442790674530000e+002) (64, 1.49976008082192990000e+003) (65, -1.55511693872098930000e+002) (66, 6.15962497402829500000e+001) (67, -8.42305094319561590000e+002) (68, 1.49857052861321340000e+003) (69, 4.02923895207729630000e+002) (70, -1.26283827029514670000e+003) (71, 1.06599039909836690000e+003) (72, 1.49990966724215100000e+003) (73, -1.46571845247966120000e+003) (74, 1.49936931849779420000e+003) (75, 1.49995376359450030000e+003) (76, 1.49749131813702520000e+003) (77, -8.79324078406464160000e+000) (78, 1.49984379104767410000e+003) (79, -1.15595487204110530000e+003) (80, 1.49854373662557350000e+003) (81, -1.27726747253156900000e+003) (82, 1.10895154761986780000e+003) (83, 1.49940876949198330000e+003) (84, 1.16282783070645220000e+003) (85, -1.09279728531549610000e+003) (86, 1.49989810426027730000e+003) (87, 1.53076138937105780000e+002) (88, 1.49999487178356180000e+003) (89, -1.12285275037213660000e+003) (90, 1.34724070939279000000e+003) (91, -1.49751612359989850000e+003) (92, 1.49849114603777750000e+003) (93, 1.49846038578953040000e+003) (94, -1.15963198246775260000e+003) (95, 5.34150023289684670000e+002) (96, 1.49985347950877800000e+003) (97, -6.25833897470586520000e+002) (98, 1.49993367801210840000e+003) (99, -1.48452856339541540000e+003) (100, 1.49867689355557760000e+003) (101, -9.15022573241091710000e-001) (102, 1.49759313647510270000e+003) (103, 1.27128885035915160000e+003) (104, 1.49937303484414060000e+003) (105, 3.27046500783714240000e+002) (106, 1.38108350310433170000e+002) (107, -1.38943353924043320000e+003) (108, 1.49747548146896860000e+003) (109, -3.76256704054834980000e+002) (110, 1.49992609001484130000e+003) (111, -1.00095757186366790000e+003) (112, 1.49764480934261930000e+003) (113, 3.46519752514555710000e+002) (114, 1.49761519002969340000e+003) (115, -1.15437501893685790000e+003) (116, 1.44987354755316230000e+003) (117, -1.10520873119575390000e+003) (118, 1.49511946336308030000e+003) (119, -8.57131701058068530000e+001) (120, 1.49737835000796800000e+003) (121, -8.39353506533051470000e+002) (122, -1.22175828265959290000e+003) (123, -8.84673467223494410000e+002) (124, 1.32569329401427440000e+003) (125, 1.23091996640399520000e+003) (0, -3.74640627295286780000e+002) (1, 5.97987050646774560000e+001) (2, 1.21901971965557800000e+003) (3, -1.06971189716530920000e+003) (4, 1.96696296652850040000e+002) (5, -3.12314604161083200000e+002) (6, 3.41200043060322570000e+002) (7, 1.29326543151024340000e+002) (8, 3.68264853839818330000e+002) (9, 1.18210263104663390000e+003) (10, 1.31092407970944370000e+003) (11, -3.16607444044385030000e+002) (12, -3.97747485039108310000e+002) (13, 7.83352734369378940000e+002) (14, 1.25967726931434500000e+003) (15, 1.49803951775355180000e+003) (16, -6.34981635506856950000e+002) (17, 1.49409721938033360000e+003) (18, -6.53175717080415130000e+001) (19, -2.77345467203691270000e+002) (20, -4.38008117141878240000e+002) (21, -7.24176613169196680000e+002) (22, 1.49996928347497760000e+003) (23, 1.19460250324518800000e+003) (24, -2.17222987787441580000e+002) (25, -4.87629957995386800000e+002) (26, 1.49673794936213130000e+003) (27, 1.47006620675044860000e+003) (28, 1.30774297695590830000e+003) (29, -7.77031687900691850000e+002) (30, -1.13608493814083230000e+002) (31, -2.13414953014437630000e+002) (32, -5.37628860022819140000e+002) (33, -1.64796073897546390000e+002) (34, 6.66532694345742700000e+002) (35, -1.47435580178881540000e+003) (36, -3.62014339541369850000e+002) (37, 1.44917957173052200000e+002) (38, -7.04830043449942420000e+001) (39, 4.16691998813638350000e+002) (40, -1.16223476072052990000e+003) (41, -9.81630083307438210000e+002) (42, 1.08159344561719380000e+003) (43, -1.72817312804535820000e+002) (44, 1.21418034764804390000e+002) (45, 9.70391717669807290000e+001) (46, -6.39513343586604830000e+002) (47, -1.18491126739137760000e+003) (48, 9.44120651757968630000e+002) (49, 6.26970640773788550000e+002) (50, -1.86081887698692580000e+002) (51, 4.85196026085359850000e+002) (52, -5.36997348276795830000e+002) (53, -1.02657732013910820000e+003) (54, 9.85865544919441390000e+002) (55, 1.08364377706755570000e+003) (56, 1.33802752967719720000e+003) (57, 1.00649154246374210000e+003) (58, -1.74141059746085660000e+002) (59, -5.83837823580255760000e+002) (60, -4.54171632160015580000e+002) (61, 1.31173441349822000000e+003) (62, 1.10983369920983450000e+003) (63, 2.29859662014459990000e+002) (64, -1.35781566245627350000e+002) (65, 3.49891099455540370000e+002) (66, 7.99606802149406120000e+002) (67, -1.17523927279958910000e+003) (68, 9.98551446729855310000e+001) (69, 8.85675590367661240000e+002) (70, -1.04479748206311230000e+003) (71, 2.55345646392838060000e+002) (72, -6.53385697570408300000e+002) (73, -1.05295704815878280000e+003) (74, -1.34942379419312280000e+003) (75, 1.45121839567071580000e+003) (76, -1.61159385243216800000e+002) (77, 1.27601083216386060000e+003) (78, 3.08937831312743130000e+002) (79, -1.31601156441720830000e+003) (80, -1.32024563832752780000e+003) (81, -4.00768273256038810000e+002) (82, 6.89578047932243290000e+002) (83, 2.93539230809759830000e+002) (84, 1.44065878935189270000e+003) (85, -1.39555732602798680000e+003) (86, 1.07491862864556080000e+003) (87, -8.36602530889820060000e+002) (88, -4.70378365671455300000e+002) (89, -3.95573227224958370000e+002) (90, -1.22737466495556130000e+002) (91, -4.34537221036357480000e+001) (92, 1.49547387453753370000e+003) (93, 1.36331239254733560000e+002) (94, -1.22811761086167260000e+003) (95, -1.49998287341371430000e+003) (96, -1.21566049235025940000e+002) (97, -5.49817442543098420000e+002) (98, 8.29897546868875910000e+002) (99, -1.49974909516505140000e+003) (100, 1.22337883697729010000e+003) (101, -1.49988571773094280000e+003) (102, 1.84028190055304780000e+002) (103, -1.49699444140838550000e+003) (104, 1.49912319894657030000e+003) (105, -2.43858269125765220000e+002) (106, 1.25748772213614460000e+003) (107, -1.49972953646322640000e+003) (108, 4.28929763745700940000e+002) (109, -3.19080511372674320000e+002) (110, 1.68506765023763050000e+002) (111, -9.20012849230220010000e+002) (112, 4.64671165610243750000e+002) (113, -1.49939948863406970000e+003) (114, 4.20645474232088870000e+002) (115, -1.49526183243525180000e+003) (116, 1.49966645581235840000e+003) (117, 6.05148301529798000000e+002) (118, 1.49595809571945820000e+003) (119, 5.04709618197607140000e+002) (120, 7.57489326748912280000e+002) (121, -1.46286377412911610000e+003) (122, -1.49783818897482390000e+003) (123, -9.13627531340015250000e+002) (124, 1.46640851365900680000e+003) (125, -1.32502340673195160000e+003) (0, 1.49962279276206320000e+003) (1, 9.41813662003944160000e+002) (2, -1.49999890698999320000e+003) (3, -4.49120478718909110000e+002) (4, -1.49991111667011750000e+003) (5, 5.38843565342549340000e+001) (6, 1.49967797145679240000e+003) (7, 1.44554177914491310000e+003) (8, -1.49999791784996090000e+003) (9, 1.49420226664689810000e+003) (10, -8.76916452475423510000e+002) (11, 1.18388710166848640000e+003) (12, 1.49965638293028500000e+003) (13, 1.06479758012165550000e+003) (14, -1.49999082943986700000e+003) (15, 2.51179437334656060000e+002) (16, -7.92749231121123900000e+002) (17, 1.23646219695240260000e+003) (18, 1.34366320790940180000e+003) (19, 8.61507148750410470000e+002) (20, -1.49999580808002270000e+003) (21, -7.43562164453492300000e+002) (22, 4.60399363040771790000e+002) (23, 8.80299857393300390000e+002) (24, 1.49966562994116750000e+003) (25, 1.49696089719072780000e+003) (26, -1.49904720932507780000e+003) (27, -1.49674852891275490000e+003) (28, 1.48543042591590850000e+003) (29, -2.78992435241343170000e+002) (30, 1.49966315003060000000e+003) (31, 1.49648974162087850000e+003) (32, -1.49999778353005470000e+003) (33, 1.32123497956165280000e+003) (34, -9.56087039405218660000e+002) (35, -9.22921552376108140000e+002) (36, 1.13594491348422800000e+003) (37, 4.59593170384685440000e+002) (38, -1.49999556593998770000e+003) (39, 1.47202574287634050000e+003) (40, 1.30909047971272030000e+003) (41, -7.54517892844790340000e+001) (42, 1.06288115093670670000e+003) (43, 1.49658190494808040000e+003) (44, -1.49999779416003890000e+003) (45, 9.90758284816755120000e+002) (46, -1.49958459218321330000e+003) (47, 1.06844127628550750000e+003) (48, 1.45088642480417370000e+003) (49, 1.49659045472167600000e+003) (50, -1.49999669524991990000e+003) (51, 1.49894124147197610000e+003) (52, -1.46144588794514880000e+003) (53, 7.38003086049211450000e+002) (54, 1.45221234531258160000e+003) (55, -5.11083448246281080000e+002) (56, -1.49995081575571750000e+003) (57, -2.49626527119768750000e+002) (58, -1.49999172928087840000e+003) (59, 5.68311976694912350000e+002) (60, 1.35584817509098250000e+003) (61, 1.49695611630177180000e+003) (62, -1.49862910159606620000e+003) (63, 1.17361102476576120000e+003) (64, -3.80652709998524930000e+002) (65, 5.75123709678304070000e+002) (66, 1.34242546490746510000e+003) (67, 1.49686720982589050000e+003) (68, -1.49862639609063940000e+003) (69, 1.48787344182662990000e+003) (70, 1.46532564851757960000e+003) (71, 5.34018159696169730000e+002) (72, 1.46438744109227260000e+003) (73, -8.72614557783478290000e+002) (74, -1.48575957151315810000e+003) (75, 1.16955831852115510000e+003) (76, 1.22640087935795400000e+003) (77, 4.22788776377892570000e+001) (78, 1.34123177334341590000e+003) (79, 5.91196372092298930000e+002) (80, -2.25626238326547480000e+002) (81, 7.13281198380623100000e+002) (82, -1.49015090824602480000e+003) (83, 1.49624142965899390000e+003) (84, 1.49966577996024810000e+003) (85, -1.47759712906531440000e+003) (86, -1.43588291371573700000e+003) (87, -1.88848697883615050000e+002) (88, -1.45968190792139380000e+003) (89, 1.18177624603888650000e+003) (90, 1.49957137746151940000e+003) (91, -1.47085150283259600000e+003) (92, -1.49778606227583370000e+003) (93, -1.05801738242410810000e+003) (94, 1.49578125115705420000e+003) (95, 5.59467456499833250000e+002) (96, 1.28132494893571790000e+003) (97, -1.39445676888268100000e+003) (98, 1.48516145466531100000e+002) (99, -4.42548453431174490000e+002) (100, -1.49606930563313540000e+003) (101, -2.59012217130343740000e+002) (102, -1.46133855597427190000e+002) (103, -8.43015300791174240000e+002) (104, -1.43936046350960690000e+003) (105, -9.07104266087897260000e+002) (106, 9.00675987394842420000e+002) (107, 4.71984203805043520000e+001) (108, 1.27969057744040200000e+003) (109, -1.53030284514361430000e+001) (110, 9.35525746135773490000e+002) (111, -9.09829650876782240000e+002) (112, -1.49999421014992570000e+003) (113, 1.49616821952342430000e+003) (114, 7.49489957994282920000e+002) (115, 2.81390240728383500000e+002) (116, 1.48353445694218270000e+003) (117, 1.49997629348285000000e+003) (118, 1.45569776261451310000e+003) (119, 1.49693980072074490000e+003) (120, 1.29122396451291800000e+003) (121, -5.83974470061982170000e+002) (122, -1.15433797096041210000e+003) (123, -1.49600831667648140000e+003) (124, 1.19678972315542370000e+002) (125, -1.48427903238497810000e+003) (0, 3.83207248431463430000e+002) (1, 1.00413808514439800000e+003) (2, -5.24979234104272450000e+002) (3, -1.51016925873195420000e+002) (4, -1.49922011851127440000e+003) (5, 1.49966158608215820000e+003) (6, -1.01165938304170210000e+003) (7, 7.73242948956593750000e+002) (8, -3.39198476989827640000e+001) (9, -7.66759129159293930000e+002) (10, -4.45421949026331390000e+002) (11, 2.81414342144965470000e+002) (12, -4.24377921002343900000e+002) (13, -6.95511350125704210000e+002) (14, -1.49555581715840480000e+003) (15, -1.14137899682325180000e+003) (16, -1.45707354489655680000e+001) (17, -8.31826033724514100000e+002) (18, -2.61435843973369860000e+002) (19, -8.81473133611551590000e+002) (20, -5.30277853063225510000e+002) (21, 3.45134752073729150000e+002) (22, 3.90436482747594650000e+002) (23, -8.02265799436439690000e+002) (24, 7.96322485037450860000e+002) (25, -1.61857209102791360000e+002) (26, 2.23841035012366320000e+002) (27, 4.41075045133704460000e+002) (28, -8.17779227794585380000e+002) (29, 2.43067418634829150000e+002) (30, 5.19888695849536930000e+002) (31, -6.59764177269965670000e+002) (32, 7.22471095450316280000e+002) (33, 1.49552906235097880000e+003) (34, -5.28019489440658500000e+002) (35, -8.62808041574953220000e+002) (36, 3.61987563555859080000e+002) (37, -7.99324663539077050000e+002) (38, -9.71977121884033410000e+002) (39, -1.00056330784777660000e+003) (40, 5.87260339633261450000e+001) (41, -7.64254940326771250000e+002) (42, 5.64391748137624290000e+002) (43, -5.04200498007538330000e+002) (44, -8.45390957609248180000e+002) (45, -1.49894984188358380000e+003) (46, 5.26457094059071550000e+002) (47, -2.38714884984709270000e+002) (48, 3.15207258003712180000e+002) (49, -1.21438095269712700000e+003) (50, 1.45238205928764860000e+003) (51, -2.86829812811331120000e+002) (52, 4.42192683632328400000e+002) (53, 5.16537545628519410000e+002) (54, 9.08120879382046550000e+001) (55, -1.24710627518842780000e+003) (56, 5.33116279971904990000e+002) (57, -1.04112734882201700000e+003) (58, 8.48385322772357090000e+002) (59, 1.25979188622200080000e+003) (60, 4.45665754595780530000e+002) (61, -1.20831463832344590000e+003) (62, -5.88452140529496890000e+002) (63, 3.82148061269389980000e+002) (64, -8.43459009023592050000e+001) (65, 1.75015047345683880000e+002) (66, 5.32443713558281150000e+001) (67, -6.96288451616518610000e+002) (68, 5.60947760412188360000e+002) (69, -1.49781831167714950000e+003) (70, 5.35641756771225230000e+002) (71, 7.44399718145391490000e+002) (72, 6.56880232806334900000e+002) (73, -1.17047484111982860000e+003) (74, 1.00560207427694290000e+003) (75, -1.48854303651757980000e+003) (76, -7.66040269040672340000e+002) (77, -8.61475138478419470000e+002) (78, 5.13625813499341580000e+002) (79, -8.37224549249556500000e+002) (80, 1.45233991959606710000e+003) (81, -1.49958775806209380000e+003) (82, -3.30493614440150270000e+001) (83, -5.88009228655082890000e+002) (84, 1.39167436475072490000e+003) (85, 4.19613324047379250000e+002) (86, 1.49969042744112180000e+003) (87, -1.49953497389570160000e+003) (88, -5.88106054470789100000e+002) (89, -5.36765295320799400000e+002) (90, 4.31487795833212430000e+002) (91, -1.16568039875213370000e+003) (92, 6.67500920578021780000e+001) (93, -1.49396905129531300000e+003) (94, 1.00220431742141610000e+003) (95, 9.72596055845078690000e+002) (96, 1.39402203257493260000e+003) (97, 3.55984377263980830000e+002) (98, 7.63685741390226330000e+002) (99, -1.49879609273877690000e+003) (100, 2.90006870499705940000e+002) (101, -1.52089297293620320000e+002) (102, 1.49927584281060740000e+003) (103, -5.99916533317413720000e+002) (104, 6.24620237265189870000e+002) (105, 7.42712156603658970000e+002) (106, -6.30348850809555530000e+002) (107, -1.28647504201951570000e+003) (108, 7.48820528730647540000e+002) (109, -6.63913769487531340000e+002) (110, -3.25580324396039150000e+002) (111, -1.24294535574898080000e+003) (112, 1.97940961317212360000e+002) (113, -1.30588660629081600000e+003) (114, 1.48144660585043490000e+003) (115, -1.03240550364092970000e+003) (116, 9.64019719221091120000e+002) (117, 1.17835525299485860000e+003) (118, -3.27415072895846890000e+002) (119, -1.21132884305885910000e+003) (120, 3.68506411180454050000e+002) (121, -6.32436955824210370000e+002) (122, 1.41001052462992490000e+003) (123, 1.49997274763856990000e+003) (124, -3.61141047289701620000e+001) (125, -3.49306779448358720000e+002) (0, 8.64143902080421070000e+002) (1, 8.26142275710335980000e+002) (2, 1.28017013095328560000e+002) (3, 7.51545156503717520000e+002) (4, 2.88537105898260730000e+002) (5, -2.75630699549890270000e+002) (6, 6.66123003836403540000e+002) (7, 1.00201179288885830000e+002) (8, -3.05475134693448010000e+002) (9, -8.88041740248191790000e+002) (10, 9.70863872108542860000e+002) (11, 2.13089394769152480000e+002) (12, 2.64145957263867440000e+002) (13, -5.31217272787031690000e+001) (14, 6.03930224892174790000e+001) (15, 8.14202833274187360000e+002) (16, 1.48883870351163980000e+003) (17, 9.53746781004851070000e+002) (18, 3.23899801414801120000e+002) (19, -6.98579515603766340000e+001) (20, -5.14833498870008270000e+002) (21, 7.56603572442032150000e+002) (22, 2.46057270351345550000e+002) (23, 8.00608795144227200000e+002) (24, 1.63031837620388100000e+002) (25, -4.30909260946863530000e+002) (26, 2.79584680029228760000e+002) (27, 1.49862379590347310000e+003) (28, 1.48656522189585300000e+003) (29, 5.76196174805990270000e+002) (30, 1.34407686686777270000e+003) (31, 1.65404622491891160000e+002) (32, 2.55285515947386670000e+002) (33, 4.03391142203853580000e+002) (34, -8.80508526489685660000e+002) (35, 1.49999994998999840000e+003) (36, 5.25197753060300220000e+002) (37, -1.16470289041235010000e+002) (38, 2.42664022687298850000e+002) (39, -1.48861472179546010000e+003) (40, 9.49757747718089540000e+000) (41, 1.45863135419765490000e+003) (42, 1.54023475304686540000e+002) (43, -6.29039946000151640000e+002) (44, -1.90290471679584840000e+002) (45, -1.48891647834501830000e+003) (46, -1.08171994240973070000e+003) (47, 9.77546044566546700000e+002) (48, 5.94170768580577150000e+002) (49, 1.93244768966686910000e+002) (50, -3.83794181664135460000e+002) (51, -9.45585131787401560000e+001) (52, -8.22590785839520890000e+002) (53, 1.41626811394875630000e+003) (54, -4.35456682370169060000e+002) (55, 7.46951354203375790000e+002) (56, -3.91003520323926580000e+002) (57, -1.03869563260124730000e+003) (58, 1.27985702741043660000e+003) (59, -9.61550410604356330000e+002) (60, 3.00600534327703990000e+001) (61, 7.20987564725727570000e+002) (62, 1.06532370604802140000e+003) (63, -1.67817046361522070000e+002) (64, 1.15833248290214310000e+002) (65, -1.10318390212593500000e+003) (66, 3.12074384507054560000e+002) (67, 1.10975423961796650000e+003) (68, 1.48267901505944700000e+003) (69, 9.71780431781350700000e+001) (70, -1.27463841899836440000e+003) (71, -1.00561149512037380000e+003) (72, 7.80348443317318360000e+002) (73, 1.10863064568119380000e+003) (74, 1.49923182871146720000e+003) (75, -3.43984470944731920000e+002) (76, 6.65691536179179020000e+002) (77, -1.11655640380611320000e+003) (78, 1.04067617590369630000e+003) (79, 8.51494701463449130000e+002) (80, 1.49997670687495840000e+003) (81, 1.27072586179837030000e+003) (82, -1.00032722802764860000e+003) (83, -1.02965154148222770000e+003) (84, 3.44994509461117560000e+002) (85, 1.05920965635932660000e+003) (86, -2.03874641483974950000e+002) (87, 1.73997690482007670000e+002) (88, 1.82275856908730560000e+002) (89, -2.74694497118167250000e+002) (90, -1.10644666198333520000e+003) (91, -2.30662988095180170000e+002) (92, -1.35184401096279540000e+003) (93, -1.49860135588714000000e+003) (94, 4.46264893631886650000e+002) (95, 1.44263713143008140000e+003) (96, 6.68868507510324090000e+002) (97, 3.25466699630123680000e+002) (98, -1.21218520830033090000e+003) (99, 1.48641290596683850000e+003) (100, -1.23073604217065300000e+003) (101, -7.48955847385711310000e+002) (102, -5.59883420244385210000e+002) (103, -1.26770457837390200000e+003) (104, -1.35334215478699250000e+003) (105, 5.96267016135403420000e+002) (106, 1.29221772727640840000e+003) (107, -8.69239558960373530000e+002) (108, -1.06606140508288600000e+003) (109, -1.47493460624382690000e+003) (110, -1.02960690022300240000e+003) (111, 1.45611245724115200000e+003) (112, 1.02982360951854390000e+003) (113, -1.02069809469458360000e+003) (114, -1.10073854076650330000e+003) (115, -1.10443358609621280000e+003) (116, 1.32168817557824400000e+003) (117, -1.09337536744639280000e+003) (118, -1.35935040051493620000e+002) (119, -5.29972741330713120000e+002) (120, 6.00283419110117510000e+002) (121, -1.14179373411383180000e+003) (122, 1.35949891961573870000e+003) (123, -6.04081070700636020000e+002) (124, 4.02739899522045850000e+002) (125, 1.49862500135351660000e+003) (0, 4.72047500431848220000e+002) (1, -1.49866475824917670000e+003) (2, 5.36818829235055320000e+002) (3, 1.49386670813528080000e+003) (4, -4.95210899144695080000e+002) (5, -7.79712382422215880000e+001) (6, 1.24289904165664310000e+002) (7, -1.49873003631926390000e+003) (8, 1.43846852818434600000e+003) (9, 2.50911750591835700000e+002) (10, -1.49598237691248780000e+003) (11, -1.49999094240023900000e+003) (12, -1.49914509429109330000e+003) (13, -1.49870565783388130000e+003) (14, 5.18315253870106290000e+002) (15, 9.51786120316349300000e+002) (16, -1.49990900639020720000e+003) (17, -8.63178227469750030000e+002) (18, 5.16378167844237480000e+001) (19, -1.49875352650277980000e+003) (20, 1.49914879729305860000e+003) (21, 1.25226763986575690000e+002) (22, -1.49801081576811090000e+003) (23, -1.86858570842418630000e+002) (24, -2.50072197159894730000e+002) (25, -1.29013363224501360000e+003) (26, 3.27289225454897290000e+002) (27, 1.43916085811540550000e+003) (28, -1.49491686708232780000e+003) (29, -7.48099375925412010000e+002) (30, 5.30402693746670930000e+002) (31, -1.24210446769679310000e+003) (32, 4.97729399334692810000e+001) (33, 1.47400349897364090000e+003) (34, -1.49983760008056970000e+003) (35, -1.49691835255357640000e+003) (36, -1.37486380651933810000e+001) (37, -1.49944620615761980000e+003) (38, 4.06788180532518420000e+002) (39, 1.49997507753891730000e+003) (40, 8.85372984387281920000e+002) (41, -1.49692727351182430000e+003) (42, -2.92624147075912160000e+002) (43, -1.49896122498715480000e+003) (44, 3.77800801933189920000e+002) (45, -1.39002313064971850000e+003) (46, 5.75591883654589990000e+002) (47, -1.49785786485904670000e+003) (48, 4.78811140378603510000e+002) (49, -1.49737166272016360000e+003) (50, 1.34767257157116460000e+002) (51, 1.48299010140256810000e+003) (52, 1.49028182770943770000e+003) (53, -1.49786982980770430000e+003) (54, -4.40640675172594340000e+002) (55, -5.37924853830254850000e+002) (56, 1.49914368178177690000e+003) (57, 1.46543303086359830000e+003) (58, -1.49999731270720260000e+003) (59, -1.75101148779808990000e+002) (60, -6.78756028886411970000e+002) (61, -6.82034276347874770000e+002) (62, 1.20278384942564730000e+003) (63, -2.75543129304314900000e+002) (64, 1.42470740100102380000e+003) (65, -1.19901113278153640000e+003) (66, -2.14411952174360440000e+002) (67, -2.90086164968040010000e+002) (68, -1.14430861693838220000e+002) (69, 1.41279446427402790000e+003) (70, -4.24579961621127780000e+001) (71, -4.28384052410642250000e+002) (72, -9.90537161225027940000e+002) (73, -7.05933712092330670000e+002) (74, 5.17754904673538020000e+002) (75, 6.92939439313144590000e+002) (76, 2.21663092846365940000e+002) (77, -4.90589850496621120000e+002) (78, -1.07463797225397090000e+002) (79, -1.30089296592875330000e+003) (80, -3.87427277797142040000e+002) (81, 1.02385618922814490000e+003) (82, -1.49996825002609190000e+003) (83, -1.49845480702050120000e+003) (84, 3.18391689238548570000e+002) (85, -9.45085583550783890000e+002) (86, -2.65339304477769870000e+002) (87, 3.25681909545138470000e+002) (88, 3.87868151004067220000e+002) (89, -1.49842046734056250000e+003) (90, -2.64137217350823830000e+001) (91, -1.14500555950580250000e+003) (92, -9.25952965797558140000e+002) (93, -1.43498813071142850000e+003) (94, -1.49553637766351520000e+003) (95, -1.49842927301917210000e+003) (96, 3.91977092901798530000e+002) (97, -1.34019989096403900000e+003) (98, -1.49557495098775920000e+003) (99, 1.34964791202143940000e+003) (100, -1.49588324829674820000e+003) (101, -1.49848890806543930000e+003) (102, 1.21446802461743100000e+002) (103, -1.49358152559362540000e+003) (104, -4.06016937946934430000e+002) (105, 1.17081488297211510000e+003) (106, -7.09139688415430670000e+002) (107, -9.09392107792867250000e+002) (108, -2.90746990125108820000e+002) (109, -6.43737305741085610000e+002) (110, -3.63487126083737050000e+002) (111, -8.24608437504599580000e+002) (112, 1.27331639224226320000e+003) (113, -1.49904967371090540000e+003) (114, -8.91639273431401420000e+002) (115, -1.48759291476790870000e+003) (116, 1.36011136316119340000e+003) (117, 6.38712202521671660000e+002) (118, 1.26063533467984140000e+003) (119, 3.41903193527581810000e+001) (120, -5.24505234009310580000e+002) (121, -6.35393252592479140000e+002) (122, -1.25825921615973240000e+003) (123, 4.93207492310034410000e+002) (124, 9.91134148455546660000e+002) (125, 3.05521934895605340000e+002) (0, -1.43124467625727700000e+003) (1, -1.32871569760301300000e+003) (2, -1.49721127843796900000e+003) (3, 9.96456094384460730000e+001) (4, 6.31768497647761360000e+002) (5, -9.80944458135056490000e+002) (6, -6.52267499774630100000e+002) (7, -8.47440742313531250000e+002) (8, -1.49719956897144130000e+003) (9, -1.06216785532969930000e+003) (10, 1.49968798436127080000e+003) (11, -1.86672326531465500000e+002) (12, -5.59187225339188100000e+002) (13, -3.21763175740454530000e+002) (14, -1.49729530040225770000e+003) (15, -1.46566143692807150000e+003) (16, 1.49924958363611200000e+003) (17, -5.37585202931950760000e+001) (18, -4.52433229806127370000e+002) (19, -1.32826357825270250000e+003) (20, -1.49701667309184220000e+003) (21, -1.33443421968597270000e+003) (22, -3.06168090223078080000e+002) (23, 8.85965219371129020000e+002) (24, -4.20732739960762100000e+001) (25, -1.31736321355813110000e+003) (26, -1.49714868632577370000e+003) (27, -9.69634287603980740000e+002) (28, -1.03724176731129520000e+003) (29, 9.50821294213990430000e+002) (30, -1.08145551741523450000e+003) (31, -1.07986389141871000000e+003) (32, -1.49996326319148010000e+003) (33, -1.49832890587903900000e+003) (34, 7.94518484187640520000e+002) (35, 8.74878970511428180000e+002) (36, -1.12665042346187120000e+003) (37, -1.32750483271410030000e+003) (38, -1.49712147583166890000e+003) (39, 5.48984208655318410000e+002) (40, 3.47158088225922880000e+002) (41, 6.00075125961550730000e+002) (42, -1.49944923138773400000e+003) (43, -1.23661019342913480000e+003) (44, -1.49776255701311610000e+003) (45, -1.46720461908656420000e+003) (46, -1.45290129225719720000e+003) (47, 7.75480959448933160000e+002) (48, -1.28219644874488980000e+002) (49, -1.33040686312332630000e+003) (50, -1.49717822293661770000e+003) (51, -1.49927960657383070000e+003) (52, -1.49810800930598110000e+003) (53, 3.48849679146334610000e+002) (54, -6.76247541113145300000e+002) (55, -1.20133419631644570000e+003) (56, -1.49884205430315410000e+003) (57, -5.07163667168966360000e+002) (58, 7.56755086410869010000e+002) (59, 1.09987316665986100000e+001) (60, 2.67289046255659060000e+002) (61, -1.31442927587599800000e+003) (62, -1.49715530057027490000e+003) (63, 1.44305106202322080000e+003) (64, -2.11458588737395590000e+002) (65, -1.13840488941026870000e+003) (66, -4.61462025211706990000e+002) (67, -1.00096423988659680000e+003) (68, -1.49444337017105410000e+003) (69, -6.52439799755389910000e+002) (70, -1.49737261542185980000e+003) (71, -1.14545820719259520000e+003) (72, -5.40647987819479910000e+002) (73, -8.67888120399589750000e+002) (74, -1.49211405198870060000e+003) (75, 7.76026307653175420000e+002) (76, -1.49949049444276470000e+003) (77, -7.78932097628325210000e+002) (78, 5.21856461661598470000e+002) (79, -2.32279764145043600000e+002) (80, -1.49216025751890290000e+003) (81, -1.22323572120377180000e+003) (82, 9.51889489717828210000e+001) (83, -1.14663680165353140000e+003) (84, 1.20042333706946980000e+002) (85, -9.63046952328852060000e+002) (86, -1.49442603509016480000e+003) (87, 5.81731615989330290000e+002) (88, -6.78323499049432030000e+002) (89, -1.32374016764227760000e+003) (90, 6.89522117221129630000e+002) (91, -1.11194126732085690000e+003) (92, -1.49832763938907490000e+003) (93, 2.91453388814396820000e+002) (94, -1.49869493885556270000e+003) (95, 1.09901305760880390000e+002) (96, -1.49988872093794430000e+003) (97, -1.07500020355197670000e+003) (98, -1.49212919694295310000e+003) (99, -1.46689687791702180000e+003) (100, 1.49989440757563940000e+003) (101, -1.38652801244740680000e+003) (102, 4.77301678963054540000e+002) (103, -1.04807550769364620000e+003) (104, -1.49488139581283640000e+003) (105, -1.23781377754808800000e+003) (106, -1.49704697089640690000e+003) (107, -1.46635174605654790000e+003) (108, -1.49997631972673090000e+003) (109, -1.12140847141485780000e+003) (110, -1.49481466645694260000e+003) (111, -5.99366394678774210000e+002) (112, -1.49964934016689430000e+003) (113, 1.03028644374495390000e+001) (114, -1.32286567054026550000e+003) (115, -1.77900322806886580000e+002) (116, -1.49489526406908110000e+003) (117, -3.81271823140956710000e+002) (118, -1.49895180204758500000e+003) (119, -3.13101889261149720000e+002) (120, -1.49668985531081100000e+003) (121, -1.23125646051495760000e+003) (122, 9.46135196294458640000e+002) (123, -5.74834631783231320000e+002) (124, -1.47752278466886330000e+003) (125, -1.38295817600454350000e+003) (0, 1.48385477389226870000e+003) (1, 8.58352499129563000000e+001) (2, 1.44419166750191550000e+002) (3, 6.22351033426995510000e+002) (4, -1.49581794853841120000e+003) (5, -1.49981251936869330000e+003) (6, -4.21939386503951880000e+002) (7, -5.42091304522109570000e+002) (8, 1.35616456953214900000e+003) (9, 2.52955279920311630000e+002) (10, -7.03851729090604150000e+001) (11, -1.49909182432095050000e+003) (12, -5.52153975120021760000e+002) (13, -7.32084560134163440000e+002) (14, -1.49963517701606660000e+003) (15, 1.35643188643873620000e+003) (16, 4.85488813779710200000e+002) (17, -1.49955686813552370000e+003) (18, 5.27955322962950960000e+002) (19, 2.61278888417848010000e+002) (20, -1.11163183111423430000e+003) (21, -1.16211061165913970000e+003) (22, -1.02527624871724900000e+003) (23, 1.41365118939532950000e+002) (24, -2.05441339388710790000e+002) (25, 9.94671865749209250000e+002) (26, -1.25858784637911060000e+002) (27, 1.49998615963687050000e+003) (28, 1.16319855843535270000e+003) (29, -1.49906316330488950000e+003) (30, 1.48519779502938100000e+003) (31, -2.67750959964088400000e+001) (32, -3.59021628404940880000e+002) (33, 1.66234945417573900000e+002) (34, 1.49464206532879530000e+003) (35, -1.49903848568492090000e+003) (36, 1.04039001623858190000e+003) (37, 9.13669747592800830000e+002) (38, -4.29241651633633470000e+002) (39, 1.37869587856776020000e+003) (40, 2.21750269724880330000e+002) (41, -1.49900465482532720000e+003) (42, 7.11367591684208150000e+002) (43, 1.32860323963573930000e+003) (44, -1.02189429278427040000e+003) (45, 1.49879136861116850000e+003) (46, -1.48872588087419560000e+003) (47, -1.49898285942617120000e+003) (48, 3.43362819487635850000e+001) (49, 7.69160574540606720000e+002) (50, 7.80520491568597320000e+002) (51, -8.23736447655939170000e+002) (52, 1.49656964945178150000e+003) (53, -1.49902145463990810000e+003) (54, 7.67500108392026280000e+002) (55, 1.05096230676424350000e+003) (56, 1.49317893127782900000e+003) (57, -2.10818280580324970000e+002) (58, 1.40434264987059170000e+003) (59, 5.99566496437764950000e+002) (60, 9.45748233855622290000e+002) (61, -1.16284815081255080000e+003) (62, 1.49139351744581500000e+003) (63, 2.42691792957883560000e+002) (64, 1.49826400172831970000e+003) (65, 1.15212471724838950000e+003) (66, 6.46322926309546230000e+002) (67, -1.46574575865649100000e+003) (68, 1.48531606017641270000e+003) (69, 1.32531912639679560000e+003) (70, -1.49696441882827070000e+003) (71, 1.15169227173291210000e+003) (72, -1.40965461187486840000e+003) (73, -1.43104404191647650000e+003) (74, 1.49515819276438650000e+003) (75, 9.15818613249835150000e+002) (76, 1.44771920645517680000e+003) (77, 9.50329733859137830000e+002) (78, -1.79712810351225240000e+002) (79, 1.43135519517366860000e+003) (80, 8.51526902999762460000e+002) (81, -1.12718148993110730000e+003) (82, 1.36041860945766460000e+003) (83, 1.40927395755237010000e+003) (84, -1.44261931507321420000e+003) (85, -1.39998341490459050000e+003) (86, 1.49205091961479710000e+003) (87, 2.19845619847941240000e+002) (88, 1.28077861370475260000e+003) (89, -4.01431594348164080000e+002) (90, -8.59926686002170070000e+002) (91, -1.43035884584890440000e+003) (92, 1.48556484117977880000e+003) (93, 3.67308816657907070000e+002) (94, -1.49736623386221210000e+003) (95, -1.49987765499797620000e+003) (96, 1.49908352559026430000e+003) (97, -7.66367036128072530000e+002) (98, 3.98008961431860600000e+002) (99, -1.41128943028003980000e+003) (100, -1.49984689063482780000e+003) (101, -1.49985930845385270000e+003) (102, -4.56132153260770040000e+001) (103, 1.02854903725304350000e+003) (104, 1.49589677899933030000e+003) (105, -5.03557309269687720000e+002) (106, 1.43232163936108420000e+003) (107, -1.49982426756483890000e+003) (108, 3.39745623718663130000e+002) (109, 1.43127791876315450000e+003) (110, -1.48187578093374240000e+003) (111, -1.41543265572164140000e+003) (112, 1.48463396274981820000e+003) (113, -1.43425945773978950000e+003) (114, -6.44747802641449880000e+002) (115, 1.46765192803004130000e+003) (116, 1.49127922530823500000e+003) (117, 4.76793311105783460000e+002) (118, 1.23736819001781810000e+003) (119, 1.10222063151567950000e+003) (120, -1.04113970882853660000e+003) (121, 8.51769254230687690000e+002) (122, 1.48475166370482590000e+003) (123, 1.91868374926532600000e+002) (124, -1.49365695701880830000e+003) (125, 1.49995983856404200000e+003) (0, -1.49859064783078450000e+003) (1, -9.82833894087932780000e+002) (2, 1.02250131242062140000e+003) (3, -3.62211658321976190000e+002) (4, 1.33522350188478670000e+002) (5, 1.49373743835711430000e+003) (6, -1.49856205146635170000e+003) (7, -1.49237000261575740000e+003) (8, 1.23458103012022900000e+002) (9, 1.49944441260766480000e+003) (10, -1.46527282653001180000e+003) (11, 3.27534472847337330000e+002) (12, -2.80774050028236050000e+002) (13, -1.46513386480441750000e+003) (14, 1.49447015439475100000e+003) (15, 1.45194618221893960000e+003) (16, 1.49961192978888380000e+003) (17, -2.24495086154362640000e+002) (18, -1.49457122212965990000e+003) (19, -1.46450793976290630000e+003) (20, 1.49507875426008990000e+003) (21, -7.99239851470252230000e+002) (22, -1.46580236781900790000e+003) (23, -1.49791019869672820000e+003) (24, -1.07508959717314660000e+003) (25, -1.46561090600124770000e+003) (26, 1.42714750579826910000e+003) (27, 1.49412950801857440000e+003) (28, -1.46276889603016820000e+003) (29, -1.49114404382060020000e+003) (30, -1.15860303836133520000e+003) (31, -1.46499113477940430000e+003) (32, 1.47658383997379880000e+003) (33, -1.18356951678122300000e+003) (34, 1.46387931968666590000e+003) (35, -1.49108695429336310000e+003) (36, -9.43126808281338980000e+002) (37, -1.47186470654604730000e+003) (38, 1.49543500372435940000e+003) (39, 1.48924835645494640000e+003) (40, -9.18470289202975210000e+002) (41, -1.49108649165544920000e+003) (42, -3.04396050793393510000e+001) (43, -1.41570139243480980000e+003) (44, 6.07938771338509130000e+002) (45, -1.07811844861105100000e+003) (46, 3.73600601204047620000e+002) (47, -1.49001215874380840000e+003) (48, -1.23108624598655110000e+003) (49, -1.47204639208507730000e+003) (50, 1.49664092211909910000e+003) (51, -1.47592754197611700000e+003) (52, 1.49395054954518670000e+003) (53, -1.48671856450159610000e+003) (54, 1.44612810878492880000e+003) (55, -1.47200209905816150000e+003) (56, 1.42017183233976520000e+003) (57, 1.42093878266522980000e+003) (58, 1.48994443910337120000e+003) (59, -1.48462280894830540000e+003) (60, -9.87693609766275240000e+002) (61, -1.40911690352423280000e+003) (62, 6.81178999702224810000e+002) (63, 1.42084730692611150000e+003) (64, 2.07718055475892610000e+002) (65, -8.66677036450320430000e+002) (66, -1.49454804307042950000e+003) (67, -1.41573594596102270000e+003) (68, 1.49104514044187860000e+003) (69, 1.42055866127794390000e+003) (70, -1.48266931961018330000e+003) (71, -8.48973287580593250000e+002) (72, -2.27095289514001730000e+002) (73, -1.41585490026029920000e+003) (74, 1.54140062255930590000e+002) (75, 1.45764674550286580000e+003) (76, 1.03629369576169640000e+003) (77, -6.28351451688896760000e+002) (78, -1.45244923532922920000e+003) (79, -1.47662905871992830000e+003) (80, -6.37604505192559490000e+002) (81, -1.43974803194228460000e+003) (82, 1.38454488703166040000e+003) (83, -9.63483980754461750000e+002) (84, -1.49999735979999670000e+003) (85, -1.36690836655715790000e+003) (86, -1.39068321133221270000e+002) (87, 1.46426193302204500000e+003) (88, 1.46734554329565390000e+003) (89, -5.04909460751572790000e+002) (90, -1.49862049462879050000e+003) (91, 2.56835854299998460000e+002) (92, 4.97364870178235780000e+002) (93, -1.44687618239445060000e+003) (94, 7.16852767423940460000e+002) (95, -9.13962068895813900000e+002) (96, -1.50000000000000000000e+003) (97, -8.93979066024519510000e+002) (98, 2.27682467319844140000e+002) (99, -1.49218800713708170000e+003) (100, 1.49991319337474830000e+003) (101, -6.52977797266865650000e+002) (102, 9.54005536202161810000e+002) (103, 1.33287531075067660000e+003) (104, -9.99721496031326180000e+002) (105, 1.02045857545018660000e+002) (106, 1.44692540667568640000e+003) (107, -1.46633205213033810000e+003) (108, -5.64516932784433270000e+002) (109, 1.43937652793201210000e+003) (110, -1.49053822541000520000e+003) (111, -1.36384367162445070000e+003) (112, 1.43128080965151800000e+003) (113, -1.26945955572792260000e+003) (114, -1.49448811028161820000e+003) (115, -7.51706600716827320000e+002) (116, -8.69133696839295110000e+002) (117, 8.83796890066782230000e+002) (118, 1.20750434805290960000e+003) (119, -7.46461488307194600000e+002) (120, 2.52609199077328270000e+002) (121, -7.52202056228247670000e+002) (122, -1.49044724686857260000e+003) (123, -1.34936674234246080000e+002) (124, -1.43810733728787250000e+003) (125, -1.49251208683649660000e+003) (0, -1.48284633538216120000e+003) (1, -1.46940762870114100000e+003) (2, 1.49999958164995970000e+003) (3, -1.50884038064322710000e+002) (4, -1.49981310830559760000e+003) (5, 1.40559725788562740000e+003) (6, 9.63565286317068740000e+002) (7, -8.84226511919610630000e+002) (8, 4.31048424814240600000e+002) (9, -1.49989949904886680000e+003) (10, -2.08709165135182390000e+002) (11, 1.49994197461333190000e+003) (12, 1.41947125667528870000e+003) (13, -1.86449325376726620000e+002) (14, 1.49999898152994070000e+003) (15, -1.87970452584681370000e+002) (16, -1.65571879288456960000e+002) (17, 1.49851993174732270000e+003) (18, 1.41830672005784070000e+003) (19, -3.22525587653371300000e+002) (20, 1.50000000000000000000e+003) (21, -1.49865864233228400000e+003) (22, -1.13242533507046280000e+003) (23, 1.49912124031958550000e+003) (24, 9.61222859754298720000e+002) (25, -1.46731728366031580000e+003) (26, 1.49999972614996480000e+003) (27, -1.49891521472589120000e+003) (28, -1.49799524557428370000e+003) (29, 1.49991816737051500000e+003) (30, -1.95769457118422880000e+002) (31, -1.84458713208690450000e+002) (32, 2.73151252004062830000e+002) (33, -1.49892996695433660000e+003) (34, -1.49494010020298610000e+003) (35, 1.49998286342366440000e+003) (36, -6.50483939168243300000e+002) (37, -7.71928351517195440000e+002) (38, -2.59874041704976490000e+002) (39, -1.49733575540565680000e+003) (40, -1.39388859819951240000e+003) (41, 1.49998877056965580000e+003) (42, -3.09422436002673520000e+002) (43, -8.25625272074691110000e+002) (44, 1.41473017205845620000e+003) (45, -1.49493738553931350000e+003) (46, -1.49360228085773930000e+003) (47, 1.46090918146883180000e+003) (48, 6.50400691298699600000e+002) (49, -6.31482377950823090000e+002) (50, 4.19799674303952710000e+002) (51, -1.48589238271117920000e+003) (52, -1.70509511261355700000e+002) (53, -1.25411525152781000000e+003) (54, -4.43488928218916330000e+002) (55, 1.55505119649668020000e+002) (56, 1.49996840340446720000e+003) (57, -1.49991342655373570000e+003) (58, 1.49978131614303650000e+003) (59, -1.49284066003793920000e+003) (60, -8.69619046924349960000e+002) (61, 1.02821252079236020000e+003) (62, 1.49786999364194840000e+003) (63, -1.49961978321016950000e+003) (64, -1.72883384977555440000e+002) (65, -1.49265269402831680000e+003) (66, -6.06136863418208240000e+002) (67, 1.49999383194720550000e+003) (68, 1.49996491740750140000e+003) (69, 3.95982309365643460000e+002) (70, 6.47264502519701640000e+002) (71, -1.49762247398800200000e+003) (72, 1.48826227876789060000e+003) (73, 1.50000000000000000000e+003) (74, -1.14732474055291910000e+003) (75, 7.12295834874658110000e+002) (76, 8.89901284301936360000e+002) (77, -7.63789696068341640000e+002) (78, -5.96124366128453520000e+002) (79, 1.49999161445002190000e+003) (80, -1.21499939203709050000e+003) (81, -4.28891198961763510000e+002) (82, 7.92808410804331770000e+001) (83, -1.49327390599053590000e+003) (84, 3.44437322289284280000e+002) (85, 1.12008411830599700000e+003) (86, -1.30503424881883640000e+003) (87, -1.32494994244107650000e+003) (88, -1.49977440403002450000e+003) (89, 1.49999337622976830000e+003) (90, 2.24054262109256290000e+001) (91, 1.49920413014260020000e+003) (92, -1.06630339281574420000e+003) (93, 1.39994697962737270000e+003) (94, -1.45986714868364630000e+003) (95, 1.49991014228847050000e+003) (96, -1.48284839559245050000e+003) (97, 9.29197011063185980000e+002) (98, 7.61268342335144890000e+002) (99, 1.49927907109280050000e+003) (100, -1.12441600695973220000e+003) (101, 1.49999602954982630000e+003) (102, -2.53988757890193680000e+002) (103, 1.49940094076906230000e+003) (104, -7.82371050706522960000e+002) (105, 5.25576918257976440000e+002) (106, -9.22032685345528990000e+002) (107, 1.49993399790699440000e+003) (108, -5.09913410567500020000e+002) (109, 1.49940033150956950000e+003) (110, 1.49393840565533830000e+003) (111, 1.59658504992606480000e+002) (112, -9.44243208947143330000e+002) (113, 1.49991679794949350000e+003) (114, 5.70011111952438910000e+002) (115, 1.41667679850959350000e+003) (116, -1.49956209034149830000e+003) (117, -1.19795683645885970000e+003) (118, -1.13136208229847810000e+003) (119, -1.35111011593243690000e+003) (120, -5.94514565070487380000e+002) (121, 1.30548995296677000000e+003) (122, -7.34594282090973250000e+002) (123, -2.12039471119513910000e+002) (124, -1.49901336441311830000e+003) (125, 1.48864702440293260000e+003) (0, 1.39275953352917030000e+003) (1, -9.61153570713591190000e+002) (2, 1.49634780248267360000e+003) (3, 4.52826228266373790000e+002) (4, -1.34484625073555570000e+003) (5, 1.49895357722240710000e+003) (6, 1.40627821256141460000e+003) (7, -6.73910349635634020000e+002) (8, 1.49642058361916450000e+003) (9, 6.70082894855510180000e+002) (10, -9.52245173514414200000e+002) (11, 5.05754984116049570000e+002) (12, 1.47016705094709190000e+003) (13, -2.12300200496328420000e+002) (14, 1.49692302702673650000e+003) (15, 3.76450184842148360000e+002) (16, 1.37716840243970020000e+003) (17, 1.06272069537848420000e+003) (18, 1.47075052552070360000e+003) (19, -1.98990405138918020000e+002) (20, 1.49620084191775820000e+003) (21, -1.19625139837076520000e+003) (22, 7.44600171570910790000e+002) (23, -1.47931512353847240000e+002) (24, 1.39286935525415830000e+003) (25, 1.24877579347624660000e+002) (26, 1.49671895967545720000e+003) (27, -1.49971199161019330000e+003) (28, -3.31546308575236420000e+002) (29, -1.02552158159721240000e+003) (30, 1.40504062231987430000e+003) (31, -4.00016432971312210000e+002) (32, 7.17379958498543150000e+002) (33, -1.49991275595563550000e+003) (34, 1.32404481047107130000e+003) (35, -7.72160991320099700000e+002) (36, 9.28350312516449780000e+002) (37, -3.50895896711603260000e+002) (38, 8.80706965601514180000e+002) (39, 1.67677641548701440000e+002) (40, -7.52544435020488440000e+002) (41, -7.64676044476133480000e+002) (42, 9.23537366841378340000e+002) (43, -5.76260448015532690000e+002) (44, 1.49984228557060400000e+003) (45, -1.37962848577310890000e+003) (46, 6.11570885407045470000e+002) (47, -9.60994493093921160000e+002) (48, 9.27327614188165850000e+002) (49, -1.00361719799443010000e+003) (50, -3.25720182017207610000e+002) (51, 3.37227744810081330000e+002) (52, 1.43123559846846090000e+003) (53, -1.04897869112794360000e+003) (54, 1.40228383014407650000e+003) (55, 5.02885449760396060000e+002) (56, 1.41162746202486980000e+003) (57, 1.49974667532604350000e+003) (58, 1.43131530078330890000e+003) (59, -9.69721551244573220000e+002) (60, 1.47233813943217270000e+003) (61, -7.68165334046717820000e+002) (62, 1.49998984676959840000e+003) (63, 1.29617517072815350000e+003) (64, 1.31365103474157510000e+003) (65, 1.28888528143654370000e+003) (66, 1.41084354061335350000e+003) (67, -3.25839241907537830000e+002) (68, 1.49998146029204370000e+003) (69, 1.49815469764490470000e+003) (70, -5.18356293388834960000e+002) (71, 1.19422222533345280000e+003) (72, 1.47578725537752080000e+003) (73, 4.44319967765938010000e+000) (74, 1.49998751002953490000e+003) (75, 7.43425585820930120000e+000) (76, 1.23771109201478410000e+003) (77, 1.21585273985332920000e+003) (78, 1.41036039130035850000e+003) (79, 6.43368889359903050000e+002) (80, 1.49998780722955620000e+003) (81, -1.19469207437721230000e+003) (82, 9.45543330377647180000e+002) (83, 9.84523827368526210000e+002) (84, 1.41114231655378330000e+003) (85, -2.56226323193083260000e+002) (86, 1.49995735658255280000e+003) (87, 1.04654970402541580000e+003) (88, -1.46954054090076330000e+003) (89, 1.02053540721411320000e+003) (90, 1.47432919439624470000e+003) (91, 1.47140397499860460000e+002) (92, 1.49997669610970730000e+003) (93, -1.19882630295358170000e+003) (94, -1.46797407137415600000e+003) (95, 9.20036611911210460000e+002) (96, 1.40419850977425840000e+003) (97, 3.03060780424500360000e+002) (98, 1.49998084588963750000e+003) (99, -4.00311059063249960000e+002) (100, -2.38615780745216480000e+002) (101, 1.33469828510746040000e+003) (102, 1.47019470131410570000e+003) (103, 2.29921486651368440000e+002) (104, 1.49998508713923370000e+003) (105, 8.54109934855622300000e+001) (106, -3.16148907535726720000e+002) (107, 1.34357233234966200000e+003) (108, 1.47018504458656070000e+003) (109, 6.74794254570608810000e+002) (110, 1.49997449477418380000e+003) (111, -9.83543581275064980000e+002) (112, 1.33542751355981660000e+003) (113, 1.33364752690604950000e+003) (114, 1.47622571424394000000e+003) (115, 3.57405369825910900000e+002) (116, 1.49998118013966650000e+003) (117, -1.18019966729606180000e+003) (118, 7.53286162478029380000e+002) (119, 5.75739050437445140000e+002) (120, 1.40856553796002070000e+003) (121, -3.35654651850961270000e+002) (122, 1.49998321762972800000e+003) (123, -1.07195889262289420000e+003) (124, -7.07309389427433190000e+002) (125, 2.96923781955810060000e+002) (0, -6.27801581682322310000e+002) (1, 5.19792443264359960000e+000) (2, 1.25068646106156510000e+003) (3, 3.53657030146950320000e+002) (4, -1.42874375110507320000e+003) (5, -1.11981767868889820000e+003) (6, 6.29831349039856600000e+002) (7, -1.45802386454082690000e+002) (8, 5.01224037848747000000e+002) (9, -1.97117901105697110000e+002) (10, -1.49999150623259020000e+003) (11, 1.49674179424488630000e+003) (12, -1.36437037154675390000e+003) (13, -4.87310851959689870000e+001) (14, 1.49999359372987190000e+003) (15, 1.17707055602726250000e+003) (16, -3.09428054317691190000e+002) (17, 1.49664521362972600000e+003) (18, -8.29944232632583630000e+002) (19, 1.19942575783710240000e+002) (20, 1.49998373479111890000e+003) (21, -2.27956497145040830000e+002) (22, -7.29617929475222010000e+002) (23, 1.23442886932312260000e+003) (24, -3.95786315502730190000e+002) (25, -7.45769151200055830000e+002) (26, 1.49949797164285380000e+003) (27, -8.41565544342154680000e+002) (28, 6.96318090161570130000e+002) (29, 5.43307908111484830000e+002) (30, -6.64779801727868630000e+002) (31, -4.57108858950841410000e+002) (32, 3.21408955932106320000e+002) (33, -1.22976362475895460000e+003) (34, -9.22015633801666700000e+002) 